tree
version=v4
num_class=1
num_tree_per_iteration=1
label_index=0
max_feature_idx=19
objective=regression
feature_names=dayofweek isweekend month precpt avg_temperature avg_humidity avg_wind_level discount holiday_flag activity_flag stockout_hours iscensoredday isnotstocked city_id store_id management_group_id first_category_id second_category_id third_category_id product_id
feature_infos=[0:6] [0:1] [3:6] [0:34.582799999999999] [12.880000000000001:30.879999999999999] [27.350000000000001:92.680000000000007] [0.96999999999999997:3.6000000000000001] [0:1] [0:1] [0:1] [0:16] [0:1] [0:1] [0:17] [0:897] [0:6] [0:31] [1:79] [161:232] [0:864]
tree_sizes=5474 5455 5592 5571 5602 5588 5529 5481 5619 5560 5627 5627 5566 5601 5601 5703 5619 5715 5519 5624 5664 5749 5581 5651 5661 5565 5715 5782 5708 5665 5789 5638 5681 5658 5736 5531 5889 5769 5775 5777 5649 5736 5612 5819 5731 5710 5760 5655 5915 5709 5856 5698 5718 5920 5723 5699 5902 5572 5776 5628 5919 5722 5706 5608 5682 5762 5981 5729 5739 5716 5869 5967 5737 5591 5663 5850 5752 5745 5846 5735 5769 5789 5550 5776 5820 5558 5894 5875 5573 5757 5985 5731 5920 5833 5740 5960 5842 5947 5888 5747 5721 5557 5902 5708 5990 5968 5729 5902 5990 5634 5924 5612 5893 5718 5696 5804 5849 5576 5784 5787 5707 5997 5959 6019 5674 5842 6068 5701 5748 5832 5572 5674 5925 6036 5977 6010 5788 5907 5780 5898 5845 5761 5880 5985 5966 5869 5982 5745 5603 6027 6031 6008 5971 6021 5617 5788 5919 5888 5671 5867 5974 5994 5999 5737 5989 5941 5672 5819 5961 5756 5661 5984 5749 6080 5983 5891 5770 6073 5844 5721 5739 5768 5842 5749 5949 5942 5763 5797 5792 5728 5806 5702 6058 5955 5860 5883 5920 5824 5795 5876 6044 5693 5860 5813 5608 5577 5835 5750 5733 5627 5973 5901 5979 5799 5885 5915 5635 5906 5821 5929 6032 5822 5634 5849 5721 5798 5832 5771 5857 5905 5667 6003 5666 5530 5698 5631 5595 5741 5790 5772 5717 5880 5700 5741 5789 5930 5716 5902 5735 5936 5753 5773 5991 5738 5904 5592 5590 5647 5717 5648 5755 5749 5646 5823 5864 5648 5713 5737 5508 5616 5748 5569 5956 5580 5681 5942 5687 5754 5709 5746 5938 5697 5937 5852 5656 5758 5938 5868 5546 5783 5963 5754 5679 5877 5501 5954 5932 5605 5607 5664 5792 5899 5821 5706 5490 5716 5952 5584 5504 5691 5672 5691 5936 5602 5601 5691 5800 5888 5587 5783 5723 5663 5857 5934 5770 5646 5856 5583 5650 5927 5792 5547 5662 5826 5873 5855 5634 5522 5832 5719 6024 5698 5682 5781 5736 5598 5867 5840 5803 5823 5570 5818 5759 5630 5818 5775 5498 5897 5595 5851 5988 5907 5864 5538 5826 5494 5939 5442 5549 5495 5855 5925 5860 5679 5781 5639 5659 5898 5722 5920 5584 5808 5819 5877 5876 5741 5851 5577 5558 5741 5532 5544 5769 5683 5458 5806 5797 5724 5824 5925 5867 5643 5556 5779 5886 5510 5907 5925 5899 5565 5696 5643 5558 5709 5554 5904 5854 5825 5936 5852 5675 5710 5729 5540 5708 5504 5841 5880 5691 5543 5924 5657 5901 5862 5562 5881 5482 5938 5576 5979 5904 5833 5517 5932 5578 5694 5697 5926 5896 5859 5672 5716 5513 5884 5595 5767 5881 5772 5855 5889 5538 5735 5764 5457 5584 5724 5869 5908 5838 5641 5524 6019 5706 5651 5878 5762 5848 5695 5787 5534 5738 5717 5636 5998 5527 5765 5787 5727

Tree=0
num_leaves=63
num_cat=0
split_feature=7 10 10 19 10 10 10 10 0 10 10 10 7 5 19 10 8 14 5 18 14 5 5 0 6 10 0 10 19 13 7 10 10 5 6 13 13 0 10 8 8 6 13 10 13 10 6 10 19 18 19 12 8 10 0 6 5 10 16 5 0 14
split_gain=1.19325e+07 2.79156e+06 1.05984e+06 1.05064e+06 467207 193887 374119 124325 73901.2 72355.1 52756.7 49401.7 39523.9 36933.3 22313.3 20880.5 20231.6 18795.4 17545.6 16252.5 15640.2 15501.7 15417.8 14787.4 13140.7 12613.2 11913.7 10671 9695.18 9480.52 9175.22 8701.7 8674.81 8247.4 15461.7 9844.78 8085.49 8043.98 7729.81 7549.49 7010.56 6585.81 6565.15 6087.06 5679.1 5546.67 5213.26 5023.79 4972.95 5846.41 5108 4966.36 4803.42 4517.06 4139.57 4057.96 4040.58 3835.74 3735.67 3611.48 3605.12 3590.51
threshold=1.0000000180025095e-35 7.5000000000000009 1.0000000180025095e-35 586.50000000000011 5.5000000000000009 1.0000000180025095e-35 6.5000000000000009 10.500000000000002 4.5000000000000009 4.5000000000000009 11.500000000000002 4.5000000000000009 0.74800001287460338 78.77500000000002 586.50000000000011 4.5000000000000009 1.0000000180025095e-35 67.500000000000014 76.485000000000014 179.50000000000003 353.50000000000006 79.975000000000009 81.285000000000011 4.5000000000000009 1.675 5.5000000000000009 4.5000000000000009 11.500000000000002 186.00000000000003 4.5000000000000009 0.78817991042137159 4.5000000000000009 8.5000000000000018 77.50500000000001 1.7450000000000003 10.500000000000002 15.500000000000002 1.5000000000000002 6.5000000000000009 1.0000000180025095e-35 1.0000000180025095e-35 1.425 1.0000000180025095e-35 5.5000000000000009 11.500000000000002 4.5000000000000009 1.9850000000000001 14.500000000000002 556.00000000000011 171.50000000000003 115.50000000000001 1.0000000180025095e-35 1.0000000180025095e-35 6.5000000000000009 4.5000000000000009 1.8650000000000004 82.465000000000018 5.5000000000000009 8.0000000000000018 71.205000000000013 4.5000000000000009 654.50000000000011
decision_type=2 2 2 2 2 2 2 2 2 2 2 2 2 2 2 2 2 2 2 2 2 2 2 2 2 2 2 2 2 2 2 2 2 2 2 2 2 2 2 2 2 2 2 2 2 2 2 2 2 2 2 2 2 2 2 2 2 2 2 2 2 2
left_child=1 2 14 4 8 30 12 18 11 17 32 22 19 26 20 33 43 -5 52 57 36 -19 29 31 -24 56 38 -9 42 -4 -2 48 -8 35 -35 -10 44 -26 -6 61 -15 -31 -21 -11 -1 -25 -22 -12 50 -50 58 60 -3 -28 -20 -43 -18 -7 -14 -54 -32 -23
right_child=5 7 3 9 13 6 10 27 15 16 47 -13 23 40 -16 -17 25 21 54 28 46 39 24 45 37 -27 53 -29 -30 41 51 -33 -34 34 -36 -37 -38 -39 -40 -41 -42 55 -44 -45 -46 -47 -48 -49 49 -51 -52 -53 59 -55 -56 -57 -58 -59 -60 -61 -62 -63
leaf_value=2.8392990508510829 1.6140652048043898 2.5395193530028499 4.4879336142736479 4.0282836975530811 3.62157056399669 1.7389839672030571 1.637591030801264 2.041581243638714 4.8425279139369328 2.768770121333322 1.5841052449095394 4.1592706501258805 1.7227121766874514 2.7417799306964774 2.5657222182603503 4.7596644699677002 3.1456705918746417 2.9745025788011059 2.2089819758017639 1.9107366380373354 3.1037056943642716 3.4644060709191216 5.4269889833720191 1.7263500853931897 5.0166915480001979 2.8349131210816174 4.0400863293931648 1.7585447333568451 1.7343030976840017 4.5513249791214827 1.5952380318698804 1.6607486447963618 1.6089369266624964 6.0791956278617034 5.2079213764848218 5.3793756981481566 3.1726830374462169 4.3969497377826112 3.1384532415246769 3.7264268897220054 3.323288191716764 4.9274986313120728 1.7908387592495505 2.4585695062876827 2.567940842726717 1.6908694318801025 2.8903676501623954 1.5595388109340174 1.7239806667077993 1.66112325752481 1.7108133505078711 1.5578425612630356 3.2587618414385404 3.6304832900524424 2.4220076867240152 4.6721878186020591 3.6092698623300228 1.6871784732097375 1.6542362299639957 2.7619051798341339 1.6051619517953855 3.2190667085910505
leaf_weight=333 100708 136 604 102 225 18718 47071 395 143 345 34223 517 2623 173 698 247 94 250 470 2601 672 307 123 25685 139 249 171 2122 2400 313 319799 46858 60187 85 127 212 94 84 131 166 74 407 2035 292 458 19286 499 53101 4464 21594 29280 7803 58 111 443 252 94 4416 8276 99 128202 290
leaf_count=333 100708 136 604 102 225 18718 47071 395 143 345 34223 517 2623 173 698 247 94 250 470 2601 672 307 123 25685 139 249 171 2122 2400 313 319799 46858 60187 85 127 212 94 84 131 166 74 407 2035 292 458 19286 499 53101 4464 21594 29280 7803 58 111 443 252 94 4416 8276 99 128202 290
internal_value=1.63991 3.156 3.62871 3.98509 4.45371 1.61925 1.64664 2.00297 4.73082 3.09922 1.59802 4.59315 1.69689 3.43512 2.80998 5.14335 2.80632 3.38134 2.42038 1.74933 2.89291 3.3162 4.70986 1.68688 5.01209 3.06832 3.6361 1.80296 1.81588 4.6435 1.60041 1.67724 1.62151 5.31049 5.55725 5.16312 2.73428 4.78325 3.44379 3.42816 2.916 4.74017 1.85811 2.62657 2.68218 1.71113 3.0128 1.56917 1.6889 1.67189 1.69994 1.59739 2.75704 3.87886 2.31234 4.82987 3.37747 1.72909 1.67072 2.94546 1.59808 3.34523
internal_weight=952134 12804 9081 6327 4138 939330 382818 3723 3253 2189 194582 2439 188236 885 2754 814 1074 1115 1206 30170 2056 1013 1922 158066 346 437 638 2517 7036 1576 556512 113095 107258 567 212 355 885 223 356 763 247 972 4636 637 791 44971 1171 87324 66237 26058 40179 455804 293 282 913 659 188 23134 10899 157 448001 597
internal_count=952134 12804 9081 6327 4138 939330 382818 3723 3253 2189 194582 2439 188236 885 2754 814 1074 1115 1206 30170 2056 1013 1922 158066 346 437 638 2517 7036 1576 556512 113095 107258 567 212 355 885 223 356 763 247 972 4636 637 791 44971 1171 87324 66237 26058 40179 455804 293 282 913 659 188 23134 10899 157 448001 597
is_linear=0
shrinkage=1


Tree=1
num_leaves=63
num_cat=0
split_feature=7 10 10 2 10 10 10 10 2 3 4 4 10 10 7 8 4 5 3 13 18 2 4 0 5 3 3 5 13 13 13 13 13 13 13 5 10 0 10 0 3 18 7 13 10 5 6 10 2 6 4 5 10 10 13 10 13 13 10 10 0 5
split_gain=1.0807e+07 2.48308e+06 951524 690982 231276 175308 340196 110664 106493 198180 130629 49297.8 47348.7 43087.8 35952.1 33246.7 24178.3 20752.8 20044.7 17838.2 15303.1 14890.2 14669.1 13591.3 13201.1 13140.9 12986.2 15037.2 19620.7 14918.5 12797.6 15306.8 12344.4 49978.4 15554.5 11478.4 10951.7 10435.7 9513.52 9353.29 8762.47 8560.92 8391.22 8075.85 8007.88 7696.03 7651.54 7596.13 6525.4 6474.83 6455.58 6446.05 6070.28 5749.83 5288.56 5181.02 5027.85 4567.68 4493.17 4171.06 4119.45 4062.99
threshold=1.0000000180025095e-35 7.5000000000000009 1.0000000180025095e-35 4.5000000000000009 5.5000000000000009 1.0000000180025095e-35 6.5000000000000009 10.500000000000002 5.5000000000000009 3.5905500000000004 28.195000000000004 22.705000000000002 11.500000000000002 5.5000000000000009 0.74800001287460338 1.0000000180025095e-35 22.705000000000002 73.875000000000014 2.5272000000000006 6.5000000000000009 179.50000000000003 4.5000000000000009 24.365000000000006 4.5000000000000009 74.25500000000001 8.1332500000000021 9.5598500000000026 83.115000000000023 6.5000000000000009 9.5000000000000018 15.500000000000002 12.500000000000002 15.500000000000002 12.500000000000002 9.5000000000000018 78.135000000000005 5.5000000000000009 4.5000000000000009 11.500000000000002 5.5000000000000009 3.5905500000000004 180.50000000000003 0.74800001287460338 5.5000000000000009 4.5000000000000009 83.855000000000004 1.6050000000000002 8.5000000000000018 5.5000000000000009 1.925 19.975000000000005 82.605000000000004 4.5000000000000009 6.5000000000000009 3.5000000000000004 4.5000000000000009 10.500000000000002 5.5000000000000009 14.500000000000002 4.5000000000000009 4.5000000000000009 81.02500000000002
decision_type=2 2 2 2 2 2 2 2 2 2 2 2 2 2 2 2 2 2 2 2 2 2 2 2 2 2 2 2 2 2 2 2 2 2 2 2 2 2 2 2 2 2 2 2 2 2 2 2 2 2 2 2 2 2 2 2 2 2 2 2 2 2
left_child=1 2 30 11 8 42 14 21 9 16 15 13 47 50 20 26 24 39 37 -19 -7 -3 -11 44 -5 -12 27 56 -29 49 31 54 33 34 46 -15 51 52 -9 53 -23 -22 -2 -39 -16 59 -17 -8 -21 -28 -4 -13 -18 -6 -1 -25 -10 61 -14 -24 -56 -48
right_child=5 7 3 4 17 6 12 38 10 22 25 36 58 35 23 32 18 19 -20 48 41 40 45 55 -26 -27 29 28 -30 -31 -32 -33 -34 -35 -36 -37 -38 43 -40 -41 -42 -43 -44 -45 -46 -47 57 -49 -50 -51 -52 -53 -54 -55 60 -57 -58 -59 -60 -61 -62 -63
leaf_value=0.77000336364695909 -0.021628534168345221 0.60576043470726659 1.5817602445494456 2.3342172410990627 1.9672642125023736 0.084838649835757937 -0.0025377510034183958 0.38472892647132401 2.7820338339354862 2.4874042428456824 1.9056464832800406 0.99840969597266993 -0.053037568133166749 1.6376472486390008 0.046840834590134245 2.9461030652446132 2.9045240583064302 2.0466187876462936 1.9017659991395239 1.0032738226878493 0.2270051161300323 1.2048997294734902 1.5787182016505135 0.082866624197578648 2.8778098074381786 2.712834361291701 2.499861469268799 3.119592424801418 1.9249923984656174 3.5913772431735334 1.4078681006403029 0.91883047372421833 4.0084849323134826 2.1098141302381244 3.9247244084375148 1.0028198712180105 0.77678875605265307 2.7413787054637124 0.1124933769212148 2.4063980424126914 0.75888891481516652 0.1164344172266369 -0.039832348869143164 3.410294886655028 0.019844247931928117 1.870355410600832 3.4311181525661518 -0.029355417581647315 1.6017289452254773 3.2369789175553758 2.196741786503901 1.3439626627281065 2.56471753491613 1.5714695206649012 1.1516751059711303 0.048490297830137793 3.1147423433618071 3.1249219616976656 -0.076293272623944086 1.2025044171497077 1.3532892184416936 4.0094603758591871
leaf_weight=76 72846 724 53 446 270 23196 46999 379 201 52 270 302 34090 108 66314 93 617 80 51 158 3343 213 288 25679 149 62 65 56 89 145 334 934 83 70 169 209 300 63 2094 86 228 3675 483355 159 46893 191 73 60262 64 55 219 244 167 139 1102 19123 261 55 53156 99 329 52
leaf_count=76 72846 724 53 446 270 23196 46999 379 201 52 270 302 34090 108 66314 93 617 80 51 158 3343 213 288 25679 149 62 65 56 89 145 334 934 83 70 169 209 300 63 2094 86 228 3675 483355 159 46893 191 73 60262 64 55 219 244 167 139 1102 19123 261 55 53156 99 329 52
internal_value=8.97232e-05 1.44737 1.88926 2.22846 2.51218 -0.0195263 0.00651864 0.343489 2.66433 2.43755 2.952 1.26401 -0.0398535 1.61524 0.054439 3.15469 2.7253 1.73313 2.86881 1.40648 0.104412 0.745271 1.68302 0.0448833 2.47034 2.05639 2.95806 2.83057 2.38636 3.25009 1.11759 1.07787 3.44284 3.35115 3.54774 1.2191 1.01948 2.91784 0.154215 1.93242 0.974309 0.169104 -0.0374482 3.22047 0.0356582 1.61065 3.31437 -0.0176046 1.1758 2.83771 2.07691 1.15283 2.83214 1.83275 1.17644 0.0681937 2.96999 3.50463 -0.0672065 1.48248 1.19803 3.67171
internal_weight=951657 12726 9088 6313 4878 938931 382730 3638 4081 2282 1799 1435 194507 589 188223 1467 1652 797 1057 302 30214 1165 630 158009 595 332 872 607 145 265 2775 2441 595 512 442 317 846 1006 2473 495 441 7018 556201 222 113207 578 273 107261 222 120 272 546 784 409 1507 44802 462 180 87246 387 1431 125
internal_count=951657 12726 9088 6313 4878 938931 382730 3638 4081 2282 1799 1435 194507 589 188223 1467 1652 797 1057 302 30214 1165 630 158009 595 332 872 607 145 265 2775 2441 595 512 442 317 846 1006 2473 495 441 7018 556201 222 113207 578 273 107261 222 120 272 546 784 409 1507 44802 462 180 87246 387 1431 125
is_linear=0
shrinkage=0.05


Tree=2
num_leaves=63
num_cat=0
split_feature=7 10 10 19 10 4 10 10 10 10 8 10 4 7 4 3 4 19 14 3 4 5 4 0 8 10 10 14 16 19 4 7 5 13 10 5 10 5 5 13 13 4 14 10 10 8 19 19 3 12 10 13 13 8 14 16 10 10 19 19 3 4
split_gain=9.5609e+06 2.25737e+06 835968 860061 367512 158608 157029 305067 98983.8 60899.5 52400 42727.1 38399.9 31516.7 23150.5 20674.6 19216.8 16350.3 15761 15477.9 14491.7 14487.3 11958.8 11637.5 9718.23 9714.42 8969.37 8711.86 8300.42 15537.4 8098.43 7673.5 7635.55 7362.09 7224.24 6927.12 6817.96 6704.15 6435.59 6431.61 6381.25 6336.68 6344.62 6325.26 6201.98 5816.05 5084.64 6118.15 4592.92 4503.42 4498.3 4322.61 5135.91 4275.98 4172.94 4158.83 4078.85 3968.61 3939.85 11021.2 3777.48 3770.45
threshold=1.0000000180025095e-35 7.5000000000000009 1.0000000180025095e-35 586.50000000000011 5.5000000000000009 23.345000000000002 1.0000000180025095e-35 6.5000000000000009 10.500000000000002 4.5000000000000009 1.0000000180025095e-35 11.500000000000002 20.165000000000003 0.74800001287460338 19.815000000000001 6.2592500000000006 26.945000000000004 586.50000000000011 654.50000000000011 8.8019500000000015 24.315000000000001 76.485000000000014 24.065000000000001 4.5000000000000009 1.0000000180025095e-35 4.5000000000000009 11.500000000000002 67.500000000000014 5.0000000000000009 135.50000000000003 22.635000000000002 0.78817991042137159 79.975000000000009 9.5000000000000018 5.5000000000000009 84.315000000000012 8.5000000000000018 79.25500000000001 82.465000000000018 10.500000000000002 4.5000000000000009 27.035000000000004 625.50000000000011 3.5000000000000004 6.5000000000000009 1.0000000180025095e-35 556.00000000000011 115.50000000000001 11.222950000000003 1.0000000180025095e-35 5.5000000000000009 4.5000000000000009 9.5000000000000018 1.0000000180025095e-35 67.500000000000014 8.0000000000000018 14.500000000000002 5.5000000000000009 795.50000000000011 772.50000000000011 0.89735000000000009 21.525000000000002
decision_type=2 2 2 2 2 2 2 2 2 2 2 2 2 2 2 2 2 2 2 2 2 2 2 2 2 2 2 2 2 2 2 2 2 2 2 2 2 2 2 2 2 2 2 2 2 2 2 2 2 2 2 2 2 2 2 2 2 2 2 2 2 2
left_child=1 2 17 4 5 14 31 13 21 18 19 36 -6 28 -4 39 27 20 41 25 -1 53 44 34 -24 40 -10 -11 29 -8 43 -2 -20 -17 46 48 -9 -29 -21 -12 60 54 -43 51 -14 -39 47 55 -22 -33 -25 -16 -53 -3 -5 -15 -13 -47 59 61 -7 -31
right_child=6 8 3 9 12 10 7 11 26 16 15 56 22 23 30 33 -18 -19 32 38 35 -23 24 50 -26 -27 -28 37 -30 58 -32 49 -34 -35 -36 -37 -38 45 -40 -41 -42 42 -44 -45 -46 57 -48 -49 -50 -51 -52 52 -54 -55 -56 -57 -58 -59 -60 -61 -62 -63
leaf_value=0.98282312019570706 -0.023092352683913388 0.80758045073598628 1.2643718766231165 2.0108327896364275 0.95790241074985305 2.9165992319583895 0.20784404610356613 -0.0024949472478653298 0.36836203054327116 1.4796276935159345 2.9658891474614379 -0.050336193017787335 1.7995677841015352 0.07037486431019184 2.1498022195064661 3.4697040096918741 1.5835630868162429 0.84774554403956071 1.0432546066201251 3.0134062703450524 1.3035962711576481 0.60183555153495105 1.7299139564915706 0.071854330970806554 2.4068229802449546 2.4606774779514495 0.10654994391755904 0.68637197027603791 0.071870861764151889 0.11636053263893419 2.6090939513907947 -0.037684363988109426 1.4788892919483854 4.004295985818767 0.0076001766486584925 1.1015190553565615 -0.027857914652079901 0.87089729166160823 3.5016225232018368 3.3608511633792171 2.9526494093252089 1.7857767852783206 2.4223025991205587 2.1536946570687414 1.4378039657133412 1.4468517093868047 0.025507213793206637 0.059662195294699127 1.7153522748696177 -0.075900512933731082 0.032112446535467708 2.8298418213923773 2.37519818761132 1.1947096681594849 1.5666223166048694 0.0079190920321931518 -0.07246567692829857 1.0332851167023183 0.034157547169773698 0.20850385409352901 2.5612252599928116 0.04167723900163605
leaf_weight=917 100736 136 51 62 169 112 4073 47228 386 73 183 34244 312 3463 99 120 140 668 138 180 622 895 95 36060 120 191 2145 240 15005 3249 242 447357 371 139 21176 479 60363 367 108 236 583 125 57 449 191 91 36527 40419 76 7844 8872 96 176 150 359 11573 53128 160 2224 2105 225 3522
leaf_count=917 100736 136 51 62 169 112 4073 47228 386 73 183 34244 312 3463 99 120 140 668 138 180 622 895 95 36060 120 191 2145 240 15005 3249 242 447357 371 139 21176 479 60363 367 108 236 583 125 57 449 191 91 36527 40419 76 7844 8872 96 176 150 359 11573 53128 160 2224 2105 225 3522
internal_value=-0.000153072 1.3607 1.78772 2.10741 2.53626 2.78659 -0.0186047 0.00601999 0.32285 1.30649 3.04467 -0.0378179 1.636 0.0514168 2.30496 3.40543 1.03739 1.06313 1.56566 2.86984 1.13184 0.70083 1.79561 0.0424787 2.10772 2.78517 0.146479 0.955264 0.0982398 0.124317 2.35493 -0.0355795 1.36078 3.75661 0.0339303 1.24795 -0.0167246 0.91065 3.19649 3.18835 2.85253 1.73861 1.98513 2.27993 1.6622 0.997748 0.039992 0.0495328 1.34843 -0.0383429 0.0640071 2.4327 2.53566 1.01062 1.63204 0.0223035 -0.0637924 1.18322 0.0936675 0.108579 2.67933 0.0775133
internal_weight=951902 12734 9022 6260 4077 3190 939168 383231 3712 2183 2077 194963 887 188268 1113 678 1071 2762 1112 1399 2094 1181 718 158090 215 1111 2531 931 30178 15173 1062 555937 509 259 113158 1177 107591 858 288 419 920 603 182 820 503 618 91982 55455 698 455201 44932 371 272 286 421 15036 87372 251 11100 8876 337 6771
internal_count=951902 12734 9022 6260 4077 3190 939168 383231 3712 2183 2077 194963 887 188268 1113 678 1071 2762 1112 1399 2094 1181 718 158090 215 1111 2531 931 30178 15173 1062 555937 509 259 113158 1177 107591 858 288 419 920 603 182 820 503 618 91982 55455 698 455201 44932 371 272 286 421 15036 87372 251 11100 8876 337 6771
is_linear=0
shrinkage=0.05


Tree=3
num_leaves=63
num_cat=0
split_feature=7 10 10 19 10 10 10 2 10 2 2 2 10 7 1 10 10 19 14 14 1 14 14 5 14 18 10 5 1 1 13 10 3 3 5 10 3 7 13 5 5 6 10 13 10 5 18 19 19 19 14 5 13 1 12 18 18 13 10 7 6 17
split_gain=8.80497e+06 2.05282e+06 771949 749384 336893 143067 277217 129006 88938.2 64302.3 39838.3 39261.9 33183.1 28004.8 25805.3 25328.7 22598.2 18598.8 18271.9 15298.9 13432.7 13374 15981.1 12303.2 12192.2 11598.7 10271 10243.8 10184.1 9993.43 9819.99 9243.36 8954.89 8335.71 7998.06 7541.23 6965.93 6886.99 6524.24 6292.5 6030.91 5805.93 5382.27 5058.33 4947.31 4914.67 4792.2 5650.47 8704.53 8897.12 4753.03 4828.96 4539.52 4493.75 4266.34 4245.01 10448.9 4204.6 4182.9 4155 3932.69 3928
threshold=1.0000000180025095e-35 7.5000000000000009 1.0000000180025095e-35 586.50000000000011 5.5000000000000009 1.0000000180025095e-35 7.5000000000000009 5.5000000000000009 10.500000000000002 4.5000000000000009 4.5000000000000009 4.5000000000000009 5.5000000000000009 0.71200000619888315 1.0000000180025095e-35 12.500000000000002 5.5000000000000009 586.50000000000011 654.50000000000011 353.50000000000006 1.0000000180025095e-35 625.50000000000011 67.500000000000014 75.165000000000006 633.50000000000011 179.50000000000003 4.5000000000000009 78.065000000000012 1.0000000180025095e-35 1.0000000180025095e-35 4.5000000000000009 5.5000000000000009 4.5093500000000004 9.0416500000000024 78.955000000000013 11.500000000000002 13.653050000000002 0.74800001287460338 12.500000000000002 80.955000000000013 71.205000000000013 1.9850000000000001 6.5000000000000009 9.5000000000000018 4.5000000000000009 71.935000000000016 181.50000000000003 624.50000000000011 307.00000000000006 345.50000000000006 692.50000000000011 82.535000000000011 6.5000000000000009 1.0000000180025095e-35 1.0000000180025095e-35 167.50000000000003 163.50000000000003 10.500000000000002 10.500000000000002 0.71150000000000013 1.9950000000000003 30.500000000000004
decision_type=2 2 2 2 2 2 2 2 2 2 2 2 2 2 2 2 2 2 2 2 2 2 2 2 2 2 2 2 2 2 2 2 2 2 2 2 2 2 2 2 2 2 2 2 2 2 2 2 2 2 2 2 2 2 2 2 2 2 2 2 2 2
left_child=1 2 17 4 7 37 12 11 23 31 27 34 13 25 32 58 18 19 21 -1 26 22 -11 -3 -23 55 40 -6 42 46 -22 39 44 57 -4 -10 -35 -2 -20 -5 -13 -21 -12 -34 -9 -42 -15 48 61 -50 -40 -52 -24 -25 -39 56 -7 -16 -8 -27 -47 -48
right_child=5 8 3 9 10 6 15 14 35 16 28 20 -14 29 33 -17 -18 -19 38 41 30 24 52 53 -26 59 -28 -29 -30 -31 -32 -33 43 36 -36 -37 -38 54 50 -41 45 -43 -44 -45 -46 60 47 -49 49 -51 51 -53 -54 -55 -56 -57 -58 -59 -60 -61 -62 -63
leaf_value=0.92631342672980965 -0.01947249418360102 0.97583187539731309 2.0594539738265722 0.81579113524369518 1.4786129643431807 0.025442331012681643 -0.017561831803728344 2.7430479226288975 0.34610635380113064 2.1451629481364773 1.7511591645945677 2.570106529186011 0.012640149463927523 0.052349918292234399 2.972146487236023 -0.065020627382902416 1.0163912511297635 0.78092995236756879 0.89143661934396501 1.2938480667296173 2.3196880559811648 2.7331182515846111 1.0068285833325301 0.47221387862159525 1.8516649950419042 0.14285188097613616 2.1652379397886348 0.88620331426268639 2.0422745620855229 0.070010938718245111 2.9452236565483942 0.69372228829065963 2.8083654726832368 3.8227073847237278 1.5203004899723778 0.10030822987621145 3.1370835145314535 -0.035346457339964797 1.1729480988737466 1.1701686422845836 1.9700550282001494 1.0687750427757061 1.320528069981989 3.1093241500854494 2.2254715467754163 2.1576240590823597 0.072187523443682663 0.012151587805185935 0.16496489642230094 0.055836043339235801 1.3494736509612113 1.7578248571055806 1.500571460235776 0.69088364193300456 -0.072218247448963171 0.075483432487137611 0.21454009084606357 3.3694496064674198 -0.038749321668958774 0.238430109642918 2.5633211524186734 0.0068305036073856478
leaf_weight=892 72943 248 169 198 113 1183 60677 243 366 97 230 689 61488 42332 140 70086 224 678 69 692 87 53 57 477 151 2776 332 206 239 37962 225 300 242 118 116 2117 54 475030 138 341 80 489 106 330 57 93 2806 24552 2210 12059 165 129 254 463 7977 10385 1910 127 37811 1926 167 12722
leaf_count=892 72943 248 169 198 113 1183 60677 243 366 97 230 689 61488 42332 140 70086 224 678 69 692 87 53 57 477 151 2776 332 206 239 37962 225 300 242 118 116 2117 54 475030 138 341 80 489 106 330 57 93 2806 24552 2210 12059 165 129 254 463 7977 10385 1910 127 37811 1926 167 12722
internal_value=0.000137129 1.30468 1.70769 2.01123 2.40427 -0.0175948 0.00592476 2.63949 0.306772 1.25929 1.54417 2.38248 0.0436575 0.0561373 3.02335 -0.0420455 1.4746 1.00826 1.56682 1.08261 2.47489 1.75012 1.58484 0.662569 2.08067 0.114386 2.40705 1.09605 1.79278 0.0482723 2.7708 0.916175 2.86596 3.336 1.84001 0.136539 3.60745 -0.0337928 1.34291 1.03999 2.48507 1.20066 1.61531 2.982 2.64471 2.31276 0.0397366 0.0299123 0.0445466 0.0727381 1.41502 1.52865 1.41008 0.57992 -0.0359554 0.0907972 0.142215 3.16113 -0.025696 0.182002 2.41821 0.0186409
internal_weight=951596 12761 9090 6339 4163 938835 382885 3269 3671 2176 894 1958 214311 152823 1311 168574 1337 2751 1113 2073 1673 612 408 1188 204 18180 1361 319 575 134643 312 839 872 439 285 2483 172 555950 501 539 1029 1181 336 572 300 340 96681 54349 29797 14269 432 294 311 940 483007 13478 3093 267 98488 4702 260 15528
internal_count=951596 12761 9090 6339 4163 938835 382885 3269 3671 2176 894 1958 214311 152823 1311 168574 1337 2751 1113 2073 1673 612 408 1188 204 18180 1361 319 575 134643 312 839 872 439 285 2483 172 555950 501 539 1029 1181 336 572 300 340 96681 54349 29797 14269 432 294 311 940 483007 13478 3093 267 98488 4702 260 15528
is_linear=0
shrinkage=0.05


Tree=4
num_leaves=63
num_cat=0
split_feature=7 10 10 19 10 4 10 10 10 2 8 10 4 7 10 2 3 5 19 6 2 4 8 4 8 10 19 13 10 16 19 5 5 4 6 10 7 10 10 5 3 5 3 10 10 13 4 19 19 16 15 8 15 17 19 19 10 5 10 4 4 4
split_gain=7.83541e+06 1.83029e+06 701638 710703 312484 132076 128324 250277 82711.9 55597 36856.1 34708 32000.7 26951.3 18131.9 15811.8 14807.2 14664.2 13043.7 11463.5 10604.8 10369.9 10222 11710.6 10146.1 8392.71 8189.84 8032.66 7868.32 7100.11 13329 6958.09 6693.87 6573.02 6505.89 6312.67 6288.78 6023.76 5632.85 5369.48 5131.52 4910.43 5068.36 4497.44 4357.64 4228.43 3991.31 3852.91 5276.68 9692.6 3935.07 3830.07 3780.12 3758.85 3481.41 8978.79 3469.61 3435.29 3322.76 3205.63 3176.74 3080.27
threshold=1.0000000180025095e-35 7.5000000000000009 1.0000000180025095e-35 586.50000000000011 5.5000000000000009 23.345000000000002 1.0000000180025095e-35 6.5000000000000009 10.500000000000002 4.5000000000000009 1.0000000180025095e-35 11.500000000000002 20.165000000000003 0.74800001287460338 4.5000000000000009 4.5000000000000009 11.129050000000001 73.625000000000014 586.50000000000011 2.2450000000000006 4.5000000000000009 22.895000000000003 1.0000000180025095e-35 22.635000000000002 1.0000000180025095e-35 4.5000000000000009 586.50000000000011 4.5000000000000009 4.5000000000000009 5.0000000000000009 135.50000000000003 80.135000000000005 82.685000000000016 19.875000000000004 1.8350000000000002 11.500000000000002 0.78817991042137159 4.5000000000000009 8.5000000000000018 76.575000000000003 0.63900000000000012 84.315000000000012 8.4213500000000021 6.5000000000000009 4.5000000000000009 1.5000000000000002 22.705000000000002 550.00000000000011 535.50000000000011 24.500000000000004 2.5000000000000004 1.0000000180025095e-35 2.5000000000000004 60.500000000000007 795.50000000000011 772.50000000000011 15.500000000000002 81.155000000000015 8.5000000000000018 28.645000000000003 21.475000000000005 25.825000000000003
decision_type=2 2 2 2 2 2 2 2 2 2 2 2 2 2 2 2 2 2 2 2 2 2 2 2 2 2 2 2 2 2 2 2 2 2 2 2 2 2 2 2 2 2 2 2 2 2 2 2 2 2 2 2 2 2 2 2 2 2 2 2 2 2
left_child=1 2 18 4 5 15 36 13 20 28 16 38 -6 29 31 33 25 40 21 46 58 -1 43 -24 37 27 -22 -7 57 30 -8 -11 59 -4 39 -10 -2 47 -9 -19 -12 42 -23 -14 -26 -33 -17 48 53 -50 -51 -30 -38 -15 55 60 -13 -5 -3 -16 -32 -29
right_child=6 8 3 9 12 10 7 11 35 14 17 56 22 24 32 19 -18 34 -20 -21 26 41 23 -25 44 -27 -28 61 51 -31 54 45 -34 -35 -36 -37 52 -39 -40 -41 -42 -43 -44 -45 -46 -47 -48 -49 49 50 -52 -53 -54 -55 -56 -57 -58 -59 -60 -61 -62 -63
leaf_value=0.82579624689794862 -0.020789911163737317 0.66930857124598886 1.2349839511811735 0.83088565252043978 0.87163860890088163 2.422835813628303 0.19097170698800173 -0.0022123327082579016 0.31813353959352098 1.2789463779947781 2.4268613157601191 -0.046013600571997125 1.5578260138977407 0.056365531955449133 0.9200276801510463 2.0103109183134857 3.0179548258582756 3.1236008463234737 0.75221011410481153 2.4928446297023612 1.0439602941476922 1.0842121676316583 1.554951727638642 2.1445770804087321 0.068844649409584971 2.2562988554055874 0.61542375765906443 2.623921472811825 0.69654534770094834 0.065403171127111706 0.10681164299890798 1.9865106729360726 1.3879068161165993 1.8698119454793802 3.0208444888775166 0.096014528262471976 -0.043670120734509536 0.015309428241621804 -0.025302935469197704 3.7095250082015996 2.9372909993481784 0.94870973052456975 1.3708110622086451 1.1943536869184239 0.039562677150199149 1.560511862530428 2.2968866142225854 0.024820406704228682 0.027426188901628342 0.14568002864514312 0.37050003274667753 0.99125095959367426 -0.032316743594270898 0.019844976215925306 0.029646760192553558 0.18938123330231291 -0.066183043403439862 1.2090835090667484 0.4449312162351321 1.3162875019013882 0.038535450026657293 2.8493312929929955
leaf_weight=581 100557 247 50 88 181 378 4097 46959 376 222 58 36965 258 24346 252 486 192 58 674 230 221 802 192 150 29931 208 225 378 460 15010 3299 65 172 221 104 2143 91823 44024 60362 120 326 512 191 127 22077 561 162 25966 942 365 417 145 363745 9915 2230 2119 50386 189 497 64 3523 253
leaf_count=581 100557 247 50 88 181 378 4097 46959 376 222 58 36965 258 24346 252 486 192 58 674 230 221 802 192 150 29931 208 225 378 460 15010 3299 65 172 221 104 2143 91823 44024 60362 120 326 512 191 127 22077 561 162 25966 942 365 417 145 363745 9915 2230 2119 50386 189 497 64 3523 253
internal_value=-8.98355e-06 1.2278 1.60901 1.8983 2.28585 2.51661 -0.0167697 0.00550454 0.291457 1.17632 2.75475 -0.0342464 1.46653 0.0466091 1.37972 2.08654 2.60987 3.06125 0.943435 2.18959 0.634988 1.00522 1.61463 1.81356 0.0383271 2.54549 0.82777 2.60511 0.868228 0.0898228 0.11383 1.51945 1.1369 1.75269 3.33503 0.129169 -0.0321071 0.0294505 -0.0151995 3.51861 2.86019 1.07449 1.13934 1.43793 0.0564147 1.60474 2.08195 0.0394995 0.0500916 0.135445 0.265565 0.767177 -0.0346051 0.0457966 0.0855378 0.0994778 -0.0576478 1.08893 0.519422 1.00028 0.0715526 2.7143
internal_weight=951877 12819 9110 6350 4132 3224 939058 382933 3709 2218 2075 194672 908 188261 1336 1149 1409 666 2760 878 1190 2086 727 342 157983 1217 446 1009 882 30278 15268 848 488 271 282 2519 556125 105975 107321 178 384 1505 993 385 52008 626 648 61951 35985 1724 782 605 455568 34261 11171 8941 87351 277 744 316 6822 631
internal_count=951877 12819 9110 6350 4132 3224 939058 382933 3709 2218 2075 194672 908 188261 1336 1149 1409 666 2760 878 1190 2086 727 342 157983 1217 446 1009 882 30278 15268 848 488 271 282 2519 556125 105975 107321 178 384 1505 993 385 52008 626 648 61951 35985 1724 782 605 455568 34261 11171 8941 87351 277 744 316 6822 631
is_linear=0
shrinkage=0.05


Tree=5
num_leaves=63
num_cat=0
split_feature=10 10 17 17 19 19 19 10 10 3 10 10 0 17 17 19 5 8 17 3 14 10 10 15 17 17 19 19 19 5 10 5 0 6 9 10 5 5 14 14 14 19 19 3 3 3 17 19 19 13 0 5 16 14 5 13 13 14 5 0 17 8
split_gain=363941 597994 529022 4.13858e+06 2.85037e+06 595242 175803 129052 50217.4 46870.4 33526.7 29684.4 20389.2 17420.2 160733 168128 30214.6 17192.1 15010.9 13134 12495.8 11199.7 10259.4 10172.1 42990.3 215005 552775 150665 14199.3 9926.53 9646.8 8968.79 8752.94 7924.98 7045.03 6943.96 6869.71 6303.25 6190.87 7835.97 6098.35 5756.47 11882.1 5727.43 6564.93 5710.41 5646.82 6398.2 9178.2 5526.97 6786.63 5221.63 4787.67 4696.89 4671.31 4519.66 4511.6 4406.09 4365.99 4075.49 3953.37 3915.06
threshold=1.0000000180025095e-35 6.5000000000000009 63.500000000000007 64.500000000000014 705.00000000000011 586.50000000000011 263.50000000000006 4.5000000000000009 10.500000000000002 8.1332500000000021 4.5000000000000009 5.5000000000000009 4.5000000000000009 63.500000000000007 64.500000000000014 769.50000000000011 75.055000000000021 1.0000000180025095e-35 60.500000000000007 8.1332500000000021 654.50000000000011 4.5000000000000009 14.500000000000002 2.5000000000000004 63.500000000000007 64.500000000000014 705.00000000000011 263.50000000000006 586.50000000000011 78.77500000000002 8.5000000000000018 82.685000000000016 4.5000000000000009 1.675 1.0000000180025095e-35 8.5000000000000018 82.465000000000018 79.875000000000014 67.500000000000014 625.50000000000011 348.50000000000006 350.50000000000006 307.00000000000006 0.68075000000000008 5.3496500000000013 2.3322500000000006 25.000000000000004 70.000000000000014 126.00000000000001 9.5000000000000018 4.5000000000000009 85.885000000000005 26.000000000000004 353.50000000000006 71.205000000000013 1.5000000000000002 4.5000000000000009 633.50000000000011 78.955000000000013 5.5000000000000009 59.500000000000007 1.0000000180025095e-35
decision_type=2 2 2 2 2 2 2 2 2 2 2 2 2 2 2 2 2 2 2 2 2 2 2 2 2 2 2 2 2 2 2 2 2 2 2 2 2 2 2 2 2 2 2 2 2 2 2 2 2 2 2 2 2 2 2 2 2 2 2 2 2 2
left_child=23 2 18 4 5 6 -4 9 13 12 20 19 43 -3 15 16 30 55 21 32 38 34 -10 -1 -25 26 27 -26 33 59 -15 49 58 51 41 61 -19 -22 -7 -40 -35 42 -2 -8 54 -34 -36 -48 -49 -11 -51 -29 -5 -33 56 -12 -45 -41 -9 -13 -50 -18
right_child=1 8 3 52 -6 10 7 11 22 31 17 29 -14 14 -16 -17 35 36 -20 -21 37 -23 -24 24 25 -27 -28 28 -30 -31 -32 53 45 40 46 -37 -38 -39 39 57 -42 -43 -44 44 -46 -47 47 48 60 50 -52 -53 -54 -55 -56 -57 -58 -59 -60 -61 -62 -63
leaf_value=-0.04042045033814208 0.05383691063881503 -0.0094517907980141494 0.34115021362100262 0.058821671256815124 0.0082941144170293052 1.8528322984676551 2.525261704126994 1.9449596668573959 -0.031813375735217045 2.5052062988281252 1.2236063113212587 1.599228946156676 2.6916727379997178 1.2103020333256753 -0.01008920079198364 -0.029189827285765614 0.57789416282184269 1.0116806454872818 -0.0038830720932976994 2.8027885367653589 0.86242630645518992 0.034330528969955816 -0.062299357333964356 -0.028498194554664222 0.04950018746802097 -0.026150478709400533 -0.043700708031353251 1.1829657384897254 0.71178675187105478 1.1444730854786194 0.70925292221547886 2.8417600860058423 2.459969594513161 0.79517124362574287 0.00097540152935306841 0.46565368310889099 1.4693631256881514 1.2631669135959558 1.2610960145201229 2.041833155371926 1.0038573980014376 0.027954990535189114 0.17518934948829981 2.1631749437344783 2.5371582007140256 1.931106212404039 0.039045517881531322 0.14633026732207291 0.076998655523835516 2.7203624609040054 3.3885113560069691 0.81310183077022957 0.025056456734905693 3.3467537421306583 2.1024024668363768 0.72602459244700734 2.4302340145570689 1.5230633698403837 1.5189432174818858 2.0068694387163437 0.25398273924714887 0.82714883630335534
leaf_weight=99102 18173 64246 121 16234 3239 101 228 427 57360 138 50 301 404 311 20759 1430 327 178 12969 55 131 50264 53186 403500 628 47182 6322 538 692 111 139 71 138 655 2135 656 152 391 303 55 752 17040 2269 302 178 81 6326 6616 22582 123 55 116 29715 131 535 523 332 160 70 77 320 304
leaf_count=99102 18173 64246 121 16234 3239 101 228 427 57360 138 50 301 404 311 20759 1430 327 178 12969 55 131 50264 53186 403500 628 47182 6322 538 692 111 139 71 138 655 2135 656 152 391 303 55 752 17040 2269 302 178 81 6326 6616 22582 123 55 116 29715 131 535 523 332 160 70 77 320 304
internal_value=4.8476e-06 0.0369135 0.0994054 0.230456 1.20085 1.85311 2.21704 2.27745 -0.0240331 2.48562 1.16264 1.86493 2.37479 0.00411084 0.0405291 0.372321 0.702869 0.935009 0.0473325 2.0582 1.34278 0.0526155 -0.0464808 -0.0258893 -0.0227614 0.0179314 0.232285 0.74834 0.907755 1.56019 1.05553 2.90904 2.001 0.973553 0.0647951 0.57956 1.22249 1.1626 1.49473 1.42491 0.906708 0.0494167 0.0673067 2.29351 2.25428 2.26436 0.0799722 0.0846775 0.0944569 2.74269 2.92681 1.11736 0.0369859 3.16926 2.21121 0.769444 2.30302 1.65577 1.88496 1.68227 0.0794716 0.697979
internal_weight=952009 392522 193804 55110 9161 5922 3878 3757 198718 2497 2044 1260 1979 88172 23926 3167 1737 903 138694 771 1141 125725 110546 559487 460385 56885 9703 3381 2753 489 450 518 716 2061 75461 1287 330 522 619 518 1407 37482 20442 1575 1347 219 37979 35844 29518 316 178 654 45949 202 1169 573 634 215 497 378 22902 631
internal_count=952009 392522 193804 55110 9161 5922 3878 3757 198718 2497 2044 1260 1979 88172 23926 3167 1737 903 138694 771 1141 125725 110546 559487 460385 56885 9703 3381 2753 489 450 518 716 2061 75461 1287 330 522 619 518 1407 37482 20442 1575 1347 219 37979 35844 29518 316 178 654 45949 202 1169 573 634 215 497 378 22902 631
is_linear=0
shrinkage=0.05


Tree=6
num_leaves=63
num_cat=0
split_feature=7 10 10 19 10 10 10 3 10 10 10 10 7 8 8 10 0 14 5 8 19 5 14 18 5 0 5 0 3 5 10 10 10 14 14 5 7 13 19 3 5 6 14 13 14 6 0 13 3 5 13 14 6 13 12 10 6 19 18 19 19 10
split_gain=6.39149e+06 1.49248e+06 557991 556806 249934 104142 204837 71457.8 61858 43500.2 25071.4 22908.2 21947 19100.1 19060.5 18674.1 16700.7 13403.7 12511.9 11947.9 11820.5 10219.4 8780.66 8657.13 8001.77 7741.73 7210.55 7424.9 6544.67 6448.17 6304.05 6234.48 6112.22 6002.43 8917.89 5896.06 5651.77 5604.27 5281.84 5245.94 5186.25 5504.94 4947.57 4881.69 4879.7 4449.05 4242.55 3990.36 3830.11 3784.5 5119.3 7618.26 5010.16 3670.92 3599.33 3561.89 3463.99 3346.79 6835.74 4718.6 4233.58 3325.25
threshold=1.0000000180025095e-35 7.5000000000000009 1.0000000180025095e-35 586.50000000000011 5.5000000000000009 1.0000000180025095e-35 7.5000000000000009 6.088750000000001 10.500000000000002 4.5000000000000009 5.5000000000000009 4.5000000000000009 0.74800001287460338 1.0000000180025095e-35 1.0000000180025095e-35 12.500000000000002 4.5000000000000009 654.50000000000011 74.675000000000026 1.0000000180025095e-35 586.50000000000011 76.485000000000014 353.50000000000006 179.50000000000003 80.135000000000005 4.5000000000000009 71.205000000000013 5.5000000000000009 0.61365000000000014 79.355000000000004 6.5000000000000009 11.500000000000002 5.5000000000000009 67.500000000000014 625.50000000000011 82.135000000000005 0.78817991042137159 4.5000000000000009 186.00000000000003 2.0458500000000002 76.385000000000005 1.7450000000000003 67.500000000000014 10.500000000000002 633.50000000000011 1.675 4.5000000000000009 1.0000000180025095e-35 9.5598500000000026 76.305000000000021 13.500000000000002 537.50000000000011 1.425 11.500000000000002 1.0000000180025095e-35 6.5000000000000009 2.2350000000000008 556.00000000000011 171.50000000000003 115.50000000000001 838.00000000000011 9.5000000000000018
decision_type=2 2 2 2 2 2 2 2 2 2 2 2 2 2 2 2 2 2 2 2 2 2 2 2 2 2 2 2 2 2 2 2 2 2 2 2 2 2 2 2 2 2 2 2 2 2 2 2 2 2 2 2 2 2 2 2 2 2 2 2 2 2
left_child=1 2 20 4 7 36 10 11 21 17 12 16 23 18 35 61 28 33 55 42 22 46 45 -7 -21 57 27 -13 -4 -19 -15 -10 -26 -5 -35 -9 -2 -30 47 43 -16 -42 -11 -18 -36 -1 -3 -25 -37 52 51 -51 -39 -28 -38 -6 -24 59 60 -14 -59 -8
right_child=5 8 3 9 13 6 15 14 31 19 -12 26 25 30 40 -17 39 29 -20 24 -22 -23 56 38 32 -27 53 -29 37 -31 -32 -33 -34 34 44 48 54 49 -40 -41 41 -43 -44 -45 -46 -47 -48 -49 -50 50 -52 -53 -54 -55 -56 -57 -58 58 -60 -61 -62 -63
leaf_value=0.99360875621243661 -0.018287027442137293 0.62329389601945884 2.4173022236656307 1.8039606171424944 1.4465051922467678 0.074907591717045072 -0.011270731533457571 2.3653481932429528 0.3122233223969712 1.1612175928462636 0.010387987903428465 1.9268747484932345 0.016078195585471022 1.7524350598134708 2.72287094371835 -0.0560073053016127 2.3821278422711845 0.75184736955733533 0.81666311423967386 0.66384568342975547 0.67929196573261708 0.48161434886916993 1.0600928234593958 0.22353616832211159 1.4038464399363031 0.059547062007688979 1.8110158487876751 2.5165613866621452 1.95951914684378 1.1908807882137251 1.3376920954281131 0.092925155012941532 0.96731956367604222 1.1944590484102569 1.9921267447933073 2.3846310381303755 -0.030788998728231494 2.0607443697859602 0.077763042101030536 2.2877089034345817 3.4237275152206426 2.8672626733779909 0.66527312555345608 2.8673858670220862 1.4709703454210716 0.73724154593577063 1.00952134180389 0.1213454144137365 2.8791912124633789 2.4402652561074438 1.6595250654220584 1.7430142482742668 2.3718463270073262 1.4032715136096592 -0.064962610795485737 1.0949524338756289 0.86137897135460217 0.096732614100063563 0.010648393610293584 0.048841349355215183 0.0083492433300764567 -0.029953395173953797
leaf_weight=227 100679 136 199 99 202 18779 40470 308 382 55 61507 384 15096 233 97 70329 83 105 202 102 672 899 881 2166 151 35987 161 62 417 411 151 2138 171 288 62 57 447914 205 1961 133 100 80 587 138 163 665 149 1709 125 101 70 64 351 84 7840 112 292 4205 30306 40400 1999 57880
leaf_count=227 100679 136 199 99 202 18779 40470 308 382 55 61507 384 15096 233 97 70329 83 105 202 102 672 899 881 2166 151 35987 161 62 417 411 151 2138 171 288 62 57 447914 205 1961 133 100 80 587 138 163 665 149 1709 125 101 70 64 351 84 7840 112 292 4205 30306 40400 1999 57880
internal_value=-0.0001019 1.11168 1.45771 1.71622 2.05893 -0.015199 0.00487442 2.26487 0.266226 1.07282 0.0373382 2.13311 0.0482002 1.32234 2.68608 -0.0363339 2.22885 1.28925 1.12363 0.843796 0.861441 0.564323 0.920716 0.0914378 1.04978 0.0398849 1.88914 2.00885 2.15161 1.10154 1.58935 0.126168 1.17203 1.44751 1.37872 2.49867 -0.0290084 2.10784 0.144629 2.53582 3.01759 3.17641 0.707761 2.68514 1.61458 0.802483 0.825216 0.178467 2.7243 2.18604 2.01781 2.16982 2.25714 1.67122 -0.0313769 1.32111 1.01063 0.0321943 0.0204372 0.0399291 0.0682545 -0.0222657
internal_weight=951981 12754 9050 6313 4119 939227 382794 3219 3704 2194 214115 2452 152608 900 767 168679 1761 1128 516 1066 2737 1184 2065 24615 424 127993 691 446 1407 516 384 2520 322 612 513 490 556433 1208 5836 354 277 180 642 221 225 892 285 3875 182 791 235 165 556 245 455754 314 1173 92006 36510 55496 6204 98350
internal_count=951981 12754 9050 6313 4119 939227 382794 3219 3704 2194 214115 2452 152608 900 767 168679 1761 1128 516 1066 2737 1184 2065 24615 424 127993 691 446 1407 516 384 2520 322 612 513 490 556433 1208 5836 354 277 180 642 221 225 892 285 3875 182 791 235 165 556 245 455754 314 1173 92006 36510 55496 6204 98350
is_linear=0
shrinkage=0.05


Tree=7
num_leaves=63
num_cat=0
split_feature=7 2 19 4 4 8 13 7 13 13 3 13 13 4 14 13 13 0 8 3 13 14 0 14 14 14 6 18 18 14 6 13 14 13 4 14 14 3 4 0 3 14 6 14 14 13 0 12 14 14 18 18 14 18 7 4 6 3 0 19 6 3
split_gain=5.78457e+06 1.19048e+06 285758 98977 98772.7 44464.6 29334.3 27372.5 24189.2 49245.4 20465.9 19330.4 18530.1 17978.8 17867.7 16457 24649.1 15872.7 24143.9 12824.9 12549.1 11008.5 10796.6 9947.64 12365.2 10525.4 9465.62 9287.48 12665 8420.77 7548.58 7256.31 7048.9 6507.98 6373.01 6268.92 7244.38 6181.76 6097.51 5925.22 5864.13 4841.49 4775.79 4665.83 5018.25 4620.34 4376.21 4372.03 4310.52 4232.2 4126.47 12879.6 4079.24 4020.16 4103.36 3840.49 4064.32 3914.99 3830.37 3782.06 3739.57 4837.72
threshold=1.0000000180025095e-35 4.5000000000000009 586.50000000000011 19.815000000000001 23.435000000000006 1.0000000180025095e-35 11.500000000000002 0.74800001287460338 11.500000000000002 15.500000000000002 1.9177500000000001 15.500000000000002 9.5000000000000018 22.705000000000002 654.50000000000011 11.500000000000002 15.500000000000002 1.5000000000000002 1.0000000180025095e-35 9.2777000000000012 4.5000000000000009 567.50000000000011 4.5000000000000009 625.50000000000011 67.500000000000014 633.50000000000011 2.0450000000000004 179.50000000000003 180.50000000000003 333.50000000000006 2.3350000000000004 4.5000000000000009 638.50000000000011 12.500000000000002 20.525000000000002 288.50000000000006 847.50000000000011 1.7179500000000003 22.495000000000001 5.5000000000000009 3.2265000000000001 822.50000000000011 2.3450000000000002 537.50000000000011 474.50000000000006 1.0000000180025095e-35 5.5000000000000009 1.0000000180025095e-35 667.50000000000011 687.50000000000011 163.50000000000003 167.50000000000003 867.50000000000011 215.50000000000003 0.57400000047683719 27.075000000000003 1.5450000000000002 3.4358500000000007 2.5000000000000004 838.00000000000011 1.6950000000000001 1.0390500000000003
decision_type=2 2 2 2 2 2 2 2 2 2 2 2 2 2 2 2 2 2 2 2 2 2 2 2 2 2 2 2 2 2 2 2 2 2 2 2 2 2 2 2 2 2 2 2 2 2 2 2 2 2 2 2 2 2 2 2 2 2 2 2 2 2
left_child=1 3 4 26 6 8 38 27 12 58 34 39 20 17 23 19 29 40 -19 -7 35 -18 47 24 -4 -25 -1 50 45 -17 -20 -28 -27 -16 -5 -6 -37 60 42 -8 -12 -15 46 44 -22 -29 -3 -9 -21 -35 -2 59 -38 -30 -55 57 -57 -39 -10 -52 -14 -62
right_child=7 2 14 10 5 15 11 22 9 -11 13 -13 37 41 33 16 21 18 30 48 43 -23 -24 25 -26 32 31 28 53 -31 -32 -33 -34 49 -36 36 52 55 -40 -41 -42 -43 -44 -45 -46 -47 -48 -49 -50 -51 51 -53 -54 54 -56 56 -58 -59 -60 -61 61 -63
leaf_value=0.10891892132006194 -0.029991929663401917 1.524988091392824 1.348317957200067 0.082590232202607514 2.0573641322074683 2.0295547580515221 0.81795981182952482 -0.020996075395393533 1.0919223613561468 1.7290517634199571 1.4386317069654342 1.3971739438803574 1.6709827391724836 0.62627039626658521 0.47462348943270416 0.95692190819008405 2.2567394618988037 0.36190395029606642 1.235100145850863 2.6929272651672367 1.1604691932841045 1.5077321500044603 -0.0087150318223955022 1.7607053944234101 0.86869516416740589 0.78185594792061675 0.064884441482013763 0.093419523063275736 -0.0109981273072371 1.6433290840477071 0.66376599734876218 0.39534168177674162 1.2938531200511982 0.68361155520454586 0.49108479578733821 1.4679729781621278 1.964607834297678 1.9491908170960166 1.6225105467784049 1.370882891741666 0.8994953408241273 0.20541848244324123 1.2158956147319691 0.92544710961255161 1.7325183086925084 0.021016833057388946 1.0895086156404936 -0.06190215182686834 2.2233670632979452 0.91628964772974464 0.072418136533544605 -0.0029699230718339383 1.6139492145437278 0.19084371943428791 0.028052703854569247 1.7082370609607338 2.22321573416392 2.3747864730017527 0.74576164218161611 -0.027520086362196123 1.7017699895081699 2.3808217600280162
leaf_weight=1425 10447 513 173 159 109 585 407 568087 188 516 154 304 228 1070 134 86 200 216 196 115 82 65 233427 89 602 94 219 8099 11899 93 82 688 236 278 239 299 184 88 466 55 75 73 254 66 72 3027 65 6608 85 658 7824 82799 151 417 5398 106 60 140 139 1077 54 51
leaf_count=1425 10447 513 173 159 109 585 407 568087 188 516 154 304 228 1070 134 86 200 216 196 115 82 65 233427 89 602 94 219 8099 11899 93 82 688 236 278 239 299 184 88 466 55 75 73 254 66 72 3027 65 6608 85 658 7824 82799 151 417 5398 106 60 140 139 1077 54 51
internal_value=-2.00064e-05 1.06053 1.4256 0.417909 1.61085 1.76334 1.3329 -0.0143464 1.6436 1.42483 0.6534 1.08753 1.75273 0.722827 0.948906 2.01012 1.76684 0.917968 0.758461 2.14772 1.60888 2.07302 -0.0177832 1.08188 0.975759 1.27815 0.189286 0.00685636 0.0319128 1.31355 1.06658 0.315551 1.14801 0.800525 0.327892 1.70709 1.64687 1.94328 1.47771 0.883784 1.26206 0.599392 1.3966 1.27718 1.42792 0.0737213 1.47602 -0.0214664 2.49336 0.847182 -0.000218039 0.00317398 1.80655 0.00565336 0.0397266 2.07732 1.89437 2.21052 0.944778 0.0603258 1.78469 2.0316
internal_weight=951795 12686 8090 4596 5826 3762 2064 939109 2533 843 2264 766 1690 1866 2264 1229 444 723 494 785 963 265 808122 1194 775 419 2332 130987 28840 179 278 907 330 1070 398 743 634 727 1298 462 229 1143 832 220 154 11126 578 574695 200 936 102147 91700 335 17714 5815 394 166 228 327 8901 333 105
internal_count=951795 12686 8090 4596 5826 3762 2064 939109 2533 843 2264 766 1690 1866 2264 1229 444 723 494 785 963 265 808122 1194 775 419 2332 130987 28840 179 278 907 330 1070 398 743 634 727 1298 462 229 1143 832 220 154 11126 578 574695 200 936 102147 91700 335 17714 5815 394 166 228 327 8901 333 105
is_linear=0
shrinkage=0.05


Tree=8
num_leaves=63
num_cat=0
split_feature=7 10 10 19 10 4 10 10 10 2 8 10 2 7 10 10 4 3 19 4 4 14 0 18 6 8 2 14 14 10 3 19 10 2 13 13 13 3 6 10 7 14 14 18 18 14 10 19 19 19 19 19 15 8 18 18 0 18 2 8 13 14
split_gain=5.29139e+06 1.2361e+06 516915 489722 221125 96928.8 93304.2 184219 50718 40701.4 35520.7 22958.7 22344.8 19046.4 16646.1 12975.8 12118.5 10663.2 10370.4 10297.9 10233.3 10014.7 9767.66 7563.31 7547.69 7512.5 6997.33 6784.62 10099.4 6085.07 5550.27 5538.75 5489.85 5329.94 5232.48 5187.58 4947.12 4843.65 4686.08 4564.54 4251.4 4161.16 3497.52 3487.45 3646.45 3442.01 3388.31 3384.31 5717.38 5692.78 9633.3 5472.24 4369.59 3218.89 3157.77 8178.27 3155.91 3133.98 3119.03 3028.71 2994.3 3580.23
threshold=1.0000000180025095e-35 7.5000000000000009 1.0000000180025095e-35 586.50000000000011 5.5000000000000009 22.705000000000002 1.0000000180025095e-35 7.5000000000000009 10.500000000000002 4.5000000000000009 1.0000000180025095e-35 5.5000000000000009 4.5000000000000009 0.71200000619888315 12.500000000000002 5.5000000000000009 25.785000000000004 6.2592500000000006 586.50000000000011 23.615000000000006 19.875000000000004 654.50000000000011 5.5000000000000009 179.50000000000003 2.1850000000000005 1.0000000180025095e-35 4.5000000000000009 625.50000000000011 67.500000000000014 5.5000000000000009 0.63900000000000012 586.50000000000011 4.5000000000000009 5.5000000000000009 12.500000000000002 4.5000000000000009 9.5000000000000018 9.5598500000000026 1.5150000000000003 12.500000000000002 0.74249998545646678 654.50000000000011 357.50000000000006 188.50000000000003 187.50000000000003 692.50000000000011 6.5000000000000009 685.50000000000011 307.00000000000006 551.50000000000011 544.50000000000011 334.50000000000006 2.5000000000000004 1.0000000180025095e-35 167.50000000000003 163.50000000000003 4.5000000000000009 179.50000000000003 4.5000000000000009 1.0000000180025095e-35 6.5000000000000009 586.50000000000011
decision_type=2 2 2 2 2 2 2 2 2 2 2 2 2 2 2 2 2 2 2 2 2 2 2 2 2 2 2 2 2 2 2 2 2 2 2 2 2 2 2 2 2 2 2 2 2 2 2 2 2 2 2 2 2 2 2 2 2 2 2 2 2 2
left_child=1 2 18 4 5 20 40 11 26 29 16 13 38 23 -9 21 32 30 19 -1 -4 27 46 54 -22 43 -3 28 -11 41 -12 59 -7 -29 -23 -18 -19 -37 -6 -10 57 -5 -21 44 -15 -36 -14 48 -45 50 51 -50 -52 -13 55 -8 -42 -2 -26 -28 -30 -62
right_child=6 8 3 9 12 10 7 14 39 15 17 53 22 25 -16 -17 35 36 -20 42 24 34 -24 -25 58 -27 31 33 60 -31 -32 -33 -34 -35 45 37 -38 -39 -40 -41 56 -43 -44 47 -46 -47 -48 -49 49 -51 52 -53 -54 -55 -56 -57 -58 -59 -60 -61 61 -63
leaf_value=0.6601564310841237 -0.020773198321431801 0.41189525379092706 0.97888838898051866 0.93260285536165333 1.2058217839018939 2.072368437858096 0.017853939272368904 -0.020543325805652313 0.20033262885765951 1.6699016845587531 1.9203135473077948 0.0021788742298823579 1.3790661713920658 0.039232702657647743 -0.052407917903922789 0.79038875285047216 2.1069342769622805 2.5653745269775392 0.5923613705696934 0.78841826706706641 1.5858610169996836 0.66077377780278523 1.7990288721663612 0.14952499579747136 1.6361057902725653 0.056895477606724525 0.64688546409209569 1.3776228275339484 0.75092225957799841 0.52042397198738988 2.4571865230026644 0.48130296390993355 1.7833047835032145 1.9103083384342683 0.91688682222041962 2.2674052313754434 2.9845975343872904 2.6234843458905317 0.74811052762314867 0.058092318282517576 -0.031030355128819534 0.65773879806200664 0.95482087677301364 0.0093899644092156741 0.13007664760246773 1.2149422479347445 1.0994337307555335 0.0041245209009930636 0.15816247314425605 0.022682360838046381 0.13755453138804163 0.037988324892952535 0.33810587325293961 0.026329182802028995 0.062394693910838323 0.18462667050485379 -0.022075422845207103 0.0050476328452873157 2.029021341596331 1.0148299671966454 1.3062250985374935 0.91521121378867853
leaf_weight=723 57009 746 55 281 73 754 1201 98656 863 99 55 40818 305 44120 70115 221 250 135 719 499 589 75 112 4658 71 44164 108 118 54 308 386 213 210 78 147 266 147 149 239 1628 346521 270 860 13666 1133 284 168 16845 1173 7047 655 4923 464 20843 10378 1895 137399 14803 175 116 158 93
leaf_count=723 57009 746 55 281 73 754 1201 98656 863 99 55 40818 305 44120 70115 221 250 135 719 499 589 75 112 4658 71 44164 108 118 54 308 386 213 210 78 147 266 147 149 239 1628 346521 270 860 13666 1133 284 168 16845 1173 7047 655 4923 464 20843 10378 1895 137399 14803 175 116 158 93
internal_value=5.24685e-05 1.00979 1.32155 1.57197 1.8917 2.08394 -0.0137193 0.00527744 0.235394 0.966575 2.25212 0.0360835 1.19692 0.0465038 -0.0337813 1.14016 2.12267 2.54378 0.756076 0.812613 1.6395 1.21005 1.37916 0.0946023 1.68301 0.0400046 0.504966 1.34822 1.23111 0.698418 2.39023 0.663848 2.0094 1.58961 1.04621 2.28686 2.78391 2.39525 0.855203 0.107371 -0.0268031 0.797914 0.893721 0.0317185 0.0415072 1.11329 1.27975 0.0218248 0.0325009 0.0546461 0.0858656 0.0611124 0.220714 0.0103423 0.0756154 0.119932 -0.0284878 -0.0154506 1.91562 0.837428 1.08868 1.16135
internal_weight=951286 12800 9126 6325 4139 3242 938486 382754 3674 2186 2352 213983 897 152322 168771 1327 1629 723 2801 2082 890 1106 585 18132 835 134190 1183 600 404 859 441 437 964 196 506 665 282 415 312 2491 555732 551 1359 90026 45253 431 473 44773 27928 14262 7215 6096 1119 61661 13474 3096 483920 71812 246 224 305 251
internal_count=951286 12800 9126 6325 4139 3242 938486 382754 3674 2186 2352 213983 897 152322 168771 1327 1629 723 2801 2082 890 1106 585 18132 835 134190 1183 600 404 859 441 437 964 196 506 665 282 415 312 2491 555732 551 1359 90026 45253 431 473 44773 27928 14262 7215 6096 1119 61661 13474 3096 483920 71812 246 224 305 251
is_linear=0
shrinkage=0.05


Tree=9
num_leaves=63
num_cat=0
split_feature=10 10 17 17 13 2 13 13 13 2 13 10 3 4 4 4 10 10 8 13 17 14 17 17 13 10 13 10 0 4 5 18 16 13 2 18 13 10 0 13 10 10 14 13 13 3 4 8 5 10 13 3 6 13 13 13 16 5 14 13 6 0
split_gain=254659 423603 348755 2.7623e+06 1.53367e+06 321497 79277.6 68908.7 56487.8 51042.5 42359.1 36080.7 34120.1 26510.4 17734.6 22752.2 15711 14815.4 13824.7 12756.2 12678.8 11341.8 11256.4 99739.1 81220.6 15437.8 10850.1 9888.03 9693.25 9673.78 9837.17 9364.47 87880.2 272425 42491 29852.8 16936.5 9030.61 8766.27 7481.52 7406 7287.85 6840.6 6500.18 18095.5 6480.17 6256.12 5841.05 5784.48 5659.15 5383.78 5364.15 4664.5 4149.4 5916.11 4096.16 3987.66 3935.21 3926.53 3857.6 4187.87 3741.55
threshold=1.0000000180025095e-35 6.5000000000000009 63.500000000000007 64.500000000000014 3.5000000000000004 4.5000000000000009 11.500000000000002 1.0000000180025095e-35 1.5000000000000002 5.5000000000000009 14.500000000000002 10.500000000000002 6.4374000000000011 24.065000000000001 19.755000000000006 22.705000000000002 3.5000000000000004 5.5000000000000009 1.0000000180025095e-35 12.500000000000002 60.500000000000007 557.50000000000011 63.500000000000007 64.500000000000014 3.5000000000000004 8.5000000000000018 11.500000000000002 4.5000000000000009 4.5000000000000009 22.635000000000002 75.855000000000004 188.50000000000003 20.500000000000004 3.5000000000000004 4.5000000000000009 183.50000000000003 11.500000000000002 4.5000000000000009 4.5000000000000009 11.500000000000002 4.5000000000000009 14.500000000000002 518.50000000000011 9.5000000000000018 6.5000000000000009 9.5598500000000026 24.315000000000001 1.0000000180025095e-35 81.155000000000015 4.5000000000000009 10.500000000000002 9.5598500000000026 1.5450000000000002 1.0000000180025095e-35 1.5000000000000002 15.500000000000002 26.000000000000004 84.315000000000012 654.50000000000011 5.5000000000000009 1.635 4.5000000000000009
decision_type=2 2 2 2 2 2 2 2 2 2 2 2 2 2 2 2 2 2 2 2 2 2 2 2 2 2 2 2 2 2 2 2 2 2 2 2 2 2 2 2 2 2 2 2 2 2 2 2 2 2 2 2 2 2 2 2 2 2 2 2 2 2
left_child=31 2 20 4 7 14 9 -4 -9 12 16 22 17 52 50 39 19 29 40 -8 38 27 -3 24 53 26 47 42 -18 30 -7 32 -1 -34 -35 -36 45 -20 49 -16 43 -13 -15 44 57 -37 55 -26 -17 -2 -6 -45 -12 -24 -55 -38 -5 -11 -21 -31 -61 -27
right_child=1 11 3 56 5 6 10 8 -10 18 13 41 -14 21 15 48 28 -19 37 58 -22 -23 23 -25 25 61 -28 -29 -30 59 -32 -33 33 34 35 36 46 -39 -40 -41 -42 -43 -44 51 -46 -47 -48 -49 -50 -51 -52 -53 -54 54 -56 -57 -58 -59 -60 60 -62 -63
leaf_value=-0.022103734883401196 0.047672871050983827 -0.0076126995037993986 0.01341667758153514 0.052844530825035721 0.77809575291579236 1.4759963154213296 1.8852655156171734 1.2948982374261067 0.094879866867980112 1.9474477081554142 1.1999065836338854 -0.027284108050875312 0.78066276694243808 2.0932541335982728 1.3993897439446301 0.49200410543756096 0.83704078243865698 1.3605045206196931 2.4319453541645366 1.4251130689809353 -0.0059582429595053214 1.4680055502254863 -0.022381318106411065 -0.0073813473890164075 0.67838688021240479 0.24768159314519678 0.51206647577243103 1.5793867035248839 1.2701367746642476 1.7799534288003362 2.024013096255795 -0.029717510568594559 -0.033020563535613522 0.067245018890196531 -0.043497910604131329 0.6289344539463454 0.41866443295918759 1.9043203216063505 0.066642163827638559 0.93901735092644811 1.5703962954066017 -0.052997235161327511 2.7136779836245948 2.056939856465906 1.0120543970781213 0.91454196076474936 0.52084577372772489 1.0593589238336552 0.79222886405180937 0.021964430962476331 0.21739667146358382 2.5720354884465539 1.5909787721128295 0.5589855857287781 -0.016178401127385285 0.17592387929869197 0.022039451504449099 2.4207901963647807 1.1417403398490533 1.8846698869790239 2.2374943884690914 0.46530909480167754
leaf_weight=320844 54198 64296 2774 16200 57 360 107 205 188 256 198 57423 106 215 176 267 311 253 335 243 12993 97 1225 20702 222 396 564 77 221 394 106 223061 10987 675 238 898 630 107 36314 177 110 52983 56 155 51 255 1471 184 402 35380 172 75 124 79 103 240 29886 53 246 249 127 394
leaf_count=320844 54198 64296 2774 16200 57 360 107 205 188 256 198 57423 106 215 176 267 311 253 335 243 12993 97 1225 20702 222 396 564 77 221 394 106 223061 10987 675 238 898 630 107 36314 177 110 52983 56 155 51 255 1471 184 402 35380 172 75 124 79 103 240 29886 53 246 249 127 394
internal_value=-0.00010692 0.030761 0.0833037 0.189697 0.988332 1.4659 1.65799 0.101203 0.720844 1.83011 1.40939 -0.0205777 1.6474 1.69607 0.754663 0.843777 1.21446 1.70911 2.08529 1.39076 0.0410664 1.94612 0.00327278 0.032595 0.293912 0.520309 0.653948 2.07939 1.01695 1.78046 1.60065 -0.0217742 -0.0165046 0.100193 0.432306 0.498334 0.535242 2.30422 0.0459197 1.16855 1.94705 -0.0396236 2.22146 2.01727 1.88462 0.6921 0.457986 0.851044 0.672408 0.037519 0.356959 2.22491 1.35051 0.0107153 0.233481 0.351702 0.032868 2.02864 1.28256 1.88928 2.00384 0.35622
internal_weight=951891 392592 194021 55136 9050 5883 4632 3167 393 2737 1895 198571 1595 767 1251 1022 1128 1489 1142 596 138885 445 88165 23869 3167 1760 970 348 532 1236 466 559299 336238 15394 4407 3732 3494 442 125892 353 700 110406 271 590 360 1153 2341 406 669 89578 229 230 322 1407 182 870 46086 309 489 770 376 790
internal_count=951891 392592 194021 55136 9050 5883 4632 3167 393 2737 1895 198571 1595 767 1251 1022 1128 1489 1142 596 138885 445 88165 23869 3167 1760 970 348 532 1236 466 559299 336238 15394 4407 3732 3494 442 125892 353 700 110406 271 590 360 1153 2341 406 669 89578 229 230 322 1407 182 870 46086 309 489 770 376 790
is_linear=0
shrinkage=0.05


Tree=10
num_leaves=63
num_cat=0
split_feature=7 2 19 4 4 11 5 5 11 13 11 13 6 14 7 3 4 6 13 3 7 4 4 14 1 14 14 14 14 3 5 13 3 13 18 16 5 1 5 5 4 14 4 5 5 14 19 17 13 12 4 13 18 18 4 18 1 4 13 18 19 19
split_gain=4.28326e+06 885738 213056 77277.4 75111.2 74727.8 42299.5 32063.6 24312.7 22604.7 20953.9 13879.7 13864 13400.9 13238.7 11518.8 9880.17 10320.6 9775.37 9306.63 9134.31 8995.25 11997.6 7939.38 11392.9 7893.91 11289 11215 8175.6 7826.76 7404.98 7107.32 6438.5 6057.87 5846.58 5789.22 5631.2 5538.59 5470.83 5211.01 5098.93 5083.11 4803.11 4791.21 4701.7 4530.71 4417.22 4396.65 4163.53 4112.44 3961.97 3896.95 4497.89 5796.16 4873.88 5963.32 3713.37 3648.07 3637.6 5072.84 4239.01 5765.56
threshold=1.0000000180025095e-35 4.5000000000000009 586.50000000000011 23.435000000000006 19.815000000000001 1.0000000180025095e-35 84.315000000000012 70.265000000000015 1.0000000180025095e-35 11.500000000000002 1.0000000180025095e-35 15.500000000000002 1.7850000000000004 654.50000000000011 0.75050000000000006 1.9177500000000001 22.705000000000002 1.3350000000000002 11.500000000000002 2.4059500000000003 0.74800001287460338 25.965000000000003 26.385000000000002 278.50000000000006 1.0000000180025095e-35 625.50000000000011 67.500000000000014 633.50000000000011 638.50000000000011 1.5501500000000001 81.285000000000011 5.5000000000000009 8.4213500000000021 12.500000000000002 179.50000000000003 5.0000000000000009 76.305000000000021 1.0000000180025095e-35 82.605000000000004 77.575000000000003 24.615000000000006 692.50000000000011 22.515000000000004 66.445000000000007 78.385000000000005 91.500000000000014 211.00000000000003 54.000000000000007 15.500000000000002 1.0000000180025095e-35 23.205000000000002 1.0000000180025095e-35 163.50000000000003 167.50000000000003 21.405000000000005 179.50000000000003 1.0000000180025095e-35 21.785000000000004 1.0000000180025095e-35 166.50000000000003 838.00000000000011 772.50000000000011
decision_type=2 2 2 2 2 2 2 2 2 2 2 2 2 2 2 2 2 2 2 2 2 2 2 2 2 2 2 2 2 2 2 2 2 2 2 2 2 2 2 2 2 2 2 2 2 2 2 2 2 2 2 2 2 2 2 2 2 2 2 2 2 2
left_child=1 4 3 9 30 6 12 21 20 42 57 45 32 25 51 36 17 -17 -14 -19 34 29 -23 -8 -25 26 -4 -27 -29 -7 -1 -21 39 -15 -2 58 -12 -9 -18 -5 43 -35 -3 -31 -39 -11 -36 -37 -20 56 -44 52 -10 -54 55 -55 -22 -6 59 -16 61 -61
right_child=8 2 13 5 10 7 23 37 14 11 15 -13 18 33 35 16 38 19 48 31 49 22 -24 24 -26 27 -28 28 -30 40 -32 -33 -34 41 46 47 -38 44 -40 -41 -42 -43 50 -45 -46 -47 -48 -49 -50 -51 -52 -53 53 54 -56 -57 -58 -59 -60 60 -62 -63
leaf_value=0.11459733731725386 -0.0097521900276085569 1.2018684729604527 1.1764925283999057 1.5412370345038493 1.2677946535023779 1.8310025725041936 0.71846986793457202 1.9898517868667842 -0.017250966932442085 0.54862944668460034 0.090999196703784438 1.1938353584761605 1.4835139837522788 0.37475345967079171 -0.02895725066400133 1.1954472834624132 0.38547036895014714 0.17902121731101284 0.98189806054745399 1.1275296794607284 -0.022950135381702767 0.82212712780849362 1.6837155194764728 0.95948515819885971 1.5689231150290546 1.6318968109968233 0.72782998131121646 0.58463172645882722 1.1394959347240166 1.1686436151894997 0.31369644081398401 0.63370298971192063 1.7657918418522112 0.56641137675652586 0.043992469421152855 -0.019448923551107028 0.47005935871076093 2.1272264232480427 0.6152758946064496 1.0207096925148598 1.7679461026410443 0.81519606543312728 1.5121322084371358 1.7384346191699689 2.6160082758926766 0.87414782589884732 -0.0076233505365001968 -0.0044264570002173495 1.3672749881650887 -0.056452413810831631 1.1973543870213785 0.0049289300713863584 0.11533448351502425 0.034416487764283035 0.013826442701937579 0.11652423763350904 -0.013541428336612704 0.84851648363737608 -0.0092858030246434891 0.015263036037560893 -0.022608497046013969 0.062516513833274098
leaf_weight=1750 64061 860 185 638 99 458 188 320 3971 167 199 299 348 137 6197 103 591 88 224 94 368209 74 89 309 102 82 579 94 226 127 637 324 348 310 10231 80422 193 123 461 52 109 608 292 52 82 297 6968 123501 102 7975 152 21597 2318 7611 14511 3117 146631 109 26745 31653 5324 8109
leaf_count=1750 64061 860 185 638 99 458 188 320 3971 167 199 299 348 137 6197 103 591 88 224 94 368209 74 89 309 102 82 579 94 226 127 637 324 348 310 10231 80422 193 123 461 52 109 608 292 52 82 297 6968 123501 102 7975 152 21597 2318 7611 14511 3117 146631 109 26745 31653 5324 8109
internal_value=-8.1784e-05 0.912703 1.23057 1.38975 0.363349 1.5252 1.34926 1.80873 -0.0124068 1.14434 0.569871 0.928178 1.47579 0.814016 -0.00160505 0.521421 0.578957 0.739232 1.29921 0.646366 -0.0183984 1.62905 1.29256 0.987618 1.11073 0.930842 0.836472 1.11019 0.976505 1.70258 0.167729 0.744755 1.59044 0.684899 -0.00280295 -0.00591908 0.277628 2.11984 0.486174 1.50201 1.49834 0.731184 1.27082 1.33417 2.32274 0.756989 0.0230808 -0.0103509 1.10248 -0.0208224 1.40437 0.0212909 0.032499 0.039668 0.0327186 0.0582727 -0.0202705 1.04808 0.00566339 0.0134597 0.0192898 0.0248998
internal_weight=951832 12681 8033 5812 4648 3745 2311 1434 939151 2067 2261 763 1712 2221 335076 2053 1661 609 674 506 604075 909 163 599 411 1166 764 402 320 746 2387 418 1038 1055 81260 281951 392 525 1052 690 288 918 1304 179 205 464 17199 203923 326 522815 444 53125 31528 27557 25239 10728 514840 208 78028 51283 45086 39762
internal_count=951832 12681 8033 5812 4648 3745 2311 1434 939151 2067 2261 763 1712 2221 335076 2053 1661 609 674 506 604075 909 163 599 411 1166 764 402 320 746 2387 418 1038 1055 81260 281951 392 525 1052 690 288 918 1304 179 205 464 17199 203923 326 522815 444 53125 31528 27557 25239 10728 514840 208 78028 51283 45086 39762
is_linear=0
shrinkage=0.05


Tree=11
num_leaves=63
num_cat=0
split_feature=7 10 10 19 4 10 10 10 5 2 10 10 10 7 19 10 8 5 4 4 10 4 18 8 5 8 13 13 10 0 10 14 19 14 14 19 5 6 5 4 16 13 19 19 18 18 17 19 10 13 6 2 19 4 14 19 19 18 19 19 8 0
split_gain=3.931e+06 929648 440506 372150 101026 77900.4 72526.9 151731 30736.1 28833.1 20944.6 19618.6 17919.3 16100.7 13995.8 13392.3 13011.8 11385.3 10161.9 9440.17 9220.95 7951.9 6712.68 6418.73 6089.03 5791.75 5378.53 5216.55 4897.27 4838.59 4557.28 4526.42 4382.9 4829.65 4348.76 4135.28 4127.1 4522.47 4019.45 8228.22 3933.34 3900.61 3191.21 5106.82 9080.91 4484.77 3253.69 3318.64 3108.8 3098.52 3504.99 3621.36 3098.42 3050.83 2970.89 2931.81 11877 3743.82 2940.27 3355.33 2851.29 2802.71
threshold=1.0000000180025095e-35 6.5000000000000009 1.0000000180025095e-35 586.50000000000011 22.635000000000002 9.5000000000000018 1.0000000180025095e-35 7.5000000000000009 70.915000000000006 4.5000000000000009 4.5000000000000009 5.5000000000000009 4.5000000000000009 0.74800001287460338 586.50000000000011 11.500000000000002 1.0000000180025095e-35 82.685000000000016 20.205000000000002 29.175000000000004 11.500000000000002 19.815000000000001 179.50000000000003 1.0000000180025095e-35 83.175000000000026 1.0000000180025095e-35 15.500000000000002 9.5000000000000018 4.5000000000000009 4.5000000000000009 5.5000000000000009 353.50000000000006 586.50000000000011 650.50000000000011 654.50000000000011 186.00000000000003 78.355000000000004 1.7050000000000003 82.465000000000018 26.155000000000005 20.500000000000004 4.5000000000000009 550.00000000000011 535.50000000000011 187.50000000000003 171.50000000000003 60.500000000000007 42.000000000000007 5.5000000000000009 4.5000000000000009 2.0650000000000004 4.5000000000000009 180.50000000000003 22.895000000000003 829.50000000000011 350.50000000000006 307.00000000000006 228.50000000000003 758.50000000000011 789.50000000000011 1.0000000180025095e-35 4.5000000000000009
decision_type=2 2 2 2 2 2 2 2 2 2 2 2 2 2 2 2 2 2 2 2 2 2 2 2 2 2 2 2 2 2 2 2 2 2 2 2 2 2 2 2 2 2 2 2 2 2 2 2 2 2 2 2 2 2 2 2 2 2 2 2 2 2
left_child=1 2 26 4 10 14 40 11 12 24 49 13 27 22 18 -9 38 19 -3 28 61 -12 -8 30 -5 42 31 -6 -11 -20 -14 -1 53 -34 -19 52 41 -38 -10 -40 55 -18 43 46 -45 -44 47 -15 -23 -4 -51 -52 -24 -33 -25 56 -2 -58 -57 -60 -29 -7
right_child=6 5 3 9 8 20 7 15 16 17 21 -13 23 25 -16 -17 36 34 29 -21 -22 48 35 54 -26 -27 -28 60 -30 -31 -32 32 33 -35 -36 -37 37 -39 39 -41 -42 -43 45 44 -46 -47 -48 -49 -50 50 51 -53 -54 -55 -56 58 57 -59 59 -61 -62 -63
leaf_value=0.53627413078420594 -0.019684234431128614 0.47417607344542034 1.3622935709125268 0.51784652131125175 1.7354757941243326 0.17492238531521043 0.064876867034947189 -0.015928367398889479 1.8680113757918257 0.91621253612721643 0.68193531365230164 0.0090427847883531344 1.5026456423173442 -0.0074495987496318002 0.39433920824966051 -0.044121936008703753 1.8918758765034291 1.3417870542688191 0.704612137157409 1.2441381315906328 0.065607574104836086 1.3096218059767473 0.1502084728868871 1.84753988120291 0.81194276698331402 0.050574757475017509 0.8374826825445606 1.9079543956518172 0.62029215731142484 1.0188546280066173 1.1078284673862631 0.58009227252489814 0.76519815608997765 0.44888777997522988 1.0492413734803436 0.067434469914665354 2.7325264261009989 2.2621501064300538 1.7341623234887458 2.3498961852521312 -0.030033289432314893 2.3224639612929265 0.049715171914716548 -0.016164196625583421 0.18842466331076169 0.0075571852694621289 0.013019617397052541 0.046647320132798299 1.0609207710861106 1.4830839467259636 1.4158235982060434 1.9035329529936886 0.49319615235079584 0.79193258469731642 1.4126613281391285 -0.030322340063664733 0.010359078662255661 0.066651384270649539 -0.0037522534679025571 -0.025404996106604346 2.1790812276303768 0.36074628784297369
leaf_weight=912 195832 257 167 471 407 423 18759 81421 463 372 87 61636 214 3136 538 87264 87 265 244 154 2090 283 3820 144 281 42014 336 400 224 246 111 222 188 337 244 1986 89 120 86 147 156014 133 8080 885 1401 28772 14535 29538 226 226 52 142 67 725 54 112677 8819 4441 27784 50251 128 390
leaf_count=912 195832 257 167 471 407 423 18759 81421 463 372 87 61636 214 3136 538 87264 87 265 244 154 2090 283 3820 144 281 42014 336 400 224 246 111 222 188 337 244 1986 89 120 86 147 156014 133 8080 885 1401 28772 14535 29538 226 226 52 142 67 725 54 112677 8819 4441 27784 50251 128 390
internal_value=4.83314e-05 0.874354 1.17486 1.42189 1.71514 0.264657 -0.011761 0.00497085 1.8904 0.872712 1.33248 0.0328593 1.73889 0.0424542 0.588779 -0.0305134 2.08675 1.01903 0.728818 0.895165 0.121186 1.12369 0.0794816 1.50452 0.627742 0.0353488 0.650199 1.86999 0.804994 0.862375 1.3678 0.623803 0.678033 0.562157 1.20155 0.126131 2.30334 2.46245 1.95325 2.12263 -0.0233 2.15219 0.0279403 0.0362345 0.10922 0.0168006 0.0327003 0.0414552 1.1992 1.54447 1.61691 1.77281 0.156121 0.742272 1.72894 -0.0206725 -0.0165834 0.0292123 -0.0251558 -0.0176956 1.97368 0.264063
internal_weight=951817 12685 8497 5777 3766 4188 939132 383314 2583 2011 1183 214629 1458 152993 1285 168685 1125 1259 747 750 2903 596 24632 523 752 128361 2720 935 596 490 325 2384 1472 525 509 5873 429 209 696 233 555818 220 86347 49495 2286 36852 47209 32674 509 587 420 194 3887 947 198 399804 209092 13260 190712 78035 528 813
internal_count=951817 12685 8497 5777 3766 4188 939132 383314 2583 2011 1183 214629 1458 152993 1285 168685 1125 1259 747 750 2903 596 24632 523 752 128361 2720 935 596 490 325 2384 1472 525 509 5873 429 209 696 233 555818 220 86347 49495 2286 36852 47209 32674 509 587 420 194 3887 947 198 399804 209092 13260 190712 78035 528 813
is_linear=0
shrinkage=0.05


Tree=12
num_leaves=63
num_cat=0
split_feature=7 10 10 19 10 10 10 2 10 10 10 2 8 2 7 10 0 0 2 10 14 10 13 0 7 0 13 13 14 14 5 5 14 19 19 8 5 13 5 6 16 5 10 2 14 6 14 14 18 13 14 14 16 13 19 19 18 8 5 19 19 8
split_gain=3.55076e+06 857526 365975 326724 154962 65312.3 136566 51770.2 31660 31030.8 17311.9 16133 14814.3 14601.4 14586.5 12202.1 9238.51 8829.4 8277.87 7840.07 6456.91 6001.17 5881.51 5870.51 5761.02 5539.47 5352.76 5304.05 5105.67 5225.35 4712.03 4560.07 4343.17 4326.51 3988.98 4471.77 3944.55 3865.55 5795.65 4842.86 3585.65 3562.58 3512.75 3366.69 3356.48 3265.44 3259.58 2994.44 2947.43 2888.31 2941.19 3399.35 2863.4 2762.16 2716.25 10737.2 3524 2713 2695.19 2667.01 3031.2 2661.95
threshold=1.0000000180025095e-35 7.5000000000000009 1.0000000180025095e-35 586.50000000000011 5.5000000000000009 1.0000000180025095e-35 7.5000000000000009 5.5000000000000009 9.5000000000000018 4.5000000000000009 5.5000000000000009 4.5000000000000009 1.0000000180025095e-35 4.5000000000000009 0.71200000619888315 12.500000000000002 5.5000000000000009 4.5000000000000009 4.5000000000000009 11.500000000000002 654.50000000000011 4.5000000000000009 15.500000000000002 4.5000000000000009 0.71150000000000013 5.5000000000000009 10.500000000000002 12.500000000000002 625.50000000000011 67.500000000000014 78.065000000000012 80.185000000000016 67.500000000000014 586.50000000000011 586.50000000000011 1.0000000180025095e-35 82.75500000000001 4.5000000000000009 65.345000000000013 1.5550000000000004 20.500000000000004 78.625000000000014 6.5000000000000009 5.5000000000000009 567.50000000000011 1.385 357.50000000000006 557.50000000000011 215.50000000000003 12.500000000000002 692.50000000000011 704.50000000000011 8.0000000000000018 9.5000000000000018 350.50000000000006 307.00000000000006 228.50000000000003 1.0000000180025095e-35 81.155000000000015 758.50000000000011 789.50000000000011 1.0000000180025095e-35
decision_type=2 2 2 2 2 2 2 2 2 2 2 2 2 2 2 2 2 2 2 2 2 2 2 2 2 2 2 2 2 2 2 2 2 2 2 2 2 2 2 2 2 2 2 2 2 2 2 2 2 2 2 2 2 2 2 2 2 2 2 2 2 2
left_child=1 2 22 4 7 40 10 11 34 18 14 41 36 30 24 -8 21 32 58 61 28 37 27 -16 48 -15 -14 33 29 -20 -6 -19 -11 -1 35 -3 53 38 -13 -39 54 -4 -33 -30 -24 -28 -38 -48 -7 -22 -51 -52 -26 -9 55 -2 -57 -12 -5 -56 -61 -10
right_child=5 8 3 9 13 6 15 12 19 17 57 16 26 25 23 -17 -18 31 20 -21 49 -23 44 -25 52 -27 45 -29 43 -31 -32 42 -34 -35 -36 -37 46 39 -40 -41 -42 -43 -44 -45 -46 -47 47 -49 -50 50 51 -53 -54 -55 59 56 -58 -59 -60 60 -62 -63
leaf_value=0.66671176807136667 -0.018671023294374863 0.4471357627881794 1.3510137643343139 0.52283232728715234 0.96337861806443592 0.064679871186135648 -0.017583402999460363 1.6446525921692718 0.14092634409805224 0.91330999115766121 0.0012390822436141641 1.6718549921788881 2.0241270610645636 1.0444996658786312 0.027948546345555176 -0.044848673563395947 1.9690424627246281 0.4943950564579831 1.425490008426618 0.06278592089581185 0.57426224751905963 1.4150628912868088 0.9029814135484181 0.051144130536125709 0.17282909608173735 1.4624633602797985 2.0387217615471509 0.48721398018724049 1.2198718094494607 0.95762510234337361 0.54885072071377827 0.99977801792561738 0.46443456175147146 0.37280882173690244 0.34919596354898741 0.78269321381862911 1.735049214128588 1.5706924135034734 1.2838685458753167 1.8322354044603266 -0.028568923023320415 0.985231913428391 0.58838419964646593 1.6879981034060023 0.54367475523037856 2.4651614783791937 2.4560959105058151 1.9582564756496632 0.15255574427525004 0.76790035750906349 1.4350327005573349 0.96328542866302946 0.035372777240097589 1.8583927737779853 -0.028869358292246655 0.0094642674266733583 0.063809607042699598 0.023447572590070395 0.85710708917004075 -0.0035213078988263662 -0.024143471250967448 0.3239472037215454
leaf_weight=1352 195742 254 162 89 103 14587 98567 259 348 59 40558 233 268 455 96419 70304 165 90 79 2134 55 423 241 38039 2240 96 61 928 90 244 205 219 622 138 349 163 61 341 164 368 156245 113 68 67 89 170 55 67 1021 118 51 152 456 363 112736 8979 4467 20806 187 27593 50306 463
leaf_count=1352 195742 254 162 89 103 14587 98567 259 348 59 40558 233 268 455 96419 70304 165 90 79 2134 55 423 241 38039 2240 96 61 928 90 244 205 219 622 138 349 163 61 341 164 368 156245 113 68 67 89 170 55 67 1021 118 51 152 456 363 112736 8979 4467 20806 187 27593 50306 463
internal_value=6.35729e-05 0.827839 1.08981 1.29921 1.56089 -0.0112027 0.00468587 1.71776 0.18756 0.805476 0.0312006 1.55593 1.96211 0.963197 0.0402113 -0.0289344 1.61359 0.610795 0.987431 0.113078 1.06421 1.57524 0.608072 0.0345107 0.0820865 1.11732 2.17616 0.581049 1.18575 1.07206 0.687475 0.804926 0.503324 0.639491 0.473918 0.578301 1.82943 1.6365 1.51158 1.70644 -0.0221462 1.20071 0.902305 1.41965 0.806077 2.35255 2.03348 2.18269 0.0704283 0.90905 0.966412 1.0818 0.14958 1.76939 -0.0196363 -0.0157021 0.0275188 0.00876906 0.749316 -0.0239533 -0.0168388 0.245413
internal_weight=951846 12781 9070 6322 4132 939065 382997 3273 3711 2190 214126 1969 1304 859 152762 168871 1694 1058 1132 2945 856 1529 2748 134458 18304 551 499 2418 480 323 308 377 681 1490 766 417 805 1106 397 709 556068 275 287 157 330 231 183 122 15608 376 321 203 2696 622 399823 209188 13446 61364 276 190635 77899 811
internal_count=951846 12781 9070 6322 4132 939065 382997 3273 3711 2190 214126 1969 1304 859 152762 168871 1694 1058 1132 2945 856 1529 2748 134458 18304 551 499 2418 480 323 308 377 681 1490 766 417 805 1106 397 709 556068 275 287 157 330 231 183 122 15608 376 321 203 2696 622 399823 209188 13446 61364 276 190635 77899 811
is_linear=0
shrinkage=0.05


Tree=13
num_leaves=63
num_cat=0
split_feature=7 10 10 19 10 10 10 4 10 2 8 10 2 7 10 10 5 5 5 2 5 10 0 13 10 13 6 19 19 17 19 19 19 17 17 19 15 2 19 4 0 5 13 19 19 19 5 10 6 7 4 13 4 8 5 10 13 19 5 0 5 4
split_gain=3.17633e+06 765067 323624 305047 130929 58466.5 122775 57899.8 29347.5 26457.4 20377.1 16006.2 14144.5 12199.7 11095 10736.9 9034.04 7953.97 6826.76 6807.5 8135.51 6690.1 5993.02 5516.22 5312.47 5041.47 4933.19 4722.91 5106.61 4637.87 4319.64 4982.31 9352.13 6091.17 4512.72 11215.8 4777.37 4238.21 4064.99 5075.45 4009.58 3987.76 3958.23 3953.35 5447.53 3879.41 3782.83 3709.53 3505.09 3371.24 3354.06 3145.79 3082.4 2971.71 2952.61 2927.38 2922.37 3602.43 2871.47 2844.39 2842.57 2735.27
threshold=1.0000000180025095e-35 7.5000000000000009 1.0000000180025095e-35 586.50000000000011 5.5000000000000009 1.0000000180025095e-35 7.5000000000000009 23.315000000000001 9.5000000000000018 4.5000000000000009 1.0000000180025095e-35 4.5000000000000009 4.5000000000000009 0.78500001311302203 11.500000000000002 5.5000000000000009 78.27500000000002 77.575000000000003 77.50500000000001 4.5000000000000009 76.975000000000009 11.500000000000002 5.5000000000000009 10.500000000000002 4.5000000000000009 15.500000000000002 1.8350000000000002 70.000000000000014 135.50000000000003 35.500000000000007 550.00000000000011 307.00000000000006 320.00000000000006 35.500000000000007 70.500000000000014 544.50000000000011 2.5000000000000004 5.5000000000000009 133.50000000000003 20.315000000000001 4.5000000000000009 86.495000000000019 10.500000000000002 433.50000000000006 412.50000000000006 586.50000000000011 78.625000000000014 5.5000000000000009 2.2450000000000006 0.78817991042137159 26.205000000000002 10.500000000000002 19.545000000000005 1.0000000180025095e-35 81.225000000000009 6.5000000000000009 12.500000000000002 586.50000000000011 82.895000000000024 3.5000000000000004 80.955000000000013 25.965000000000003
decision_type=2 2 2 2 2 2 2 2 2 2 2 2 2 2 2 2 2 2 2 2 2 2 2 2 2 2 2 2 2 2 2 2 2 2 2 2 2 2 2 2 2 2 2 2 2 2 2 2 2 2 2 2 2 2 2 2 2 2 2 2 2 2
left_child=1 2 25 4 7 49 11 19 40 47 18 13 46 27 -8 17 23 -11 24 54 48 -10 55 -12 42 56 -18 -7 52 53 31 33 -33 38 43 -36 -37 41 39 -15 -3 -19 -9 44 -34 -42 -6 60 -21 -2 -20 -38 -29 -13 -4 -14 57 61 -52 -22 -5 -1
right_child=5 8 3 9 12 6 14 10 21 15 16 29 22 30 -16 -17 26 37 50 20 59 -23 -24 -25 -26 -27 -28 28 -30 -31 -32 32 34 -35 35 36 51 -39 -40 -41 45 -43 -44 -45 -46 -47 -48 -49 -50 -51 58 -53 -54 -55 -56 -57 -58 -59 -60 -61 -62 -63
leaf_value=0.56424536669354253 -0.012749888328539821 0.35004755977284296 1.2277053572914818 0.47482328204429347 0.89349165064656833 0.032904952581781235 -0.01425462270650847 1.5522499849968718 0.23055197962589916 0.40963372246872992 1.7160674193700154 0.018603815548872076 1.1024818962802747 0.12282274278069386 -0.039918734140641433 0.5854564530177756 2.5173328076090136 0.85751154240446559 1.6178258648578159 1.2826165725560514 1.5420774556696415 0.061187365063640677 1.4344313417489714 2.0498920489224521 1.3718930989463147 0.76103803160342764 2.0013584281824812 0.19576877086446801 0.072878557201033797 0.006825457080531761 0.021392626194411582 0.19843579677839573 0.057728294223394629 0.015820480132256964 0.038509963537789432 0.12709480307688167 0.62202597972823348 1.1080615081024907 0.024824509514506286 0.05155114041440393 0.77207757716147318 1.2517811069749807 1.76537601173049 -0.0022705217192829979 0.33522790494632537 0.43597501141613526 0.53209998470387965 0.40130244820387823 1.6092334811886151 -0.02286325469568716 1.8353921494422814 0.28727658533890882 0.104317773995526 0.046529889940224875 0.85811241308325215 0.8337299008637864 0.48160621744684279 0.3543645963731355 2.1829479557772475 1.9383806536072179 0.70777134585029944 0.71127339970862991
leaf_weight=820 100611 406 187 213 117 5161 81390 401 803 62 225 27343 308 3632 87267 231 112 528 94 569 112 2129 104 275 183 329 79 1429 13986 62243 37313 1314 2983 19537 2146 532 82 452 6662 8000 151 73 477 3623 188 199 190 307 96 455305 156 487 2594 14620 76 151 907 140 96 76 340 515
leaf_count=820 100611 406 187 213 117 5161 81390 401 803 62 225 27343 308 3632 87267 231 112 528 94 569 112 2129 104 275 183 329 79 1429 13986 62243 37313 1314 2983 19537 2146 532 82 452 6662 8000 151 73 477 3623 188 199 190 307 96 455305 156 487 2594 14620 76 151 907 140 96 76 340 515
internal_value=-5.55732e-05 0.785728 1.03424 1.23107 1.48698 -0.0106804 0.00436453 1.63427 0.179193 0.757302 1.78905 0.0295189 0.942846 0.0428522 -0.0275338 0.895711 2.01141 0.959989 1.67985 1.3433 1.41187 0.107572 1.09172 1.89967 1.61696 0.577572 2.30392 0.0750736 0.0871583 0.0154865 0.0342212 0.0439531 0.0729997 0.0352348 0.0565847 0.105071 0.234809 0.992393 0.0559682 0.0738051 0.45696 0.905401 1.66804 0.0334119 0.0741805 0.580979 0.669829 0.540674 1.32977 -0.0210329 1.87272 0.335518 0.136802 0.0283333 1.1209 1.01407 0.552231 0.59566 1.96779 1.70229 0.618046 0.620964
internal_weight=951137 12689 9001 6290 4084 938448 382532 3214 3688 2206 2098 213875 870 109669 168657 1346 691 1115 1407 1116 853 2932 563 500 1061 2711 191 23170 18009 104206 86499 49186 11355 37831 10041 3247 1101 1053 18294 11632 756 601 878 6794 3171 350 307 860 665 555916 346 569 4023 41963 263 459 2382 1475 252 188 553 1335
internal_count=951137 12689 9001 6290 4084 938448 382532 3214 3688 2206 2098 213875 870 109669 168657 1346 691 1115 1407 1116 853 2932 563 500 1061 2711 191 23170 18009 104206 86499 49186 11355 37831 10041 3247 1101 1053 18294 11632 756 601 878 6794 3171 350 307 860 665 555916 346 569 4023 41963 263 459 2382 1475 252 188 553 1335
is_linear=0
shrinkage=0.05


Tree=14
num_leaves=63
num_cat=0
split_feature=7 10 10 19 4 10 10 10 3 2 10 10 10 7 19 8 14 4 8 2 4 10 10 7 19 4 10 8 0 10 8 3 14 16 0 14 10 3 3 3 4 3 8 14 6 17 0 4 14 4 0 19 19 18 18 0 14 6 14 10 18 14
split_gain=2.88402e+06 686697 334819 266889 82909.4 54652.6 53088.6 111501 22389.5 21661 16060.8 14455.6 14210 13611.2 10440 9429.77 8903.77 8214.65 8141.73 7698.9 6590.24 6302.64 6275.87 6049.41 4556.98 7367.38 4468.45 4467.14 4173.06 4023.8 3937.67 3912.06 3484.97 3160 2996.35 2907.1 2906.08 2847.88 2989.59 2808.96 2771.87 2753.82 2718.06 2669.8 3538.01 2656.82 2628.98 2614.05 2478.42 2457.47 2409.38 2390.74 9496.9 3114.29 2604.36 2381.96 2361.39 2539.42 2447.99 2337.83 2274.76 2254.88
threshold=1.0000000180025095e-35 6.5000000000000009 1.0000000180025095e-35 586.50000000000011 22.635000000000002 9.5000000000000018 1.0000000180025095e-35 6.5000000000000009 4.2624000000000004 4.5000000000000009 10.500000000000002 4.5000000000000009 5.5000000000000009 0.71200000619888315 586.50000000000011 1.0000000180025095e-35 822.50000000000011 20.165000000000003 1.0000000180025095e-35 5.5000000000000009 19.815000000000001 4.5000000000000009 11.500000000000002 0.71150000000000013 586.50000000000011 24.365000000000006 3.5000000000000004 1.0000000180025095e-35 4.5000000000000009 2.5000000000000004 1.0000000180025095e-35 0.63900000000000012 654.50000000000011 20.500000000000004 4.5000000000000009 638.50000000000011 13.500000000000002 15.604950000000001 9.0416500000000024 4.9087000000000005 22.555000000000003 9.5598500000000026 1.0000000180025095e-35 599.50000000000011 2.2450000000000006 35.500000000000007 5.5000000000000009 27.985000000000003 744.50000000000011 27.985000000000003 4.5000000000000009 350.50000000000006 307.00000000000006 228.50000000000003 170.50000000000003 4.5000000000000009 91.500000000000014 1.7350000000000001 301.50000000000006 5.5000000000000009 181.50000000000003 406.50000000000006
decision_type=2 2 2 2 2 2 2 2 2 2 2 2 2 2 2 2 2 2 2 2 2 2 2 2 2 2 2 2 2 2 2 2 2 2 2 2 2 2 2 2 2 2 2 2 2 2 2 2 2 2 2 2 2 2 2 2 2 2 2 2 2 2
left_child=1 2 24 4 11 14 33 13 12 32 55 43 18 23 17 41 19 -3 29 26 -13 28 50 42 25 -1 -11 -19 -15 -6 -21 -20 35 51 -14 -5 -12 38 46 -32 -29 -10 -8 44 -4 -25 -17 -43 61 -41 -7 52 -2 -54 -53 -9 -27 58 -58 -22 -23 -26
right_child=6 5 3 9 8 22 7 10 15 16 36 20 34 21 -16 37 -18 27 31 30 59 60 -24 45 48 56 -28 40 -30 -31 39 -33 -34 -35 -36 -37 -38 -39 -40 49 -42 47 -44 -45 -46 -47 -48 -49 -50 -51 -52 54 53 -55 -56 -57 57 -59 -60 -61 -62 -63
leaf_value=0.48068332246717471 -0.016744874197448686 0.37956034145721307 1.2751594772868686 0.58316630778591272 1.6237055420447764 0.13956200551096751 0.044520366334157603 -0.011914517480231798 1.5968231335437011 0.95595480051695125 -0.02620095203764455 0.5857827646621302 0.95368140761831166 0.028454476314906087 0.32512504416101995 2.2150684616395409 0.38553201942926363 0.57785422340449366 1.3721858475425028 0.94297998716469711 1.1212607936645058 0.025480533318747396 0.058666319983489215 0.15257012167179435 0.30917171228998641 0.49191165008570681 0.70238870342275994 0.7629653933189684 0.051613805570949939 1.4255605465729702 1.4649567308305187 1.8255363927009087 0.43204406841417375 -0.026039433774329476 1.3493357106863735 0.93263560566183645 -0.042674439578906084 1.7043206603438765 2.2667947391811896 1.2841188279065221 1.1160976236249194 1.9129719283777415 0.084540320754947398 1.1722252149277546 1.6141429729950734 0.029729242668999536 1.7814367263547837 1.5444646770134569 0.23453887187305 0.86661936920422777 0.31366454819630707 -0.014033544107634733 0.0097419621624310129 0.060961361179651313 -0.026163555981868897 0.0059645999065138372 1.0906494561108677 0.6174774687248421 0.73773651563051335 0.90412986549464147 0.0072019272508904962 0.54309326582424455
leaf_weight=923 196010 254 225 322 418 413 12946 59344 289 306 48938 102 113 69523 543 56 84 252 55 277 284 30160 2119 2646 139 162 402 177 27007 662 79 353 356 156292 83 73 59106 54 139 77 81 194 6311 235 117 528 93 64 124 65 383 69935 8882 4457 120488 27152 55 503 461 220 39072 398
leaf_count=923 196010 254 225 322 418 413 12946 59344 289 306 48938 102 113 69523 543 56 84 252 55 277 284 30160 2119 2646 139 162 402 177 27007 662 79 353 356 156292 83 73 59106 54 139 77 81 194 6311 235 117 528 93 64 124 65 383 69935 8882 4457 120488 27152 55 503 461 220 39072 398
internal_value=1.08403e-05 0.745942 1.00327 1.21921 1.4693 0.224089 -0.0101468 0.00418493 1.62859 0.758981 -0.0223586 1.12285 1.52142 0.0316237 0.492746 1.83159 0.883265 0.61188 1.57414 0.917933 0.952304 0.0266772 0.103632 0.0681776 0.55054 0.586518 0.811981 0.727584 0.034934 1.50225 1.06856 1.76442 0.545499 -0.0200112 1.12123 0.647752 -0.0352129 2.03753 2.10001 1.22597 0.873832 1.70282 0.0576359 1.30197 1.39113 0.132135 1.94441 1.82156 0.436019 1.09301 0.223332 -0.0176545 -0.0139668 0.0268561 -0.0217087 -0.00630208 0.669232 0.697422 0.775353 1.02648 0.0151648 0.482544
internal_weight=951581 12784 8562 5797 3756 4222 938797 382733 2573 2041 194540 1183 1684 188193 1307 889 1290 764 1488 1206 606 165762 2915 22431 2765 2104 708 510 96530 1080 498 408 751 556064 196 395 108044 342 288 221 258 547 19257 577 342 3174 149 258 661 142 796 399772 209349 13339 190423 86496 1181 1019 516 504 69232 537
internal_count=951581 12784 8562 5797 3756 4222 938797 382733 2573 2041 194540 1183 1684 188193 1307 889 1290 764 1488 1206 606 165762 2915 22431 2765 2104 708 510 96530 1080 498 408 751 556064 196 395 108044 342 288 221 258 547 19257 577 342 3174 149 258 661 142 796 399772 209349 13339 190423 86496 1181 1019 516 504 69232 537
is_linear=0
shrinkage=0.05


Tree=15
num_leaves=63
num_cat=0
split_feature=7 10 10 19 10 10 10 10 0 10 7 3 10 19 10 10 3 8 14 8 3 18 10 0 8 19 0 8 3 14 19 13 10 13 13 13 12 0 14 13 19 19 18 18 17 19 3 10 19 19 19 18 16 17 19 3 17 19 19 3 14 14
split_gain=2.59763e+06 624062 303399 242151 58049.2 50904.4 48006.5 100711 20272.8 15947.4 13385 11840.5 9791.04 9301.14 9039.05 8703.7 8653.47 7503.13 6327.45 6350.67 5803.59 5792.5 5491.36 5299.57 5164.59 4902.99 4559.02 4449.18 4351.29 4106.38 3875.78 3604.33 3599.28 3500.26 3275.06 3223.05 3170.46 2927.33 2886.23 2718.73 2692.6 4395.49 7607.21 4062.54 2837.61 2887.58 2670.05 2638.53 2613.64 5405.94 3027.23 3034.84 2468.5 2462.79 3070.6 2684.15 2903.76 5122.48 3426.64 2424.13 2385.61 3123.09
threshold=1.0000000180025095e-35 6.5000000000000009 1.0000000180025095e-35 586.50000000000011 4.5000000000000009 9.5000000000000018 1.0000000180025095e-35 7.5000000000000009 4.5000000000000009 4.5000000000000009 0.74800001287460338 6.5227000000000013 5.5000000000000009 586.50000000000011 12.500000000000002 5.5000000000000009 5.3496500000000013 1.0000000180025095e-35 67.500000000000014 1.0000000180025095e-35 9.0416500000000024 179.50000000000003 11.500000000000002 4.5000000000000009 1.0000000180025095e-35 586.50000000000011 4.5000000000000009 1.0000000180025095e-35 0.60250000000000015 357.50000000000006 211.00000000000003 4.5000000000000009 2.5000000000000004 4.5000000000000009 1.0000000180025095e-35 15.500000000000002 1.0000000180025095e-35 4.5000000000000009 291.50000000000006 15.500000000000002 550.00000000000011 535.50000000000011 187.50000000000003 171.50000000000003 60.500000000000007 42.000000000000007 4.9087000000000005 4.5000000000000009 350.50000000000006 307.00000000000006 133.50000000000003 168.50000000000003 18.500000000000004 35.500000000000007 133.50000000000003 3.6731500000000001 56.500000000000007 411.50000000000006 307.00000000000006 2.2980500000000004 324.50000000000006 525.50000000000011
decision_type=2 2 2 2 2 2 2 2 2 2 2 2 2 2 2 2 2 2 2 2 2 2 2 2 2 2 2 2 2 2 2 2 2 2 2 2 2 2 2 2 2 2 2 2 2 2 2 2 2 2 2 2 2 2 2 2 2 2 2 2 2 2
left_child=1 2 25 4 8 13 36 10 16 18 21 15 27 23 -9 26 28 -11 -5 32 33 47 -7 -3 -17 29 -6 40 -4 -1 34 -30 -20 -10 52 -36 37 -2 -35 60 41 44 -43 -42 45 -12 -21 -8 49 50 51 -47 -23 54 -29 -55 57 58 -57 -28 -18 -62
right_child=6 5 3 9 11 22 7 14 20 17 12 -13 -14 -15 -16 24 39 -19 19 46 -22 30 -24 -25 -26 -27 59 53 31 -31 -32 -33 -34 38 35 -37 -38 -39 -40 -41 43 42 -44 -45 -46 48 -48 -49 -50 -51 -52 -53 -54 55 -56 56 -58 -59 -60 -61 61 -63
leaf_value=0.48066453348781163 -0.020850723436689075 0.48376565628275747 1.6025630141204257 1.2305628448724748 1.1139638620946142 0.21089874852396964 0.05970811753187432 -0.015134572397928479 1.4527599474758779 0.4464484579509182 -0.011018293488905826 1.6767381818739926 0.0029750139551036579 0.31475220120041919 -0.038616291350572395 0.79389771469759707 1.3764452102260853 0.75156006470839687 0.8497503482050649 1.3220441382378341 2.0744354878272211 0.14783159624866082 0.056840199063204248 0.75574606629700813 1.1236289886048603 0.40489490878904899 1.5183759883922692 0.086156539915016372 1.2371593258439042 0.62291877212525892 0.044406895341109788 1.4221025265995895 0.64149289815886212 1.4703430521488192 0.050826450443638829 0.22921848249528876 -0.049464638590147186 -0.012748418464898749 1.8522419278291946 1.8667080331556869 0.04309283028666068 -0.018129851864055479 0.16950704290219593 0.003073811261427068 0.0081653871046335289 0.14669710318801782 0.93390292740530434 0.028174527870461513 -0.014064247086237328 0.11814821043693025 0.017119851981869057 0.046580313874572878 0.46193233411759138 0.020962057256281901 0.041190787587032623 0.091311739909823969 0.040562447122461209 0.030889186389028201 0.29774244090141794 1.1687221319247516 1.9344534155440656 1.5611544244269613
leaf_weight=901 392001 471 212 96 486 792 13604 98598 103 553 3115 91 51852 533 70135 299 109 317 410 64 143 2763 2145 289 197 668 136 5859 410 1161 2636 737 420 60 1949 291 8419 155781 282 101 8153 876 1409 28545 14501 802 144 12947 2106 2241 10799 13473 64 17086 10786 366 6517 887 446 78 73 241
leaf_count=901 392001 471 212 96 486 792 13604 98598 103 553 3115 91 51852 533 70135 299 109 317 410 64 143 2763 2145 289 197 668 136 5859 410 1161 2636 737 420 60 1949 291 8419 155781 282 101 8153 876 1409 28545 14501 802 144 12947 2106 2241 10799 13473 64 17086 10786 366 6517 887 446 78 73 241
internal_value=-2.05823e-05 0.709653 0.956809 1.16252 1.39922 0.213471 -0.00963549 0.00399188 1.54105 0.718654 0.0267605 1.12693 0.0213038 0.474886 -0.0248949 1.0851 1.46102 0.557621 0.842197 0.806279 1.79733 0.0554063 0.0983841 0.58719 0.92486 0.522622 1.19864 0.0287305 1.39446 0.56076 0.0935794 1.35599 0.744367 1.70829 0.11916 0.0740015 -0.0190145 -0.0185465 1.78524 1.63363 0.0222201 0.0298506 0.0975727 0.0119646 0.0265608 0.0347595 1.05333 0.0443315 0.0396063 0.0437443 0.0370944 0.0522051 0.154942 0.0420814 0.0570186 0.032255 0.0557397 0.113956 0.204696 1.39093 1.57798 1.64794
internal_weight=951729 12722 8492 5762 3758 4230 939007 382806 2471 2004 214073 1287 179819 1293 168733 1196 1883 870 1134 1038 588 34254 2937 760 496 2730 700 127967 1359 2062 7703 1147 830 445 5067 2240 556201 547782 342 524 86020 49322 2285 36698 47037 32536 208 26551 29421 27315 25074 14275 2827 41947 16645 25302 8216 1699 812 214 423 314
internal_count=951729 12722 8492 5762 3758 4230 939007 382806 2471 2004 214073 1287 179819 1293 168733 1196 1883 870 1134 1038 588 34254 2937 760 496 2730 700 127967 1359 2062 7703 1147 830 445 5067 2240 556201 547782 342 524 86020 49322 2285 36698 47037 32536 208 26551 29421 27315 25074 14275 2827 41947 16645 25302 8216 1699 812 214 423 314
is_linear=0
shrinkage=0.05


Tree=16
num_leaves=63
num_cat=0
split_feature=7 2 19 4 11 4 5 5 7 11 11 14 3 5 14 14 14 11 14 14 14 14 8 5 3 18 18 4 6 3 5 4 14 5 5 4 5 11 16 5 5 3 3 4 18 6 5 18 14 12 14 14 19 19 19 18 18 19 18 16 6 14
split_gain=2.3292e+06 499498 119879 48049.8 42827.6 37803.9 22068.9 19383.2 14618.3 13273.8 12659.9 11785.8 9249.15 10908 8978.82 10504.7 9181.21 8777.51 7031.93 6766.38 6181.29 6150.76 5750.22 6088.26 5634.59 5508.38 8487.19 5281.47 5897.02 5421.55 5071.52 4993.54 4458.72 4404.04 4341.62 4145.04 4021.18 3786.03 3731.01 3728.14 3701.75 3472.65 3386.86 3223.97 3204.51 3196.69 3264.77 3162.08 3083.02 3068.63 2961.78 4565.84 2943.73 3979.77 12884.5 3995.57 4691.72 13223.9 3800.05 3123.53 2804.59 3008.78
threshold=1.0000000180025095e-35 4.5000000000000009 586.50000000000011 23.435000000000006 1.0000000180025095e-35 19.815000000000001 84.315000000000012 70.265000000000015 0.74800001287460338 1.0000000180025095e-35 1.0000000180025095e-35 654.50000000000011 8.4213500000000021 76.685000000000016 625.50000000000011 633.50000000000011 67.500000000000014 1.0000000180025095e-35 474.50000000000006 683.50000000000011 521.50000000000011 638.50000000000011 1.0000000180025095e-35 86.915000000000006 1.74075 179.50000000000003 180.50000000000003 22.245000000000001 1.3350000000000002 2.4059500000000003 83.175000000000026 25.965000000000003 822.50000000000011 79.975000000000009 76.865000000000023 26.445000000000004 82.535000000000011 1.0000000180025095e-35 5.0000000000000009 68.485000000000014 70.135000000000005 9.5598500000000026 11.129050000000001 27.145000000000003 168.50000000000003 1.885 82.465000000000018 166.50000000000003 692.50000000000011 1.0000000180025095e-35 353.50000000000006 319.50000000000006 550.00000000000011 307.00000000000006 313.50000000000006 187.50000000000003 217.50000000000003 544.50000000000011 171.50000000000003 20.500000000000004 1.4950000000000003 357.50000000000006
decision_type=2 2 2 2 2 2 2 2 2 2 2 2 2 2 2 2 2 2 2 2 2 2 2 2 2 2 2 2 2 2 2 2 2 2 2 2 2 2 2 2 2 2 2 2 2 2 2 2 2 2 2 2 2 2 2 2 2 2 2 2 2 2
left_child=1 5 3 10 6 33 12 19 25 -7 18 14 13 43 16 -16 -4 49 -3 31 -20 -17 42 41 -11 37 -27 28 -26 -30 -29 60 48 -1 39 -33 -31 -2 47 -12 -22 -24 -8 50 -40 46 -9 -19 -13 52 51 -5 53 59 -55 -56 57 -57 -54 -10 -6 -62
right_child=8 2 11 4 7 9 22 45 17 24 34 32 -14 -15 15 21 -18 38 20 -21 40 -23 23 -25 27 26 -28 30 29 36 -32 35 -34 -35 -36 -37 -38 -39 44 -41 -42 -43 -44 -45 -46 -47 -48 -49 -50 -51 -52 -53 58 54 55 56 -58 -59 -60 -61 61 -63
leaf_value=0.075689857302257468 -0.0065070684644657822 0.59352392925825737 0.93558258074660638 1.0712920780785176 1.2003764325664159 0.77187404769659052 0.55251007678616404 1.5757269426049858 -0.012271348204905642 0.16470352998541885 1.0046256214660583 0.3981412423234203 1.2988491719641857 0.72541644548788609 1.385043052073275 0.41504225538704881 0.5209802678371257 -0.027381769531888069 1.3936146121025086 1.0132486396808689 1.1401549806197486 0.90996820850119209 0.91613841792568573 0.57339638057401632 0.8752161562898938 0.059981373609097291 0.0042188924614711956 0.25713327932955182 0.1236363979323887 0.63668279279154127 0.47664471974436484 0.65998527818918229 0.22273077920596496 0.21961894998875567 1.2000929776404128 1.2837257871502326 0.29840684802185263 0.013371384403077622 0.043347784933836481 0.80895577500633742 0.69835419234576579 1.4658430547027266 0.85579363211877357 1.347723107740026 -0.0088642609989649495 1.3920429330367547 1.9058114392922658 0.007730590891422035 0.58748375360007909 -0.046183456311290297 1.1190832712650518 0.58805366391064351 -0.0087402712607675924 0.075885625956760627 -0.026482477520665793 0.0054171945209134601 -0.014908764076802661 0.14696071265974989 -0.023606091645618915 -0.027268986306711703 1.2964859459414539 1.5924101608522823
leaf_weight=1620 63749 583 172 144 168 225 299 290 182981 294 505 324 420 241 89 88 597 7032 50 299 60 219 56 59 98 11106 17697 719 101 285 415 50 141 791 149 57 127 38370 2982 470 226 59 133 116 202525 154 101 72722 639 7996 679 74 59621 4977 19687 23458 25938 1775 154096 42846 166 178
leaf_count=1620 63749 583 172 144 168 225 299 290 182981 294 505 324 420 241 89 88 597 7032 50 299 60 219 56 59 98 11106 17697 719 101 285 415 50 141 791 149 57 127 38370 2982 470 226 59 133 116 202525 154 101 72722 639 7996 679 74 59621 4977 19687 23458 25938 1775 154096 42846 166 178
internal_value=1.11162e-05 0.671807 0.910412 1.0312 1.13765 0.26069 1.00217 1.34879 -0.00909099 0.407417 0.836173 0.602391 1.09577 1.02775 0.713323 0.906757 0.613713 -0.0116005 0.698523 1.20856 0.880709 0.7681 0.74363 0.986315 0.3672 0.00640882 0.0257201 0.401316 0.519821 0.451929 0.337466 1.30291 0.485331 0.12291 0.948718 0.992258 0.532408 0.000962024 -0.00454439 0.910303 0.79104 1.19816 0.645882 1.09968 -0.00810664 1.585 1.66099 0.00463469 0.52378 -0.0154463 1.0676 0.907257 -0.0149695 -0.0117888 -0.00187841 -0.00734049 2.40037e-05 0.015374 -0.0194589 -0.0151168 1.36783 1.44961
internal_weight=952288 12730 8055 5786 3743 4675 2280 1463 939558 2264 2043 2269 1674 1254 1165 396 769 808636 919 918 336 307 606 174 2039 130922 28803 1745 611 513 1134 619 1104 2411 1124 107 412 102119 285261 975 286 115 432 1013 205507 545 391 79754 963 523375 897 218 515379 301662 75835 70858 51171 25233 213717 225827 512 344
internal_count=952288 12730 8055 5786 3743 4675 2280 1463 939558 2264 2043 2269 1674 1254 1165 396 769 808636 919 918 336 307 606 174 2039 130922 28803 1745 611 513 1134 619 1104 2411 1124 107 412 102119 285261 975 286 115 432 1013 205507 545 391 79754 963 523375 897 218 515379 301662 75835 70858 51171 25233 213717 225827 512 344
is_linear=0
shrinkage=0.05


Tree=17
num_leaves=63
num_cat=0
split_feature=7 10 10 19 4 10 10 10 8 10 10 10 10 7 0 19 3 4 19 19 4 13 19 18 19 19 19 15 13 10 16 3 19 14 19 17 4 19 19 19 13 19 19 3 18 4 6 14 0 4 13 19 18 18 19 10 4 8 13 0 10 7
split_gain=2.1071e+06 524971 278167 199936 61730.7 40710.1 91065.5 39670.5 14442.7 14355 14229.3 13326.5 11520.2 10735.2 9911.07 7302.88 7292.95 5555.58 5390.37 5324.07 5095.38 5083.37 4491.22 6928.79 5836.15 4498.12 13677.5 4799.29 4465.03 4339.09 4313.45 4202.6 4084.61 4000.33 3917.07 7570.26 6655.76 5998.25 4306.54 9249.2 3901.04 3745.93 3834.65 3702.79 3507.32 3429.36 5722.87 3412.37 3396.42 3283.95 3221.31 2995.16 2972.09 6238.09 3155.65 2965.41 2927.35 2878.94 2815.26 2766.21 2724.5 2683.75
threshold=1.0000000180025095e-35 6.5000000000000009 1.0000000180025095e-35 586.50000000000011 23.485000000000003 1.0000000180025095e-35 6.5000000000000009 9.5000000000000018 1.0000000180025095e-35 3.5000000000000004 4.5000000000000009 10.500000000000002 4.5000000000000009 0.78500001311302203 4.5000000000000009 586.50000000000011 0.53685000000000016 20.165000000000003 70.000000000000014 135.50000000000003 19.815000000000001 10.500000000000002 550.00000000000011 171.50000000000003 115.50000000000001 544.50000000000011 547.00000000000011 2.5000000000000004 15.500000000000002 12.500000000000002 8.0000000000000018 8.8019500000000015 838.00000000000011 67.500000000000014 133.50000000000003 57.500000000000007 21.855000000000004 222.50000000000003 345.50000000000006 307.00000000000006 2.5000000000000004 85.000000000000014 70.000000000000014 8.4213500000000021 166.50000000000003 21.285000000000004 1.7950000000000002 67.500000000000014 4.5000000000000009 27.015000000000004 10.500000000000002 772.50000000000011 163.50000000000003 167.50000000000003 186.00000000000003 5.5000000000000009 19.545000000000005 1.0000000180025095e-35 4.5000000000000009 4.5000000000000009 5.5000000000000009 0.78817991042137159
decision_type=2 2 2 2 2 2 2 2 2 2 2 2 2 2 2 2 2 2 2 2 2 2 2 2 2 2 2 2 2 2 2 2 2 2 2 2 2 2 2 2 2 2 2 2 2 2 2 2 2 2 2 2 2 2 2 2 2 2 2 2 2 2
