tree
version=v4
num_class=1
num_tree_per_iteration=1
label_index=0
max_feature_idx=19
objective=regression
feature_names=dayofweek isweekend month precpt avg_temperature avg_humidity avg_wind_level discount holiday_flag activity_flag stockout_hours iscensoredday isnotstocked city_id store_id management_group_id first_category_id second_category_id third_category_id product_id
feature_infos=[0:6] [0:1] [3:6] [0:34.582799999999999] [12.880000000000001:30.879999999999999] [27.350000000000001:92.680000000000007] [0.96999999999999997:3.8500000000000001] [0:1.0880000000000001] [0:1] [0:1] [0:16] [0:1] [0:1] [0:17] [0:897] [0:6] [0:31] [0:82] [0:80] [1:862]
tree_sizes=5727 5993 6010 6019 6003 6030 6008 5983 6001 6014 6039 6020 6028 6022 6011 6046 6064 6038 6056 6021 6026 6043 6024 6014 6081 6004 6065 6033 6019 6047 6025 6046 6055 6023 6046 6010 6034 6053 6052 6002 6083 6051 6058 5971 6007 6028 6017 6069 6120 6014 6081 6089 6036 6088 6053 6015 6044 6020 5930 5991 6025 6068 6006 5988 6015 6091 5916 5991 6011 6076 6050 6037 6049 6016 5919 6041 5937 6020 6019 5936 6073 6003 6026 6065 6052 5983 6070 5970 6005 6090 5991 6058 6056 5997 6017 5945 5945 5895 6014 5913 6005 5994 5987 5911 6040 5910 6003 6069 6011 6088 5987 5853 6003 5978 5982 6051 5975 5936 5959 6006 6007 5970 6060 5876 5920 5944 5979 5902 5999 6067 5949 5957 5922 5916 5971 6023 5992 5849 5975 5816 6027 6059 5800 5867 5960 5881 5973 5915 5900 5914 5925 5892 5811 5963 5827 5896 6022 5994 6086 5985 5793 6003 5861 5914 5891 5861 6045 6037 5941 6007 5915 5786 5972 5790 5902 5964 5846 5764 5945 5938 5952 5920 6011 5993 5881 5932 5984 5926 5819 5971 5987 5867 5985 5974 5906 5920 5990 5928 5880 5785 5787 5876 5969 5891 5944 6015 5793 5980 5839 5904 5852 5950 5962 6026 5811 5866 5797 5927 6027 5970 5899 6018 5864 5954 5875 6016 5910 5992 6003 5875 5823 5785 5856 6007 5978 5750 5828 5775 5831 5850 5891 6022 5903 5860 5960 5843 5859 5910 5956 5931 5799 5930 5890 6007 5919 5725 5944 5920 5819 5943 5899 5849 5923 5803 5843 5972 5931 5825 5794 6014 5865 5808 5904 5772 5956 5790 5827 5805 5895 5802 5860 5863 5887 5832 5956 5951 5880 5966 5955 5802 5932 5829 5996 5989 5836 5895 5813 5894 5927 5860 5819 5835 5895 5947 5740 5961 5989 5886 5893 5878 6005 5853 5886 5822 5898 5839 5732 5890 5895 5813 5804 5949 5922 5909 5815 5867 5890 5849 5839 5805 5795 5783 5815 5926 5884 5883 5771 5836 5916 5807 5870 5786 5926 5924 5945 5953 5950 5891 5859 5883 5870 5697 5869 5901 5862 5897 5882 5955 5879 5980 5892 5972 6026 5855 5853 5712 5745 5824 5915 5835 5825 5865 5892 5879 5793 5702 5798 5826 5801 5884 5747 5922 5967 5861 5780 5796 5916 5828 5876 5816 5807 5811 5811 5899 5826 5891 5825 5750 5806 5863 5929 5819 5762 5785 5956 5852 5902 5912 5907 5747 5907 5863 5808 5890 5935 5820 5738 5919 5908 5727 5954 5796 5782 5756 5850 5880 5811 5735 5935 5890 5842 5770 5907 5972 5805 5872 5917 5837 5770 5852 5786 5764 5788 5724 5791 5928 5913 5870 5892 5855 5751 5854 5813 5930 5952 5854 5831 5974 5885 5902 5934 5853 5800 5788 5771 5821 5899 5923 5974 5812 5895 5891 5916 5862 5769 5784 5850 6060 5687 5819 5879 5723 5894 5794 6055 5945 5815 5855 5762 5824 5868 5743 5881 5958 5845 5794 5987 5812 5785 5879

Tree=0
num_leaves=63
num_cat=0
split_feature=18 16 19 16 18 18 10 13 7 10 19 7 10 16 13 17 7 7 19 19 18 13 19 19 17 7 0 18 19 19 18 13 10 7 8 19 0 5 10 17 7 7 19 12 7 5 8 19 17 19 13 7 10 0 10 7 10 13 7 18 0 10
split_gain=133936 113900 74804.5 73653.8 64648.4 169324 34482.7 28956.5 27205.6 25350.5 17922.5 16466.3 14884.4 14072.1 13147.9 10736.4 10266.1 9760.42 8562.61 14868.5 7858.72 7581.17 8948.49 7302.84 6395.1 6337.31 5991.52 5699.94 14400.6 5364.61 5248.29 6224.17 4885.32 4528.75 4418.93 4211.37 4081.56 3994.59 3884.07 3819.31 3453.81 2826.39 2767.02 2695.73 2654.91 2387.6 2350.21 2264.88 2252.09 2102.37 2052.05 1970.88 1876.57 1859.53 1850.3 1748.9 1666.07 1579.61 1555.49 1709.28 1537.19 1489.47
threshold=1.5000000000000002 19.500000000000004 653.50000000000011 21.500000000000004 18.500000000000004 58.500000000000007 10.500000000000002 1.5000000000000002 0.75650000000000006 10.500000000000002 635.50000000000011 0.75006037950515758 13.500000000000002 20.500000000000004 3.5000000000000004 68.500000000000014 0.59912605237960825 0.99950000000000017 480.00000000000006 583.00000000000011 71.500000000000014 2.5000000000000004 481.50000000000006 158.00000000000003 55.500000000000007 0.99850000000000005 4.5000000000000009 74.500000000000014 752.50000000000011 205.50000000000003 10.500000000000002 2.5000000000000004 10.500000000000002 0.9160000042915345 1.0000000180025095e-35 344.00000000000006 4.5000000000000009 81.725000000000009 10.500000000000002 6.5000000000000009 0.87549999356269848 0.84500001430511484 287.50000000000006 1.0000000180025095e-35 0.94300000929832473 68.375000000000014 1.0000000180025095e-35 779.50000000000011 8.5000000000000018 616.50000000000011 2.5000000000000004 0.83200000858306888 13.500000000000002 4.5000000000000009 4.5000000000000009 0.65849998974800117 13.500000000000002 1.0000000180025095e-35 0.52750000000000019 65.500000000000014 4.5000000000000009 6.5000000000000009
decision_type=2 2 2 2 2 2 2 2 2 2 2 2 2 2 2 2 2 2 2 2 2 2 2 2 2 2 2 2 2 2 2 2 2 2 2 2 2 2 2 2 2 2 2 2 2 2 2 2 2 2 2 2 2 2 2 2 2 2 2 2 2 2
left_child=2 12 9 4 8 6 7 10 23 14 17 61 16 -12 26 38 30 37 -17 21 25 46 -23 -3 32 39 54 28 35 -13 -2 58 57 49 -24 -22 51 -6 48 44 -4 50 -9 -27 -18 53 -20 60 -5 -21 -29 -15 -8 -19 -1 -50 -11 -10 -32 -60 -44 -7
right_child=1 3 40 15 5 11 52 42 24 56 13 29 -14 36 -16 18 20 45 19 33 27 22 34 -25 -26 43 -28 41 -30 -31 31 -33 -34 -35 -36 -37 -38 -39 -40 -41 -42 -43 47 -45 -46 -47 -48 -49 55 -51 -52 -53 -54 -55 -56 -57 -58 -59 59 -61 -62 -63
leaf_value=1.3073033749764091 1.1303812883251476 1.2367947755391098 1.1703093095083874 1.1455433094659684 1.3877090856457424 1.210122371101769 1.1747691653733991 1.1816832161145694 1.1783431093415448 1.1802156110206967 1.118924830329536 1.1693321350880355 1.0973965094175497 1.3508458431617627 1.2486806212079391 1.1171736314973484 1.1392182513265963 1.3595773767192127 1.1848225666875667 1.1707101988552484 1.1762332589669253 1.1212455892373296 1.1612031725650103 1.1310047141860957 1.1189601876569299 1.1200646161255357 1.360556081907162 1.1652492555132368 1.447476368131388 1.1338900051051803 1.2616098796481818 1.1579866520747577 1.1007814167270507 1.1364847692250051 1.198485970986269 1.1227639577400568 1.3440797860826805 1.4834423750406942 1.1006027259679931 1.1281710131321372 1.1269150539989723 1.1307474889606184 1.2405364459448391 1.0934830737349981 1.1704607601114161 1.3221522291185108 1.216301587883982 1.1162975402557671 1.1450626379236011 1.1476971502535565 1.1343198265171972 1.2697998194530671 1.1010006006247319 1.482782273274373 1.2617412492497007 1.1179357701516222 1.1014910379530609 1.1497685375841125 1.1505710786960659 1.2281307819377625 1.2777127826001364 1.1684122082193493
leaf_weight=9566 7781 9631 9087 27509 3614 13604 1517 1763 9681 1088 1219 15757 34506 838 12619 14804 28445 1755 17264 17792 12183 10428 23226 1964 29711 137661 5205 12221 447 33115 1869 10203 3620 64297 12082 5278 3345 1560 9419 109243 9256 62213 9608 10248 8936 8982 9031 318 8289 22443 9556 7154 1997 371 2905 20981 1758 9665 1017 2356 3913 2540
leaf_count=9566 7781 9631 9087 27509 3614 13604 1517 1763 9681 1088 1219 15757 34506 838 12619 14804 28445 1755 17264 17792 12183 10428 23226 1964 29711 137661 5205 12221 447 33115 1869 10203 3620 64297 12082 5278 3345 1560 9419 109243 9256 62213 9608 10248 8936 8982 9031 318 8289 22443 9556 7154 1997 371 2905 20981 1758 9665 1017 2356 3913 2540
internal_value=1.15102 1.14648 1.22942 1.16477 1.18957 1.21235 1.28363 1.29555 1.14954 1.27426 1.32524 1.15978 1.12896 1.28035 1.28767 1.1477 1.13156 1.35985 1.1537 1.15676 1.12967 1.17424 1.16194 1.21888 1.13428 1.12553 1.3155 1.14163 1.16724 1.14532 1.16387 1.18074 1.15409 1.14472 1.17396 1.16007 1.29771 1.41657 1.13034 1.13289 1.14841 1.13617 1.24068 1.11822 1.14669 1.33343 1.19563 1.24819 1.13527 1.15787 1.15168 1.2783 1.13285 1.38108 1.29669 1.12562 1.13159 1.16407 1.22502 1.20475 1.2513 1.20356
internal_weight=940454 888970 51484 434807 177242 112970 47954 44440 64272 33141 28838 65016 454163 12556 30295 257565 419657 16282 191367 176563 396431 72031 45736 11595 52677 294533 17676 101898 17908 48872 23226 15445 22966 104532 35308 17461 11337 5174 66198 146624 18343 83990 15602 147909 37381 11108 26295 13839 56779 40235 21777 7992 3514 2126 12471 29270 2846 19346 5242 3373 13521 16144
internal_count=940454 888970 51484 434807 177242 112970 47954 44440 64272 33141 28838 65016 454163 12556 30295 257565 419657 16282 191367 176563 396431 72031 45736 11595 52677 294533 17676 101898 17908 48872 23226 15445 22966 104532 35308 17461 11337 5174 66198 146624 18343 83990 15602 147909 37381 11108 26295 13839 56779 40235 21777 7992 3514 2126 12471 29270 2846 19346 5242 3373 13521 16144
is_linear=0
shrinkage=1


Tree=1
num_leaves=63
num_cat=0
split_feature=18 16 16 18 18 10 13 7 13 15 7 7 7 10 10 17 18 7 10 8 17 17 0 13 16 3 10 7 15 16 0 10 4 3 4 7 3 17 16 16 2 10 4 13 10 7 7 7 3 17 7 4 7 7 10 5 13 4 4 4 4 7
split_gain=122242 103168 66351.6 57630.2 152367 31775.7 25163.2 24600.4 19162.8 27999.3 20060.6 15478.6 14948.9 13402.8 12174.5 9657.79 9333.99 9906.94 6545.84 6448.03 5815.13 5753.01 5672.05 5453.21 4514.62 4484.44 4383.91 4382.29 5811.1 5486.24 4212.83 3529.53 2859.23 2337.63 2244.49 2237.24 2190.4 2055.09 1923.93 1910.86 1835.01 1800.5 1783.05 1689.52 1686.49 1654.46 1580.18 1560.06 1545.8 1473.15 2021.49 1465.12 1426.32 1423.52 1384.52 1342.25 1326.1 1286.99 1245.57 1207.12 1201.14 1200.31
threshold=1.5000000000000002 19.500000000000004 21.500000000000004 18.500000000000004 58.500000000000007 10.500000000000002 1.5000000000000002 0.75650000000000006 1.5000000000000002 5.5000000000000009 0.88132841277122509 0.99950000000000017 0.75006037950515758 14.500000000000002 9.5000000000000018 68.500000000000014 57.500000000000007 0.59912605237960825 9.5000000000000018 1.0000000180025095e-35 55.500000000000007 55.500000000000007 4.5000000000000009 2.5000000000000004 20.500000000000004 7.0820500000000006 10.500000000000002 0.99950000000000017 5.5000000000000009 9.0000000000000018 4.5000000000000009 9.5000000000000018 23.125000000000004 9.3872000000000018 25.115000000000006 0.99950000000000017 5.1415500000000014 8.5000000000000018 20.500000000000004 20.500000000000004 5.5000000000000009 13.500000000000002 22.965000000000003 1.0000000180025095e-35 12.500000000000002 0.65550000000000008 0.65849998974800117 0.94999999403953561 1.1454500000000001 34.000000000000007 0.99149999189376847 24.145000000000003 0.84700000143051157 0.99950000000000017 6.5000000000000009 76.905000000000015 2.5000000000000004 25.595000000000002 21.835000000000004 21.915000000000003 23.865000000000006 0.99950000000000017
decision_type=2 2 2 2 2 2 2 2 2 2 2 2 2 2 2 2 2 2 2 2 2 2 2 2 2 2 2 2 2 2 2 2 2 2 2 2 2 2 2 2 2 2 2 2 2 2 2 2 2 2 2 2 2 2 2 2 2 2 2 2 2 2
left_child=8 13 3 7 5 6 11 21 9 -1 -11 24 54 16 22 31 45 23 42 36 26 34 60 55 25 59 33 47 -29 -30 39 37 61 52 -3 -8 -17 -4 -14 51 -24 -16 -10 -31 -7 -2 -39 56 -32 50 -49 58 -9 -38 -6 -18 -19 -37 -13 -5 -12 -21
right_child=1 2 15 4 12 44 35 20 18 10 14 30 38 -15 41 19 17 27 -20 32 -22 -23 40 -25 -26 -27 -28 28 29 43 48 -33 -34 -35 -36 57 53 46 -40 -41 -42 -43 -44 -45 -46 -47 -48 49 -50 -51 -52 -53 -54 -55 -56 -57 -58 -59 -60 -61 -62 -63
leaf_value=-0.032445072535953641 -0.012100479501735057 0.059859726689711984 -0.0048073483409839428 0.16081679763966825 0.056428715940338062 0.031045404213081957 0.11678486837459175 0.029151030343278109 0.065022552391295618 0.032262011431861547 0.14806144624703185 0.13501050863438113 -0.0020118423539757751 -0.052616233719707056 0.060285241128605553 -0.007609332459715833 0.097182895702099856 -0.0039818335442999937 -0.028902655350857814 0.014333749931684119 -0.030485033465533447 -0.019262516982060801 0.22057440531743661 0.0066789532317278969 0.17327649504945211 0.31401729950698365 -0.047648250990979878 -0.037828701196174035 -0.020198394571201126 0.034512469323840243 0.23430038636632888 -0.046522105646602668 0.02719486630933915 0.092375806447127048 0.10847975561912769 0.082135203016808739 0.020224999168742368 -0.00523156057790089 -0.033875353047277221 0.10673999380524134 0.15619063564953647 -0.043552147619710824 0.035810544334720786 -2.1641196028393203e-05 -0.041672584829681357 -0.029518625591774535 -0.031424560686985764 0.014060524509494604 0.16644134374736688 -0.014054855618710352 0.15271082761869939 0.046150068048497334 -0.00072406082212405753 -0.0024861917925299354 0.016255606183405016 0.042720618928683105 -0.015508939046320506 0.037954139848358166 0.17706669738768166 0.23322077209458955 0.11280773552330553 -0.0035621239066091237
leaf_weight=3350 14996 5919 27168 743 13550 1196 4267 5835 11425 4986 9174 6045 43663 31188 1030 97692 2505 44558 2864 20599 29508 1739 3620 10029 2825 1859 3595 38305 72375 5665 1015 10288 28378 874 3963 9266 13172 8020 5314 6132 1594 702 9624 9449 2392 149999 20416 9980 4846 5667 270 374 12671 14489 2548 2063 56699 2005 2484 2556 3280 17188
leaf_count=3350 14996 5919 27168 743 13550 1196 4267 5835 11425 4986 9174 6045 43663 31188 1030 97692 2505 44558 2864 20599 29508 1739 3620 10029 2825 1859 3595 38305 72375 5665 1015 10288 28378 874 3963 9266 13172 8020 5314 6132 1594 702 9624 9449 2392 149999 20416 9980 4846 5667 270 374 12671 14489 2548 2063 56699 2005 2484 2556 3280 17188
internal_value=3.80795e-05 -0.00430961 0.0131012 0.0366492 0.0581192 0.125694 0.137256 -0.00122414 0.0748167 0.103096 0.121715 0.164861 0.00827002 -0.0209854 0.144706 -0.00310775 -0.0186508 -0.0127031 0.0420167 0.00257303 -0.0157992 0.0646001 0.157107 0.0273042 0.224084 0.251911 0.00306258 -0.0151067 -0.0215875 -0.0144767 0.142235 -0.0196192 0.015201 0.0124695 0.0793579 0.0859495 -0.00409236 -0.0146415 -0.00546903 0.128218 0.200891 0.0181987 0.0516663 0.0129224 -0.0174333 -0.0279355 -0.0240372 -0.00814905 0.178193 0.00640241 0.0177128 0.143012 0.00869565 0.00832874 0.0500701 0.0725866 -0.0104365 0.0742758 0.147259 0.216914 0.138777 0.00619354
internal_weight=939991 888342 434594 177184 113080 48005 44417 64104 51649 27736 24386 28879 65075 453748 19400 257410 422560 257565 23913 191518 52483 11621 17668 14597 7983 5158 22975 242968 125794 87489 20896 65892 66165 19380 9882 15538 125353 55604 48977 15035 5214 1732 21049 15114 3588 164995 28436 117174 5861 15917 10250 8903 18506 27661 16098 4568 101257 11271 8529 3299 12454 37787
internal_count=939991 888342 434594 177184 113080 48005 44417 64104 51649 27736 24386 28879 65075 453748 19400 257410 422560 257565 23913 191518 52483 11621 17668 14597 7983 5158 22975 242968 125794 87489 20896 65892 66165 19380 9882 15538 125353 55604 48977 15035 5214 1732 21049 15114 3588 164995 28436 117174 5861 15917 10250 8903 18506 27661 16098 4568 101257 11271 8529 3299 12454 37787
is_linear=0
shrinkage=0.05


Tree=2
num_leaves=63
num_cat=0
split_feature=17 17 19 19 19 19 17 16 17 19 13 10 10 7 4 7 7 13 19 19 10 15 10 8 7 13 10 16 0 4 19 17 13 8 16 19 19 19 3 17 7 7 16 10 19 13 7 16 10 3 7 9 19 4 3 10 13 3 12 10 10 0
split_gain=71071.6 69577.1 78097.9 104283 45503.9 62466.2 38119.5 36589.6 35261.7 39763.6 27590.3 21223 17408.8 13310.1 11627.2 10695.5 9717.49 9698.61 8634.71 13017.6 8465.06 6433.11 6219.79 5888.21 5764.01 5691 5672.9 5277.39 4957.69 4568.82 4564.6 4549.62 4160.95 4058.72 3797.26 6363.62 3492.26 3468.98 3371.8 3334.6 3064.9 2770.15 2713.3 2385.62 2932.92 2372.76 2258.1 2208.42 2815.71 2108.3 2080.97 2072.61 1945.83 1925.44 1732.9 1702.39 1657.26 1655.3 1630.54 1627.43 1604.98 1455.01
threshold=26.000000000000004 51.000000000000007 302.00000000000006 287.50000000000006 103.00000000000001 133.50000000000003 62.500000000000007 9.0000000000000018 66.000000000000014 683.50000000000011 2.5000000000000004 10.500000000000002 11.500000000000002 0.75206638669967663 22.565000000000001 0.99850000000000005 0.75949999523162848 3.5000000000000004 480.00000000000006 583.00000000000011 12.500000000000002 5.5000000000000009 10.500000000000002 1.0000000180025095e-35 0.60950001358985906 3.5000000000000004 8.5000000000000018 10.500000000000002 4.5000000000000009 24.825000000000003 6.0000000000000009 46.500000000000007 1.0000000180025095e-35 1.0000000180025095e-35 9.0000000000000018 752.50000000000011 321.00000000000006 42.000000000000007 7.0820500000000006 6.5000000000000009 0.84500001430511484 0.91850000000000021 23.500000000000004 12.500000000000002 801.50000000000011 2.5000000000000004 0.56800000929832473 27.500000000000004 11.500000000000002 5.1415500000000014 0.83200000858306888 1.0000000180025095e-35 204.50000000000003 22.115000000000006 9.7662000000000031 13.500000000000002 2.5000000000000004 4.3741500000000011 1.0000000180025095e-35 5.5000000000000009 7.5000000000000009 4.5000000000000009
decision_type=2 2 2 2 2 2 2 2 2 2 2 2 2 2 2 2 2 2 2 2 2 2 2 2 2 2 2 2 2 2 2 2 2 2 2 2 2 2 2 2 2 2 2 2 2 2 2 2 2 2 2 2 2 2 2 2 2 2 2 2 2 2
left_child=15 2 3 4 -2 7 20 11 9 -8 12 17 14 60 -5 24 57 28 -15 21 30 23 53 49 37 42 33 32 59 -25 56 -7 34 50 -4 -36 -34 -1 -16 51 52 55 -23 44 -39 -46 -29 58 -49 -20 -11 -26 -32 -12 -18 -21 -3 -9 -17 -6 -10 -19
right_child=1 6 27 10 5 31 8 16 13 26 22 -13 -14 18 38 47 54 61 19 41 -22 25 -24 29 39 -27 -28 46 -30 -31 40 -33 36 -35 35 -37 -38 43 -40 -41 -42 -43 -44 -45 45 -47 -48 48 -50 -51 -52 -53 -54 -55 -56 -57 -58 -59 -60 -61 -62 -63
leaf_value=0.10968271719289716 -0.02588695258128916 0.17438861657692881 0.026860879808107693 0.15356982030914007 0.13981487866442868 -0.026005760661418645 -0.019553674491026959 0.062124395814628412 0.050023298375610807 0.18302751684567847 0.070732322073555218 -0.018564123404411017 -0.022581194738373705 -0.032219711118871196 0.2165912636414532 -0.03180490009593432 0.012956775307428274 0.080526254315301748 0.0099847731465935573 0.0053919133936388567 -0.049207049064328399 -0.0018862422334006335 -0.029562941232086484 0.034281132143091135 0.00048644742424513559 -0.024633102307869706 0.011983271057130401 0.113520584284113 0.18959662171611524 0.087027362810820227 0.0072515410749304995 0.013729309233918513 0.028225202771473869 0.16759227954194986 -0.032958619984347286 0.27393691155499378 -0.018132286972484417 -0.0030183584094346672 0.29388949652649099 -0.021679644159142277 -0.019907935812623619 -0.013994554009554908 0.041379714947186723 -0.043332965953041432 0.071870551332680693 0.014898039360377433 -0.024386223134269365 -0.008269818126013467 -0.04970729397872653 0.038245263009451087 0.1011839722256255 -0.024130120933290963 -0.017385533842573006 0.11245589353137064 0.07876817124580901 -0.046736697439770686 0.031580671726604538 0.10517832660629584 -0.052998469316415012 0.091531550830204381 0.010717332314364378 0.11819107206592663
leaf_weight=891 26729 216 5605 9513 10354 18708 7853 6398 16653 863 5810 2812 1030 17968 4871 104111 18949 8917 25524 35730 20726 6848 1193 11903 37817 12877 1112 299 5253 6267 19397 11715 5539 4584 283 419 15242 10080 1986 79423 135581 64644 7696 1973 3090 4473 40949 19249 5209 8901 7764 11049 13657 5276 1056 1638 3416 3429 9942 2099 3077 3599
leaf_count=891 26729 216 5605 9513 10354 18708 7853 6398 16653 863 5810 2812 1030 17968 4871 104111 18949 8917 25524 35730 20726 6848 1193 11903 37817 12877 1112 299 5253 6267 19397 11715 5539 4584 283 419 15242 10080 1986 79423 135581 64644 7696 1973 3090 4473 40949 19249 5209 8901 7764 11049 13657 5276 1056 1638 3416 3429 9942 2099 3077 3599
internal_value=-6.47258e-06 0.00911238 0.032164 0.0523824 0.0316299 0.0481095 -0.00244446 0.0765718 0.0107777 0.0708675 0.136303 0.112821 0.176801 0.00471309 0.189346 -0.0207298 0.0364315 0.125046 0.000847881 0.00411199 -0.0190174 0.0192094 0.0789155 0.0294462 -0.011422 -0.000425191 0.120444 -0.0121265 0.14886 0.0524738 -0.0153852 -0.010705 0.00501974 0.129573 0.040591 0.150217 -0.00577609 0.0131918 0.238979 -0.0153566 -0.0165797 -0.00773013 0.0210081 0.00880903 0.01464 0.0381752 -0.0233866 -0.0307287 -0.0170951 0.0172919 0.109371 -0.00507956 -0.00292782 0.0905892 0.0164307 0.00310689 0.0400737 0.0771475 -0.0336523 0.131677 0.0438933 0.0913568
internal_weight=940235 652928 218033 149697 120018 93289 434895 62866 241902 22176 29679 33034 17400 219726 16370 287307 29832 30222 199996 182028 192993 80016 12279 52595 148796 27421 14323 68336 17706 18170 172267 30423 27088 13211 6307 702 20781 20507 6857 128289 168635 102012 14544 19616 17643 7563 41248 138511 24458 34425 8627 48866 33054 11086 20005 37368 3632 9827 114053 12453 19730 12516
internal_count=940235 652928 218033 149697 120018 93289 434895 62866 241902 22176 29679 33034 17400 219726 16370 287307 29832 30222 199996 182028 192993 80016 12279 52595 148796 27421 14323 68336 17706 18170 172267 30423 27088 13211 6307 702 20781 20507 6857 128289 168635 102012 14544 19616 17643 7563 41248 138511 24458 34425 8627 48866 33054 11086 20005 37368 3632 9827 114053 12453 19730 12516
is_linear=0
shrinkage=0.05


Tree=3
num_leaves=63
num_cat=0
split_feature=18 17 17 19 19 19 17 17 19 13 10 10 7 7 13 3 7 19 19 10 18 19 15 10 10 13 2 12 10 17 1 19 19 1 2 18 13 10 14 7 7 7 10 7 17 2 17 1 1 19 1 7 7 10 3 2 10 10 10 10 13 7
split_gain=99532.2 58191.5 87241.2 57294.5 45098.1 72954.5 34314.1 31354.8 35026.6 25547.2 19091.3 15703.5 12047.1 11703.4 9038.56 8506.09 8445.58 7790.11 11678.3 7681.02 6764.02 7655.08 5768.78 5545.01 5317.52 5215.97 5152.52 4682.05 5052.14 5421.42 4383.57 4086.86 4035.97 3859.51 3501.09 3023.39 4977.96 3018.2 2981.66 2813.22 2808.96 2795.75 2539.98 2501.87 2358.77 2293.09 2292.71 1932.81 1932.44 1873.96 1823.29 1746.61 1724.08 1658.49 1618.97 1588.47 1484.13 1469.02 1444.95 1440.21 1423.55 1414.39
threshold=1.5000000000000002 46.500000000000007 51.000000000000007 653.50000000000011 313.50000000000006 287.50000000000006 62.500000000000007 66.000000000000014 683.50000000000011 2.5000000000000004 10.500000000000002 11.500000000000002 0.75206638669967663 0.75650000000000006 3.5000000000000004 7.0820500000000006 0.64300000333786023 480.00000000000006 583.00000000000011 11.500000000000002 71.500000000000014 752.50000000000011 5.5000000000000009 10.500000000000002 8.5000000000000018 3.5000000000000004 5.5000000000000009 1.0000000180025095e-35 15.500000000000002 6.5000000000000009 1.0000000180025095e-35 6.0000000000000009 318.00000000000006 1.0000000180025095e-35 4.5000000000000009 64.500000000000014 2.5000000000000004 12.500000000000002 209.50000000000003 0.84500001430511484 0.99950000000000017 0.87549999356269848 14.500000000000002 0.91850000000000021 68.500000000000014 5.5000000000000009 4.0000000000000009 1.0000000180025095e-35 1.0000000180025095e-35 204.50000000000003 1.0000000180025095e-35 0.83200000858306888 0.94300000929832473 11.500000000000002 4.3741500000000011 4.5000000000000009 14.500000000000002 4.5000000000000009 7.5000000000000009 7.5000000000000009 2.5000000000000004 0.72650000000000003
decision_type=2 2 2 2 2 2 2 2 2 2 2 2 2 2 2 2 2 2 2 2 2 2 2 2 2 2 2 2 2 2 2 2 2 2 2 2 2 2 2 2 2 2 2 2 2 2 2 2 2 2 2 2 2 2 2 2 2 2 2 2 2 2
left_child=3 16 4 10 5 13 19 8 -8 11 14 15 -9 54 30 34 35 -14 22 31 27 32 26 55 33 44 47 28 29 40 57 60 53 51 -7 -2 42 45 -23 49 52 -5 -37 56 -24 -15 -42 -19 -28 -33 -36 -10 -18 -22 -3 -11 -20 -1 -17 -40 -4 -16
right_child=1 2 6 41 -6 9 7 12 24 23 -12 -13 17 37 61 58 20 18 43 -21 21 38 25 -25 -26 -27 48 -29 -30 -31 -32 39 -34 -35 50 36 -38 -39 59 -41 46 -43 -44 -45 -46 -47 -48 -49 -50 -51 -52 -53 -54 -55 -56 -57 -58 -59 -60 -61 -62 -63
leaf_value=0.1349822852058539 -0.0095885126236783715 0.05853698886150626 0.16567897360431605 0.016240961635508058 -0.015831265794757958 0.13951783703565221 -0.018158848582300931 0.041780510008077101 0.17331297922672498 0.063070453514576949 -0.01696200878225115 -0.020618305020486411 -0.030531147408350862 0.008169471603014955 0.11927151159507443 0.28903296668830247 -0.0070658072672060953 0.01114959529080062 0.0049555782921602877 -0.044287441428857793 0.021902631083347952 -0.035001806833759974 -0.0012111687715380449 -0.027637372074365597 0.010043494020407993 -0.02346623499146944 0.040621156011040251 -0.051620295904809446 -0.049036922393483034 -0.025359105309774688 0.18007426661735895 0.0080633434970189613 -0.027180889252338015 0.16487631721083371 0.17460155835317639 0.070604491527373983 0.00057464066597842428 -0.046758614766794153 0.2640198730268265 -0.01867222870105947 -0.0080007850695408608 -0.022875441323509774 -0.042769828407546048 -0.013264244688703504 0.039192366115047485 0.045615554441536532 -0.032723593271615802 0.036382798171119592 0.079513212744181161 -0.016418783729258687 0.22779194903399991 0.098306320873925934 0.01583279388264372 -0.04794964969279561 0.10106468798127995 0.1015168740599026 -0.047230119438970854 0.09435593483078375 0.1140466824723782 -0.0031647069477721266 0.030865728729282279 0.077771668154688514
leaf_weight=9518 23020 6260 208 9102 19098 6349 7798 19694 855 4553 2844 1030 18055 22403 2580 1852 32039 27360 36002 24476 12266 131 6814 1194 1139 12933 10017 14410 16787 191199 5224 18684 8465 3833 5931 4703 12324 2132 438 132467 19490 9170 552 64653 7688 5001 18074 10502 4689 13438 2212 8414 11057 913 3483 6554 1416 2904 126 57 3343 10054
leaf_count=9518 23020 6260 208 9102 19098 6349 7798 19694 855 4553 2844 1030 18055 22403 2580 1852 32039 27360 36002 24476 12266 131 6814 1194 1139 12933 10017 14410 16787 191199 5224 18684 8465 3833 5931 4703 12324 2132 438 132467 19490 9170 552 64653 7688 5001 18074 10502 4689 13438 2212 8414 11057 913 3483 6554 1416 2904 126 57 3343 10054
internal_value=3.73667e-05 -0.00387563 0.00683067 0.0676888 0.0521754 0.0709766 -0.00237211 0.0101675 0.0670239 0.129967 0.106898 0.16878 0.00446723 0.0262202 0.118531 0.180625 -0.0191676 0.000795355 0.00390178 -0.0181177 -0.021851 0.00474488 0.018205 0.0747502 0.113668 -0.000380201 0.0279045 -0.0238054 -0.0224168 -0.020773 0.141646 -0.0143082 -0.000240556 0.122676 0.16735 0.00233499 0.017949 0.0105449 0.177117 -0.0154532 -0.00990205 -0.00339003 0.0586953 -0.00730903 0.0202081 0.0150031 -0.0198962 0.0181487 0.0530219 -0.00217857 0.18905 0.105225 -0.00119079 0.0170635 0.0737401 0.0857569 0.00298073 0.125485 0.277886 0.233253 0.0387624 0.0862464
internal_weight=939977 888581 522656 51396 88178 69080 434478 241862 22039 29801 33124 17500 219823 39279 30280 16470 365925 200129 182074 192616 325326 22270 80003 12301 14241 27435 52568 303056 288646 271859 17646 168140 21644 13102 14492 40599 17579 29536 626 164589 80660 18272 5255 102071 14502 27404 37564 37862 14706 32122 8143 9269 43096 13179 9743 11107 37418 12422 1978 495 3551 12634
internal_count=939977 888581 522656 51396 88178 69080 434478 241862 22039 29801 33124 17500 219823 39279 30280 16470 365925 200129 182074 192616 325326 22270 80003 12301 14241 27435 52568 303056 288646 271859 17646 168140 21644 13102 14492 40599 17579 29536 626 164589 80660 18272 5255 102071 14502 27404 37564 37862 14706 32122 8143 9269 43096 13179 9743 11107 37418 12422 1978 495 3551 12634
is_linear=0
shrinkage=0.05


Tree=4
num_leaves=63
num_cat=0
split_feature=17 17 19 19 19 19 17 16 17 19 13 10 10 7 4 7 7 13 19 19 10 15 10 8 13 7 10 16 0 4 19 17 8 13 19 19 3 16 19 17 7 7 16 5 7 10 19 2 13 16 7 7 10 19 4 10 3 10 2 0 7 4
split_gain=57602.5 56810.1 63572.7 85441.8 37517.4 51166.3 31056.1 29577.1 28948.8 32119.3 22535.1 17470 13753.6 10975.7 9861.8 8923.21 8080.11 8044.32 7110.62 10516 6949.18 5231.33 4977.02 4912.1 4692.91 4663.71 4600.09 4411.78 4117.21 3829.95 3790.55 3650.46 3439.6 3370.77 3112.78 3042.52 2821.78 2743.16 5045.31 2666.54 2386.42 2267.14 2163.81 2076.94 2055.13 1984.11 2331.79 1944.71 1880.77 1866.92 1862.77 1810.33 1675.58 1644.96 1551.84 1524.64 1474.37 1437.68 1427.9 1410.21 1393.77 1378.47
threshold=26.000000000000004 51.000000000000007 302.00000000000006 287.50000000000006 103.00000000000001 133.50000000000003 62.500000000000007 9.0000000000000018 66.000000000000014 683.50000000000011 2.5000000000000004 11.500000000000002 11.500000000000002 0.75206638669967663 22.415000000000003 0.99850000000000005 0.75949999523162848 3.5000000000000004 480.00000000000006 583.00000000000011 12.500000000000002 5.5000000000000009 11.500000000000002 1.0000000180025095e-35 3.5000000000000004 0.60950001358985906 8.5000000000000018 10.500000000000002 4.5000000000000009 24.825000000000003 6.0000000000000009 46.500000000000007 1.0000000180025095e-35 1.0000000180025095e-35 42.000000000000007 321.00000000000006 7.7757000000000014 9.0000000000000018 752.50000000000011 6.5000000000000009 0.86000000715255742 0.99950000000000017 23.500000000000004 60.135000000000012 0.56800000929832473 12.500000000000002 801.50000000000011 5.5000000000000009 2.5000000000000004 6.0000000000000009 0.94300000929832473 0.83200000858306888 6.5000000000000009 204.50000000000003 22.225000000000005 5.5000000000000009 9.7662000000000031 7.5000000000000009 5.5000000000000009 4.5000000000000009 0.85731354689598094 25.115000000000006
decision_type=2 2 2 2 2 2 2 2 2 2 2 2 2 2 2 2 2 2 2 2 2 2 2 2 2 2 2 2 2 2 2 2 2 2 2 2 2 2 2 2 2 2 2 2 2 2 2 2 2 2 2 2 2 2 2 2 2 2 2 2 2 2
left_child=15 2 3 4 -2 7 20 11 9 -8 12 17 14 57 -5 25 61 28 -15 21 30 23 54 43 42 34 32 33 52 -25 -3 -7 51 37 -1 -35 59 -4 -39 50 53 -21 -23 -20 -29 46 -36 -45 -48 -17 -27 -11 -6 -32 -12 -30 -18 -10 -33 -16 -46 -9
right_child=1 6 27 10 5 31 8 16 13 26 22 -13 -14 18 36 49 56 -19 19 41 -22 24 -24 29 -26 39 -28 44 55 -31 40 58 -34 35 45 -37 -38 38 -40 -41 -42 -43 -44 47 60 -47 48 -49 -50 -51 -52 -53 -54 -55 -56 -57 -58 -59 -60 -61 -62 -63
leaf_value=0.10175994303529499 -0.023768545931950127 0.036804760670130214 0.024963249155064787 0.13632061309489654 0.12501650198504702 -0.023640109802887929 -0.017699066233583107 0.054476602339666461 0.045653568147219839 0.16707679379834539 0.063390100592920093 -0.030361608554750341 -0.02065124272346339 -0.029192569126853935 0.18257664008259678 -0.036174013351430966 0.01143549827806549 0.08113628913460047 -0.018611572403074424 9.0175031410231685e-05 -0.044554619987442562 -0.0014363358118544189 -0.03712623009147744 0.030959981864873837 -0.022426152052753778 -0.0099606444496083482 0.011181751951382405 0.10903737761909482 0.18309197819018849 0.079410403125032558 0.0060588457684429007 0.0011508954047857228 0.15235659640023064 0.02675663906580646 -0.0027406990694721044 -0.01640914791374409 0.27360730913889103 -0.030493553705174099 0.23838601670984783 -0.019362102061105457 -0.01804448076224863 -0.014826607158218453 0.03717485438950948 0.012043810509041271 -0.0092304429574232624 -0.040623373263438699 0.064384666915450292 0.040269918944492514 0.013484790587445818 -0.023778924353405062 0.012963252633115541 0.090904178231816096 0.072979370858093418 -0.016021862949973431 0.10057879627477653 0.11514657059535859 0.071376907912937035 0.0083514629812511103 0.040018038078985928 0.2381824212008409 -0.028686834118411383 0.092436810746606493
leaf_weight=923 26675 3604 5591 9100 11004 18578 7739 5857 16602 867 5994 2328 993 18095 4103 44984 18824 12676 3974 53852 20765 6860 972 11926 12901 37396 1113 301 4297 6199 19896 8520 4525 5568 10030 15298 1578 295 427 79342 133763 48335 7703 22176 13927 1909 3047 8419 4488 93564 11614 7774 1800 14642 5273 1022 1085 3059 3270 1579 27146 4042
leaf_count=923 26675 3604 5591 9100 11004 18578 7739 5857 16602 867 5994 2328 993 18095 4103 44984 18824 12676 3974 53852 20765 6860 972 11926 12901 37396 1113 301 4297 6199 19896 8520 4525 5568 10030 15298 1578 295 427 79342 133763 48335 7703 22176 13927 1909 3047 8419 4488 93564 11614 7774 1800 14642 5273 1022 1085 3059 3270 1579 27146 4042
internal_value=-1.60001e-05 0.0081935 0.0290165 0.047291 0.028523 0.0434729 -0.00225291 0.0691932 0.00966765 0.0643306 0.123384 0.101708 0.160028 0.0041994 0.170995 -0.0186729 0.0330584 0.11169 0.000702479 0.00366911 -0.0172329 0.0172264 0.0714295 0.0264479 -0.000466616 -0.0101686 0.108789 -0.0108551 0.133061 0.0475307 -0.0139326 -0.00983013 0.117041 0.00479483 0.0120403 -0.00489055 0.214457 0.0368073 0.128525 -0.013698 -0.0150191 -0.00696554 0.0189868 0.015394 -0.0211356 0.00778785 0.0130493 0.0198109 0.0340677 -0.0278034 -0.00452832 0.098547 0.117701 -0.00330202 0.0807946 0.170037 0.0147022 0.0398498 0.0119308 0.198029 -0.0220896 0.0699767
internal_weight=940209 652912 218123 149570 119978 93303 434789 62935 242119 22018 29592 33127 17353 220101 16360 287297 29808 30799 200440 182345 192670 80158 12239 52694 27464 148749 14279 68553 18123 18125 171905 30368 13166 27179 20397 20866 7260 6313 722 128352 168301 102187 14563 34569 41374 19474 17565 30595 7535 138548 49010 8641 12804 34538 11267 5319 19909 19661 11790 5682 41073 9899
internal_count=940209 652912 218123 149570 119978 93303 434789 62935 242119 22018 29592 33127 17353 220101 16360 287297 29808 30799 200440 182345 192670 80158 12239 52694 27464 148749 14279 68553 18123 18125 171905 30368 13166 27179 20397 20866 7260 6313 722 128352 168301 102187 14563 34569 41374 19474 17565 30595 7535 138548 49010 8641 12804 34538 11267 5319 19909 19661 11790 5682 41073 9899
is_linear=0
shrinkage=0.05


Tree=5
num_leaves=63
num_cat=0
split_feature=17 17 19 19 19 19 17 16 17 19 13 10 10 19 19 13 3 13 10 19 9 10 12 15 10 10 16 0 17 19 13 0 16 19 8 19 3 9 10 19 8 16 9 0 5 13 10 0 10 10 3 19 14 13 9 13 19 8 5 13 10 9
split_gain=52138.5 50890.3 57238.8 76795.2 33787.7 46261.1 28181.5 27162.3 25954.2 28127.6 20091.6 15959.4 12307.1 8335.72 13565.7 7408.6 7198.84 6789.98 6288.24 5906.37 5812.28 5494.38 5776.15 5473.03 4430.35 4271.61 3931.01 3879.57 3300.36 3204.08 3166.83 3113.98 2903.08 4609.77 2728.62 2665.69 2515.23 2174.23 2016.07 1965.54 1955.6 1941.29 1728.35 1546.86 2192 1437.43 1389.17 1354.62 1341.22 1331.99 1329.89 1315.72 1498.78 1305.51 1291.49 1285.9 1269.2 1211.21 1176.09 1139.8 1138.46 1123.58
threshold=26.000000000000004 51.000000000000007 302.00000000000006 287.50000000000006 103.00000000000001 133.50000000000003 62.500000000000007 9.0000000000000018 66.000000000000014 683.50000000000011 2.5000000000000004 9.5000000000000018 11.500000000000002 480.00000000000006 583.00000000000011 3.5000000000000004 7.0820500000000006 2.5000000000000004 11.500000000000002 521.50000000000011 1.0000000180025095e-35 15.500000000000002 1.0000000180025095e-35 1.0000000180025095e-35 11.500000000000002 7.5000000000000009 10.500000000000002 4.5000000000000009 46.500000000000007 6.0000000000000009 1.0000000180025095e-35 4.5000000000000009 9.0000000000000018 752.50000000000011 1.0000000180025095e-35 321.00000000000006 6.4664500000000009 1.0000000180025095e-35 13.500000000000002 616.50000000000011 1.0000000180025095e-35 10.500000000000002 1.0000000180025095e-35 4.5000000000000009 74.50500000000001 2.5000000000000004 7.5000000000000009 4.5000000000000009 8.5000000000000018 4.5000000000000009 3.3357500000000004 205.50000000000003 815.50000000000011 1.5000000000000002 1.0000000180025095e-35 2.5000000000000004 375.50000000000006 1.0000000180025095e-35 60.135000000000012 4.5000000000000009 12.500000000000002 1.0000000180025095e-35
decision_type=2 2 2 2 2 2 2 2 2 2 2 2 2 2 2 2 2 2 2 2 2 2 2 2 2 2 2 2 2 2 2 2 2 2 2 2 2 2 2 2 2 2 2 2 2 2 2 2 2 2 2 2 2 2 2 2 2 2 2 2 2 2
left_child=21 2 3 4 -2 7 18 11 9 51 12 15 16 -10 17 27 43 40 29 -19 -9 22 23 56 59 31 30 -6 -7 55 32 54 -4 -34 58 -32 -22 -16 -13 53 -15 42 -31 49 -45 -44 -35 -17 -18 -5 -36 52 -8 -39 -11 -3 -1 -58 -21 -12 -41 -28
right_child=1 6 26 10 5 28 8 20 13 25 24 38 -14 14 37 47 48 19 -20 34 36 -23 -24 -25 -26 -27 61 -29 -30 41 35 -33 33 46 50 -37 -38 39 -40 60 -42 -43 45 44 -46 -47 -48 -49 -50 -51 -52 -53 -54 -55 -56 -57 57 -59 -60 -61 -62 -63
leaf_value=-0.015789799500273677 -0.022486448777571263 0.15910480004764094 0.023255076192412211 0.15122951184923006 0.1145479527242699 -0.022320190867346157 0.0071835870437561098 0.0071678863538564928 -0.027822645004610926 0.088407351995361372 0.030207300947431327 0.033591286627844795 -0.018256616073949457 0.026523415105442844 -0.01039753330333317 0.06854501206783277 0.2609951828629361 -0.022749499462000746 -0.04008849041905465 -0.017389143535221207 0.042368694621742108 -0.04503406892223788 -0.047659819788785633 -0.021656410839738707 -0.035373289197388726 0.021543744168134437 -0.027000936399589753 0.16633220056658882 0.01141400434194087 -0.015358617933716054 0.024921096950204613 0.15016261852360815 -0.029200549036530511 0.26137031984047465 0.022427490170209993 -0.01565917664855308 0.094264707544394005 0.036445066941122727 -0.042501323949935242 -0.0005584327212077156 0.047642521596428303 -0.023141666382374984 0.0046418878129360387 0.21423590259915343 0.14012755943770555 -0.013228203141395138 -0.018402756154537202 0.10515892686892861 0.076506811452026549 0.11261066835372487 0.055857263361491438 -0.030166728195806375 0.23132792254547022 0.003792022157207928 0.14294619766727953 0.02673225780551158 -0.0083035143229584826 0.0033878927537850179 0.012617757998742605 0.081928950881335019 -0.041786385913762603 -0.010284634427437319
leaf_weight=31437 26792 194 5581 7252 12138 18729 2373 13677 18718 7798 1191 1749 1009 31787 70386 8705 1868 12218 24404 3935 13343 17333 13673 127475 961 1458 24197 5152 11830 76082 5495 3753 280 394 6928 15356 2830 6461 1733 20677 16731 42540 26073 1929 2067 19798 50 3559 104 3226 5214 5235 77 5817 1261 3378 63726 33957 19190 10083 1822 17196
leaf_count=31437 26792 194 5581 7252 12138 18729 2373 13677 18718 7798 1191 1749 1009 31787 70386 8705 1868 12218 24404 3935 13343 17333 13673 127475 961 1458 24197 5152 11830 76082 5495 3753 280 394 6928 15356 2830 6461 1733 20677 16731 42540 26073 1929 2067 19798 50 3559 104 3226 5214 5235 77 5817 1261 3378 63726 33957 19190 10083 1822 17196
internal_value=-7.38416e-06 0.00780722 0.0274906 0.0447957 0.0270136 0.041206 -0.00209439 0.06573 0.00926801 0.0611051 0.116809 0.096966 0.151245 0.00409217 0.00706176 0.108895 0.161644 0.0206512 -0.0163713 0.00721012 0.0311601 -0.0177446 -0.0159945 -0.0143071 0.0676807 0.102637 -0.0103582 0.129978 -0.00926101 -0.0129275 0.00442441 0.111865 0.0354751 0.129674 0.0175894 -0.00496479 0.0514496 -0.00534401 -0.00428019 0.00488393 0.0338062 -0.0139448 -0.0107367 0.149434 0.175902 -0.00307087 0.229864 0.0791703 0.251266 0.139339 0.0367829 -0.0160135 0.0142281 0.0209749 0.0959991 0.0339216 -0.00705151 -0.0042393 0.00751172 0.076465 -0.00389713 -0.0200564
internal_weight=940385 652784 218476 149927 120237 93445 434308 62886 241839 21955 29690 33036 17455 219884 201166 29554 16446 96003 192469 47485 29850 287601 270268 256595 12235 14270 68549 17290 30559 168065 27156 12812 6305 724 35267 20851 16173 105163 3482 34777 48518 164493 121953 14474 3996 45871 444 12264 1972 10478 12142 7685 2450 12278 9059 3572 129120 97683 23125 11274 22499 41393
internal_count=940385 652784 218476 149927 120237 93445 434308 62886 241839 21955 29690 33036 17455 219884 201166 29554 16446 96003 192469 47485 29850 287601 270268 256595 12235 14270 68549 17290 30559 168065 27156 12812 6305 724 35267 20851 16173 105163 3482 34777 48518 164493 121953 14474 3996 45871 444 12264 1972 10478 12142 7685 2450 12278 9059 3572 129120 97683 23125 11274 22499 41393
is_linear=0
shrinkage=0.05


Tree=6
num_leaves=63
num_cat=0
split_feature=18 17 17 19 19 19 17 17 19 13 10 10 7 7 3 7 13 19 19 10 18 19 15 10 8 10 7 17 13 0 19 19 8 3 10 19 10 14 7 7 18 7 10 9 5 17 10 3 10 13 10 7 3 19 7 10 13 3 13 18 3 10
split_gain=73876 43442.5 63992 42065.3 32650.4 53320.8 25414.4 23518.1 26053.3 18464.7 14510.5 11133.9 9196.36 8733.46 6712.05 6709.15 6570.48 5752.76 8645.06 5728.28 4849.5 5199.89 4479.57 4239.09 4112.39 4010.79 3714.84 3740.33 3629.03 3290.86 3116.15 3027.52 2902.65 2699.01 2428.76 2280.09 2297.66 2269.74 2260.76 2080.2 2073.36 1939.18 1855 1734.87 1732.07 1726.7 2055.24 1698.09 1531.72 1510.12 1436.28 1358.38 1357.7 1334.74 1323.8 1278.87 1278.4 1270.2 1250.52 1222.03 1221.31 1194.73
threshold=1.5000000000000002 46.500000000000007 51.000000000000007 653.50000000000011 313.50000000000006 287.50000000000006 62.500000000000007 66.000000000000014 683.50000000000011 2.5000000000000004 9.5000000000000018 10.500000000000002 0.75206638669967663 0.75650000000000006 5.1415500000000014 0.64300000333786023 3.5000000000000004 480.00000000000006 583.00000000000011 12.500000000000002 71.500000000000014 752.50000000000011 5.5000000000000009 9.5000000000000018 1.0000000180025095e-35 8.5000000000000018 0.99850000000000005 6.5000000000000009 3.5000000000000004 4.5000000000000009 6.0000000000000009 318.00000000000006 1.0000000180025095e-35 4.3741500000000011 12.500000000000002 801.50000000000011 11.500000000000002 209.50000000000003 0.86649999189376847 0.84500001430511484 62.500000000000007 0.91850000000000021 12.500000000000002 1.0000000180025095e-35 71.895000000000024 4.0000000000000009 9.5000000000000018 5.2606500000000009 9.5000000000000018 2.5000000000000004 12.500000000000002 0.83200000858306888 7.0820500000000006 204.50000000000003 0.72650000000000003 13.500000000000002 5.5000000000000009 4.2349000000000006 2.5000000000000004 75.500000000000014 8.1298000000000012 7.5000000000000009
decision_type=2 2 2 2 2 2 2 2 2 2 2 2 2 2 2 2 2 2 2 2 2 2 2 2 2 2 2 2 2 2 2 2 2 2 2 2 2 2 2 2 2 2 2 2 2 2 2 2 2 2 2 2 2 2 2 2 2 2 2 2 2 2
left_child=3 15 4 10 5 13 19 8 59 11 16 14 56 57 44 35 29 -14 22 30 26 31 24 60 47 32 27 43 40 -1 58 50 51 -26 52 -2 49 -23 -5 53 -24 55 -12 -17 -7 46 -28 -19 -39 -37 -22 -10 -15 -32 -18 -20 61 -3 -4 -8 -11 -9
right_child=1 2 6 38 -6 9 7 12 25 23 42 -13 17 34 -16 20 54 18 41 -21 21 37 28 -25 33 -27 45 -29 -30 -31 39 -33 -34 -35 -36 36 -38 48 -40 -41 -42 -43 -44 -45 -46 -47 -48 -49 -50 -51 -52 -53 -54 -55 -56 -57 -58 -59 -60 -61 -62 -63
leaf_value=0.10874060966829882 -0.0046008592560672747 0.050111321555217664 0.1499172924966034 0.016410485859293229 -0.013088286316447845 0.16698688262866229 0.016812520499919419 0.045971285070497032 0.1489935612291447 0.069513769962080793 0.037583116578136705 -0.00094242235697053521 -0.026358456935694097 0.0097066516291014898 0.22651217968543139 0.0022711596547285609 0.10753933579371462 0.0075772478997364603 0.0046705986606064833 -0.040398851831569466 0.018753134304517471 -0.030745854386141604 -0.03279744327596245 -0.019044235069709106 0.031160134324946645 0.0076449789376782616 -0.0056606907630389128 -0.020267308361934709 -0.020081366082197773 0.15636003127894485 0.0061607587579478118 -0.023955180287350858 0.13730435990243123 0.073777505396118007 -0.042736351649840305 0.051825617452923793 -0.036297380429360003 0.22730410448778635 -0.018849612273683706 -0.016277563974346296 0.023598476166340972 -0.011582275637955892 -0.036053584998533013 -0.021224470004705388 0.12851758668813532 -0.02810602992978959 -0.040261486455637194 0.033113788027226566 -0.057395163937559668 0.01190741342957685 -0.048895799898823644 0.081804084599998619 0.050774355281804864 -0.014213214107860646 0.066919449064031591 -0.040438980247958028 -0.0011737613932896514 0.087731514936239763 0.025873301132514653 -0.027893380080454555 0.12785396602847302 0.0085465326883375735
leaf_weight=12221 29477 6293 216 8408 19106 4315 2089 15220 832 9947 1492 1223 17962 25228 2761 35395 2519 25729 35948 20669 12317 142 1870 1353 12838 1142 18678 98900 12885 5160 19367 8418 4620 5228 2106 4563 1459 435 9897 135359 12685 64649 2004 10098 9090 134499 5572 8715 53 4928 838 7847 2187 13743 9845 1643 2029 3487 3423 5698 986 2480
leaf_count=12221 29477 6293 216 8408 19106 4315 2089 15220 832 9947 1492 1223 17962 25228 2761 35395 2519 25729 35948 20669 12317 142 1870 1353 12838 1142 18678 98900 12885 5160 19367 8418 4620 5228 2106 4563 1459 435 9897 135359 12685 64649 2004 10098 9090 134499 5572 8715 53 4928 838 7847 2187 13743 9845 1643 2029 3487 3423 5698 986 2480
internal_value=1.95154e-05 -0.0033557 0.00588931 0.058214 0.0447526 0.0607742 -0.00198207 0.00880353 0.0578163 0.111366 0.0917323 0.144518 0.00384877 0.0225742 0.155522 -0.0165739 0.103058 0.000638393 0.0033 -0.0155277 -0.018961 0.00359512 0.0156167 0.0644433 0.0241722 0.0975664 -0.020613 -0.0148094 -0.000755574 0.122878 -0.0125409 -0.000539889 0.105288 0.0434929 0.00900783 0.00263642 0.0221189 0.14519 -0.00265366 -0.0135297 0.0163528 -0.00633143 -0.0046274 -0.00294412 0.140901 -0.0258918 -0.013611 0.0140385 0.196384 0.0310989 0.0144438 0.0882451 0.0129828 -0.00229589 0.0751952 0.00269898 0.0364183 0.0635246 0.0332362 -0.0159002 0.0747752 0.0407276
internal_weight=940286 888740 522968 51546 88082 68976 434886 242109 22228 29675 33241 17389 219881 39301 16166 365772 29745 200152 182190 192777 325345 22203 79950 12286 52510 14441 303142 144393 27440 17381 172108 21573 13299 18066 29521 40427 10950 630 18305 168469 14555 102240 3496 45493 13405 158749 24250 34444 488 9491 13155 8679 27415 33110 12364 37591 19729 9780 3639 7787 10933 17700
internal_count=940286 888740 522968 51546 88082 68976 434886 242109 22228 29675 33241 17389 219881 39301 16166 365772 29745 200152 182190 192777 325345 22203 79950 12286 52510 14441 303142 144393 27440 17381 172108 21573 13299 18066 29521 40427 10950 630 18305 168469 14555 102240 3496 45493 13405 158749 24250 34444 488 9491 13155 8679 27415 33110 12364 37591 19729 9780 3639 7787 10933 17700
is_linear=0
shrinkage=0.05


Tree=7
num_leaves=63
num_cat=0
split_feature=18 17 17 19 19 19 17 17 19 13 7 7 13 7 7 19 19 18 19 15 2 0 12 13 7 17 0 19 19 18 13 8 3 14 2 7 18 7 4 8 7 7 3 17 4 0 2 13 13 17 4 18 14 7 13 0 7 13 7 18 7 3
split_gain=65951.4 38751 56926.7 38200.2 29275.1 47498.4 22936.1 20872.4 23346.3 16612.3 8278.07 7943.45 7546.73 7100.65 6195.85 5203.44 7689.85 4408.08 5308.24 4025.4 3967.93 3756.99 3640.9 3293.07 2963.06 3277.65 2866.95 2743.86 2737.24 2168.67 3812.45 2119.9 2108.58 2054.45 2006.82 1999.26 1901.72 1791.9 1766.54 1753.02 1536.8 1524.26 1452.5 1325.7 1314.7 1390.31 1210.19 1206.88 1190.56 1610.13 1172.5 1165.94 1174.7 1163.86 1136.47 1118.72 1091.62 1071.53 1055.63 1040.25 1040.17 1031.79
threshold=1.5000000000000002 46.500000000000007 51.000000000000007 653.50000000000011 313.50000000000006 287.50000000000006 62.500000000000007 66.000000000000014 683.50000000000011 2.5000000000000004 0.75206638669967663 0.75650000000000006 3.5000000000000004 0.99950000000000017 0.64300000333786023 480.00000000000006 583.00000000000011 71.500000000000014 752.50000000000011 5.5000000000000009 5.5000000000000009 3.5000000000000004 1.0000000180025095e-35 1.5000000000000002 0.99850000000000005 6.5000000000000009 4.5000000000000009 6.0000000000000009 318.00000000000006 64.500000000000014 2.5000000000000004 1.0000000180025095e-35 7.0820500000000006 209.50000000000003 5.5000000000000009 0.86205766177177445 62.500000000000007 0.99950000000000017 24.505000000000006 1.0000000180025095e-35 0.83200000858306888 0.94300000929832473 7.0820500000000006 4.0000000000000009 18.275000000000002 3.5000000000000004 5.5000000000000009 4.5000000000000009 1.5000000000000002 54.500000000000007 25.425000000000004 75.500000000000014 815.50000000000011 0.83200000858306888 5.5000000000000009 4.5000000000000009 0.90021381974220283 2.5000000000000004 0.68400000762939472 58.500000000000007 0.86000000715255742 1.57535
decision_type=2 2 2 2 2 2 2 2 2 2 2 2 2 2 2 2 2 2 2 2 2 2 2 2 2 2 2 2 2 2 2 2 2 2 2 2 2 2 2 2 2 2 2 2 2 2 2 2 2 2 2 2 2 2 2 2 2 2 2 2 2 2
left_child=3 14 4 12 5 11 27 8 51 13 54 50 21 32 29 -12 19 22 28 20 39 46 24 36 25 41 40 57 -19 -2 -31 -22 -7 -20 -23 -5 -21 -18 44 -17 -10 -16 60 -26 -15 -46 -1 -11 49 56 -3 52 -8 -28 -9 -14 -29 -4 -51 -44 -13 -47
right_child=1 2 6 35 -6 9 7 10 26 47 15 42 55 38 17 16 37 18 33 23 31 34 -24 -25 43 -27 53 48 -30 30 -32 -33 -34 -35 -36 -37 -38 -39 -40 -41 -42 -43 59 -45 45 61 -48 -49 -50 58 -52 -53 -54 -55 -56 -57 -58 -59 -60 -61 -62 -63
leaf_value=0.098729410519029823 -0.007378942147139491 0.047323713918764498 0.13595644551912481 0.015504218213828431 -0.012554647585077353 0.16079038625937209 0.010102835630065756 0.038658557167179738 0.14021909923168657 0.016416567004680842 -0.024932896048055195 0.02419116423395741 0.050481188579240499 0.09414713567869426 -0.0072569695827341329 0.0066070227113805384 0.00035740395740008972 0.013558539628372855 -0.0282543416913432 -0.031045286212571535 0.030734278050890018 0.14893305380800889 -0.043999683380381571 -0.018919427226970965 -0.012571698472387913 -0.018341145983072047 0.2058635690709737 -0.00071182249796357551 -0.022811329033400905 0.051501070818292284 0.00071279826015808003 0.070294804526423296 0.22609737798218732 0.19206398275919689 0.093800472853093869 -0.01766929854638245 0.022793953000342693 -0.012912621496636462 0.014473589678793003 0.029332651897614317 0.072332043275956201 0.014126638011116136 0.095800077947492582 -0.02536633159853707 0.1118712574279819 0.1882656747546764 0.061131302127251187 0.066292514127588451 -0.020712386571335447 0.12186818420886994 0.083364459318548259 -0.026520086929688044 0.21432889606038186 0.1188339750680496 -0.00077824679502485131 0.081542949696973538 -0.012821683887045399 0.020788460852213222 -0.022567633061377185 0.02304508056158177 0.00027818205033339086 0.13275961189359992
leaf_weight=7818 23026 6099 214 8247 19085 3320 1986 17704 916 1365 18078 5763 9994 3605 33549 24937 53924 13175 134 1887 9426 5865 14514 13039 24203 96114 429 27487 8518 5276 12331 5285 1969 503 2297 10109 12539 48160 417 12863 9273 11088 741 123817 4445 1349 2947 10884 71310 127 3582 5734 73 3675 2037 4083 57619 3592 32311 1458 21562 2207
leaf_count=7818 23026 6099 214 8247 19085 3320 1986 17704 916 1365 18078 5763 9994 3605 33549 24937 53924 13175 134 1887 9426 5865 14514 13039 24203 96114 429 27487 8518 5276 12331 5285 1969 503 2297 10109 12539 48160 417 12863 9273 11088 741 123817 4445 1349 2947 10884 71310 127 3582 5734 73 3675 2037 4083 57619 3592 32311 1458 21562 2207
internal_value=-3.38149e-05 -0.00321748 0.00552395 0.0550558 0.0422335 0.0574391 -0.00189617 0.00835309 0.0546885 0.105295 0.00369887 0.0213554 0.0872143 0.136823 -0.0156877 0.000651945 0.00319244 -0.017985 0.00345495 0.0148021 0.0229147 0.107834 -0.0195636 -0.00070852 -0.0183354 -0.0131414 0.0926472 -0.0147684 -0.000722498 0.00272197 0.0159317 0.0449466 0.185103 0.145718 0.133417 -0.00276507 0.0157515 -0.00590297 0.115585 0.0143403 0.0784351 -0.0019452 0.00846767 -0.0232743 0.119218 0.130514 0.0884366 0.0607345 -0.0156155 -0.0125233 0.0606589 -0.0149308 0.0173435 0.127931 0.0345892 0.0594906 -0.00891052 0.027264 -0.0220021 0.0475614 0.00532157 0.153816
internal_weight=940084 888724 522476 51360 87851 68766 434625 241965 22086 29561 219879 39205 33004 17312 366248 200138 182060 325615 22330 79976 52511 18927 303285 27465 288771 140751 14293 192660 21693 40633 17607 14711 5289 637 8162 18356 14426 102084 12023 37800 10189 44637 29524 148020 11606 8001 10765 12249 188854 117544 9681 7793 2059 4104 19741 14077 85106 3806 32438 2199 27325 3556
internal_count=940084 888724 522476 51360 87851 68766 434625 241965 22086 29561 219879 39205 33004 17312 366248 200138 182060 325615 22330 79976 52511 18927 303285 27465 288771 140751 14293 192660 21693 40633 17607 14711 5289 637 8162 18356 14426 102084 12023 37800 10189 44637 29524 148020 11606 8001 10765 12249 188854 117544 9681 7793 2059 4104 19741 14077 85106 3806 32438 2199 27325 3556
is_linear=0
shrinkage=0.05


Tree=8
num_leaves=63
num_cat=0
split_feature=18 19 10 15 18 18 18 13 10 7 7 18 7 7 13 19 18 19 19 13 18 12 13 0 3 7 7 13 3 19 7 4 7 10 18 19 19 19 19 18 18 19 19 15 2 0 3 10 0 4 10 8 8 18 19 7 10 19 4 4 0 7
split_gain=59601.4 34275.9 28623.4 19902.5 20111.3 137539 17503.9 13787.9 12650.1 9781.93 8348.6 6548.66 6338.74 6172.97 5465.85 4712.36 6511.48 3568.19 4302.95 3164.43 3084.8 2834.08 2828.26 2746.41 2535.86 2426.97 2368.58 2206.77 2134.78 2102.44 2034.62 1860.83 1844.85 1740.95 1727.48 1660.91 1593.04 1904.51 1870.86 1542.55 3249.08 2677.33 2267.17 1640.81 1635.56 1432.46 1377.6 1354.33 1336.12 1317.6 1314.7 1129.62 1121.23 1117.93 1459.95 1099.18 1059.07 1025.28 1024.84 999.762 962.671 952.421
threshold=1.5000000000000002 653.50000000000011 12.500000000000002 5.5000000000000009 57.500000000000007 18.500000000000004 7.5000000000000009 1.5000000000000002 11.500000000000002 0.99950000000000017 0.99950000000000017 55.500000000000007 0.69702743148803725 0.75650000000000006 3.5000000000000004 635.50000000000011 23.500000000000004 462.00000000000006 583.00000000000011 2.5000000000000004 77.500000000000014 1.0000000180025095e-35 2.5000000000000004 4.5000000000000009 5.3685500000000008 0.5655 0.61750000000000005 2.5000000000000004 7.7757000000000014 158.00000000000003 0.97849998617172251 21.915000000000003 0.87549999356269848 15.500000000000002 65.500000000000014 23.500000000000004 39.500000000000007 19.000000000000004 332.50000000000006 60.500000000000007 59.500000000000007 583.00000000000011 579.00000000000011 1.0000000180025095e-35 5.5000000000000009 4.5000000000000009 9.3872000000000018 6.5000000000000009 4.5000000000000009 23.525000000000002 6.5000000000000009 1.0000000180025095e-35 1.0000000180025095e-35 73.500000000000014 344.00000000000006 0.72650000000000003 4.5000000000000009 635.50000000000011 24.365000000000006 21.345000000000002 4.5000000000000009 0.52750000000000019
decision_type=2 2 2 2 2 2 2 2 2 2 2 2 2 2 2 2 2 2 2 2 2 2 2 2 2 2 2 2 2 2 2 2 2 2 2 2 2 2 2 2 2 2 2 2 2 2 2 2 2 2 2 2 2 2 2 2 2 2 2 2 2 2
left_child=1 8 3 9 5 6 13 10 14 11 28 61 22 51 23 31 48 25 24 20 36 39 47 50 -19 29 27 -20 57 -13 -30 -12 -3 -4 -28 -21 37 -14 -38 40 43 42 -42 -11 -44 -9 -15 58 -17 56 59 -5 -26 54 -37 -16 -25 -7 -6 -1 -33 -2
right_child=2 32 33 4 12 7 -8 45 -10 21 15 17 19 46 55 16 -18 18 26 35 -22 -23 -24 49 52 -27 34 -29 30 -31 -32 60 -34 -35 -36 53 38 -39 -40 -41 41 -43 44 -45 -46 -47 -48 -49 -50 -51 -52 -53 -54 -55 -56 -57 -58 -59 -60 -61 -62 -63
leaf_value=0.11892065967418596 0.046359978429627108 0.013584309752654853 -0.022691966218594494 0.046020182090115297 0.048667681373006005 0.1548339054148461 -0.019584386938464156 0.048015977312448388 -0.030496144437690689 -0.0061684614626872974 0.10751089994103956 0.09642552936831128 0.13358763960715367 0.0062661871771567922 0.095477798131086353 0.076588568267672616 -0.031682240637491109 0.014149200745582553 0.06347612143090231 0.021670327808153839 0.030842883751891599 -0.040744404031296227 -0.0078122775884638604 0.17510979151703435 0.030070133977882541 -0.013857771692639555 0.0031477178960479576 0.0084812377318391943 0.14537826036265375 0.0080501761428518823 0.23210789425876344 0.13488193480673333 -0.018142483918746202 -0.04149886295995231 -0.014688841991223056 0.0086719532174233012 0.0096519557088833863 -0.017551959762409731 -0.0047386255670359154 -0.024265210667371917 -0.032230019153669603 -0.011339432716162607 0.005486615945592725 -0.022253500183254143 0.035510935222167181 0.080822256944489523 0.070955643135076935 0.0026694602333884 0.12020616802388361 0.10476244239106756 0.055924203773263195 0.082607993151610104 0.063610094652304799 -0.017621885460473878 -0.018141105126770415 0.058949721810050926 0.1151727335162705 0.10820391855609129 0.021531401775634295 0.088526984282945517 0.19410219831196612 -0.014212451559644438
leaf_weight=5115 655 9088 17166 6729 9334 3691 84511 11388 2290 20458 8015 874 211 19127 2581 6133 1283 33287 2808 3408 7748 10819 5840 2456 7043 32439 61722 5206 1205 2926 1541 2394 9241 43457 17402 10776 36541 17131 59136 33152 2876 45659 14118 70458 6683 4701 860 3194 2460 1827 1731 3073 3856 56490 9599 10192 1053 1732 5547 5744 962 70393
leaf_count=5115 655 9088 17166 6729 9334 3691 84511 11388 2290 20458 8015 874 211 19127 2581 6133 1283 33287 2808 3408 7748 10819 5840 2456 7043 32439 61722 5206 1205 2926 1541 2394 9241 43457 17402 10776 36541 17131 59136 33152 2876 45659 14118 70458 6683 4701 860 3194 2460 1827 1731 3073 3856 56490 9599 10192 1053 1732 5547 5744 962 70393
internal_value=1.70701e-05 0.0524092 -0.00300996 -0.000580663 0.00773774 0.0213005 -0.0079676 0.0948164 0.0828682 -0.00780818 0.115171 -0.00093324 -0.00189705 0.0249891 0.0913246 0.0986544 0.0733877 0.00446047 0.00829332 -0.00479184 0.00032247 -0.0158408 0.0224379 0.109134 0.0210032 -0.00942911 0.00184836 0.0277507 0.15813 0.0283765 0.194049 0.120599 -0.00241151 -0.0361735 -0.000775135 -0.0124861 -0.00176985 -0.015713 0.000757431 -0.0144476 -0.0124166 -0.00426418 0.00937982 -0.018634 0.0151329 0.0576016 0.00904964 0.0322116 0.0890754 0.139196 0.0963926 0.0574907 0.0419364 -0.0140005 -0.00396012 0.0663308 0.157124 0.139941 0.0385524 0.102844 0.151857 -0.013654
internal_weight=939535 51318 888217 827594 384760 159805 114300 45505 32989 442834 29416 238611 224955 29789 30699 21247 9876 167563 131324 201040 120767 204223 23915 17926 44186 36239 87138 8014 8169 3800 2746 11371 18329 60623 79124 80273 113019 17342 95677 193404 160252 69336 23677 90916 20801 16089 19987 18075 8593 5336 12590 9802 10899 76865 20375 12773 3509 5423 14881 10859 3356 71048
internal_count=939535 51318 888217 827594 384760 159805 114300 45505 32989 442834 29416 238611 224955 29789 30699 21247 9876 167563 131324 201040 120767 204223 23915 17926 44186 36239 87138 8014 8169 3800 2746 11371 18329 60623 79124 80273 113019 17342 95677 193404 160252 69336 23677 90916 20801 16089 19987 18075 8593 5336 12590 9802 10899 76865 20375 12773 3509 5423 14881 10859 3356 71048
is_linear=0
shrinkage=0.05


Tree=9
num_leaves=63
num_cat=0
split_feature=18 16 16 18 18 10 13 10 17 15 13 9 10 13 3 17 10 18 2 8 16 0 0 10 9 13 10 9 16 15 16 4 10 9 13 15 13 0 4 0 16 4 18 4 10 10 13 18 18 4 3 0 14 18 10 4 15 10 6 4 10 2
split_gain=53846.1 45084.6 28518 26541.2 66496.2 16711.7 11835.7 10023.8 9772.2 9219.05 12381.3 7789.31 7652.47 5982.98 5799.79 5001.97 4803.99 4798.39 4749.91 4343.21 2880.08 2791.4 2610.17 2294.01 1693.06 2052.74 1641.27 1630.13 1625.68 2051.78 1553.32 1902.1 1420.97 1356.15 1315.08 1679.1 1225.51 1198.41 1151.27 1129.46 1073.23 1066.23 1012.43 957.891 909.881 890.494 854.831 799.053 1579.03 914.643 786.894 773.724 765.781 765.001 741.995 741.491 741 1005.95 740.755 731.342 727.667 704.868
threshold=1.5000000000000002 19.500000000000004 21.500000000000004 18.500000000000004 58.500000000000007 9.5000000000000018 1.5000000000000002 9.5000000000000018 55.500000000000007 5.5000000000000009 1.5000000000000002 1.0000000180025095e-35 13.500000000000002 1.0000000180025095e-35 7.7757000000000014 66.000000000000014 14.500000000000002 57.500000000000007 5.5000000000000009 1.0000000180025095e-35 27.500000000000004 4.5000000000000009 4.5000000000000009 9.5000000000000018 1.0000000180025095e-35 2.5000000000000004 13.500000000000002 1.0000000180025095e-35 9.0000000000000018 5.5000000000000009 20.500000000000004 22.035000000000004 13.500000000000002 1.0000000180025095e-35 2.5000000000000004 5.5000000000000009 1.0000000180025095e-35 4.5000000000000009 23.495000000000001 4.5000000000000009 20.500000000000004 22.675000000000004 55.500000000000007 22.525000000000002 6.5000000000000009 1.0000000180025095e-35 1.5000000000000002 65.500000000000014 66.500000000000014 21.855000000000004 5.1415500000000014 4.5000000000000009 198.50000000000003 55.500000000000007 4.5000000000000009 19.195000000000004 2.5000000000000004 6.5000000000000009 1.8950000000000002 22.115000000000006 5.5000000000000009 4.5000000000000009
decision_type=2 2 2 2 2 2 2 2 2 2 2 2 2 2 2 2 2 2 2 2 2 2 2 2 2 2 2 2 2 2 2 2 2 2 2 2 2 2 2 2 2 2 2 2 2 2 2 2 2 2 2 2 2 2 2 2 2 2 2 2 2 2
left_child=7 12 3 8 5 6 14 9 13 -1 11 22 17 18 21 40 19 -2 33 34 53 30 43 -15 28 46 -7 -17 -19 -30 31 -5 -9 -3 35 42 52 -8 60 61 -6 -22 -4 -11 -29 -43 47 59 55 56 -44 54 -31 -21 -16 -49 -50 -58 -23 -26 -24 -12
right_child=1 2 16 4 15 26 37 32 -10 10 39 -13 -14 23 51 27 -18 24 -20 20 41 58 38 -25 25 -27 -28 44 29 36 -32 -33 -34 -35 -36 -37 -38 -39 -40 -41 -42 45 50 -45 -46 -47 -48 48 49 -51 -52 -53 -54 -55 -56 -57 57 -59 -60 -61 -62 -63
leaf_value=-0.0236022798227901 -0.018712624694342154 0.0004833674326853846 -0.013994202836420106 0.088770468625968657 -0.0010368581182436539 0.018562961770915588 0.048507905219217828 0.0079110039202232516 -0.021482798564429799 0.10473397765858759 0.04326362551809293 0.031332703084504553 -0.036529880711011403 0.0060434752211172152 0.17361239621922031 0.0030176318949185401 -0.038445842650405418 -0.012739997153589214 0.080209505331611239 -0.018187822497703256 0.0074800297618461634 0.12590685435698284 0.16368627206454289 -0.038509620710800468 -0.017803554281181914 -0.0094188162043606759 -0.04268621747435894 0.038806261954737305 -0.018482683105509313 0.0054348734483177777 0.076335001523212778 0.1307317382703122 -0.04340860650578416 0.034456147961982007 -0.0096999987923848466 0.026694476971480405 0.0011653963662676911 0.079600057452855838 0.10338283270046676 0.054253862171405466 -0.024314222616685546 0.011576580591274902 -0.0025937879985751481 0.076590121828133823 0.0061779728116505318 0.028502114669865582 0.076993739670510167 0.0069995856493511172 -0.021167744464291462 -0.0037871442636995922 0.012131962953668933 0.21772694044978058 0.043190371126816056 0.00047940170966751726 0.074236777168152066 0.047353400603882705 0.038646482887243178 -0.006347110368660651 0.17936760910820226 0.0042439108728632331 0.10240500155243829 0.020524311916609347
leaf_weight=3275 163844 4734 15521 6547 37379 2408 10890 3141 31456 6871 5265 4539 34501 11623 1590 6004 8726 143044 4774 8873 31576 6318 2686 3845 5736 46241 2004 13372 8559 2068 7241 4597 2364 7741 86956 5212 9901 4332 1860 5985 5708 14716 43739 5399 2543 16467 418 1646 996 12641 11446 945 3831 14388 213 3691 4223 1760 722 10926 591 9662
leaf_count=3275 163844 4734 15521 6547 37379 2408 10890 3141 31456 6871 5265 4539 34501 11623 1590 6004 8726 143044 4774 8873 31576 6318 2686 3845 5736 46241 2004 13372 8559 2068 7241 4597 2364 7741 86956 5212 9901 4332 1860 5985 5708 14716 43739 5399 2543 16467 418 1646 996 12641 11446 945 3831 14388 213 3691 4223 1760 722 10926 591 9662
internal_value=8.83365e-06 -0.00287549 0.00863557 0.0240882 0.0386917 0.0834548 0.0928809 0.0496449 -0.00158409 0.0572547 0.0634334 0.089667 -0.0138942 0.0175477 0.112075 0.00577183 -0.00198043 -0.0120327 0.0377954 -0.000701989 0.00838656 0.104617 0.104878 -0.00503143 -0.00775207 -0.00214917 -0.00925738 0.0252177 -0.0107067 0.0012335 0.0943647 0.10608 -0.0141271 0.0215642 -0.005502 -0.000693639 0.0119139 0.0573564 0.134801 0.0359027 -0.00412055 0.0139565 -0.00271252 0.0923502 0.0335927 0.0205146 0.00584748 0.00513293 0.0107937 0.00423429 0.000460501 0.18108 0.0299545 -0.00664128 0.161873 0.0349078 0.0187634 0.0254109 0.13139 -0.00334607 0.152634 0.0285448
internal_weight=940270 888632 434606 176986 112813 47807 43395 51638 64173 46133 42858 21946 454026 32717 28173 65006 257620 419525 17249 248894 86020 25425 17407 15468 255681 88278 4412 21919 167403 24359 18385 11144 5505 12475 162874 75918 15800 15222 5137 20912 43087 62759 70706 12270 15915 31183 42037 41619 24957 19620 55185 2748 5899 23261 1803 5337 6979 5983 7040 16662 3277 14927
internal_count=940270 888632 434606 176986 112813 47807 43395 51638 64173 46133 42858 21946 454026 32717 28173 65006 257620 419525 17249 248894 86020 25425 17407 15468 255681 88278 4412 21919 167403 24359 18385 11144 5505 12475 162874 75918 15800 15222 5137 20912 43087 62759 70706 12270 15915 31183 42037 41619 24957 19620 55185 2748 5899 23261 1803 5337 6979 5983 7040 16662 3277 14927
is_linear=0
shrinkage=0.05


Tree=10
num_leaves=63
num_cat=0
split_feature=18 16 19 16 18 18 13 7 7 7 13 7 18 19 19 13 17 19 7 11 19 16 18 7 13 13 11 19 17 4 18 4 2 3 12 13 1 7 11 4 11 2 11 18 7 13 2 5 1 5 17 19 17 19 1 7 17 7 7 7 11 11
split_gain=48532.4 40635.6 29306.7 25994.7 24077.6 60038.1 11967.1 10131.3 8382.77 6399.48 5297.9 4461.24 4298.12 3949.64 5628.97 4634.22 3825.12 3700.95 3490.73 3137.34 3019.92 6145.58 2719.98 2715.14 2699.45 2398.8 2305.99 2254.88 2147.55 2100 1849.36 1834.89 1731.65 1709.63 1681.69 1639.85 1580.14 1561.62 1495.82 1488.87 1478.86 1517.29 1446.69 1349.13 1315.73 1313.79 1239.61 1187.18 1156.32 1143.27 1122.56 1441.54 2229.52 1178.77 1108.26 1067.79 1058.72 978.588 974.662 962.843 907.485 906.794
threshold=1.5000000000000002 19.500000000000004 653.50000000000011 21.500000000000004 18.500000000000004 58.500000000000007 1.5000000000000002 0.70650000000000002 0.99950000000000017 0.75006037950515758 3.5000000000000004 0.99950000000000017 59.500000000000007 480.00000000000006 583.00000000000011 2.5000000000000004 55.500000000000007 481.50000000000006 0.89800000095367449 1.0000000180025095e-35 635.50000000000011 20.500000000000004 57.500000000000007 0.59912605237960825 1.0000000180025095e-35 2.5000000000000004 1.0000000180025095e-35 205.50000000000003 16.500000000000004 24.675000000000004 23.500000000000004 24.365000000000006 5.5000000000000009 4.9563500000000014 1.0000000180025095e-35 1.5000000000000002 1.0000000180025095e-35 0.86649999189376847 1.0000000180025095e-35 21.145000000000003 1.0000000180025095e-35 5.5000000000000009 1.0000000180025095e-35 51.500000000000007 0.99950000000000017 1.5000000000000002 5.5000000000000009 64.915000000000006 1.0000000180025095e-35 68.095000000000013 34.000000000000007 752.50000000000011 32.000000000000007 321.00000000000006 1.0000000180025095e-35 0.94300000929832473 34.000000000000007 0.98500000715255742 0.99049999833107005 0.72650000000000003 1.0000000180025095e-35 1.0000000180025095e-35
decision_type=2 2 2 2 2 2 2 2 2 2 2 2 2 2 2 2 2 2 2 2 2 2 2 2 2 2 2 2 2 2 2 2 2 2 2 2 2 2 2 2 2 2 2 2 2 2 2 2 2 2 2 2 2 2 2 2 2 2 2 2 2 2
left_child=2 11 10 4 7 6 8 35 30 -7 19 22 38 -14 15 29 24 -17 45 36 40 -22 -2 25 39 -24 59 46 -13 -15 -6 -19 -21 -32 42 -3 -1 -4 -5 -9 49 -42 55 -30 57 -16 -11 -33 -23 54 51 53 -53 -45 -10 -25 58 -8 -57 -12 -35 -26
right_child=1 3 37 12 5 9 44 16 20 27 26 28 13 14 18 17 -18 31 -20 32 21 48 23 34 61 -27 -28 -29 43 -31 33 47 -34 60 -36 -37 -38 -39 -40 -41 41 -43 -44 50 -46 -47 -48 -49 -50 -51 -52 52 -54 -55 -56 56 -58 -59 -60 -61 -62 -63
leaf_value=0.097587564508532607 -0.015464213459124465 0.06849251353709733 0.012429188266786281 -0.0067663782889295643 0.10889416519696656 0.032862165302197967 0.050453646591327055 0.0091192319063261879 0.14442586135259627 0.0033705448054629061 0.10152893812904558 -0.026904908429099636 -0.022025311302191194 0.023389432430032664 0.029171500343985697 -0.020655145315371909 -0.020831626430154643 0.0028870246352175593 -0.0090824786280071269 0.083260672619172776 -0.035261978981531175 0.066140474070285143 0.043450642259925565 -0.0046012795855578555 0.00022066132498444431 0.0021983784010722925 0.024233368479428752 -0.010877358390825608 -0.022116938597575311 0.055303471284669226 0.12737553921267716 -0.0045367356682812117 0.031649813034101935 0.198075944277704 -0.045754503128776096 0.019730610185602696 0.13918344704222482 -0.016813153935560068 -0.021139118797715413 0.045255743712364314 0.089125235228185259 -0.016042811946122709 -0.013758690847584305 0.0042389146536662616 0.037502227238761329 0.001751753261457138 0.034606184151364489 0.031850791191020099 0.10642715897965244 0.10764329445125349 -0.015452768338406628 -0.025262056669315393 0.15403448479731432 -0.015117951356767951 0.29008755071028586 0.017649185194953849 -0.0077986465323846565 0.097501742915143463 0.11458930794868186 0.059236048834359102 0.12922957925784129 -0.026385145491839956
leaf_weight=7777 82682 5138 8411 60609 2929 16108 2866 7898 829 11401 1636 53610 14845 19506 9106 10407 30663 19337 66418 5754 1401 6327 5118 71427 8161 11315 4879 33157 52989 7006 2445 2693 2265 2336 2678 2595 3232 9986 25812 4460 6520 362 38519 14673 12565 8397 4403 13372 2479 4313 88960 338 356 16951 155 8980 5173 1799 267 7585 602 5271
leaf_count=7777 82682 5138 8411 60609 2929 16108 2866 7898 829 11401 1636 53610 14845 19506 9106 10407 30663 19337 66418 5754 1401 6327 5118 71427 8161 11315 4879 33157 52989 7006 2445 2693 2265 2336 2678 2595 3232 9986 25812 4460 6520 362 38519 14673 12565 8397 4403 13372 2479 4313 88960 338 356 16951 155 8980 5173 1799 267 7585 602 5271
internal_value=-1.95535e-05 -0.00275475 0.0471584 0.00817207 0.0229124 0.036804 0.0792701 -0.00154326 0.097988 0.00552462 0.0752593 -0.013216 -0.00197026 0.00262083 0.00496253 0.0151858 -0.00889538 0.00555698 -0.00384761 0.0924715 0.0820669 0.0620066 -0.00824098 -0.00407842 0.0052962 0.0150463 0.0520313 -0.00346933 -0.0181535 0.031823 0.140867 0.0132625 0.068683 0.158264 -0.00655218 0.0521292 0.109799 -0.00344373 -0.0110592 0.0221609 0.098879 0.0835933 -0.00570802 -0.0154613 0.0459211 0.016017 0.0120728 0.0257511 0.0774817 0.118739 -0.0125534 -0.00457235 0.0667114 -0.00613669 0.167371 -0.00209574 0.010315 0.0685972 0.0204483 0.0667397 0.183969 -0.01022
internal_weight=940252 888727 51525 434691 177183 112997 47928 64186 30698 65069 33128 454036 257508 171087 156242 72321 56453 45809 83921 19028 22386 10207 226159 143477 25790 16433 14100 48961 227877 26512 8312 35402 8019 5383 127044 7733 11009 18397 86421 12358 12179 6882 124366 174267 17230 17503 15804 16065 8806 5297 121278 32318 694 31624 984 85847 14420 4665 9247 9221 2938 13432
internal_count=940252 888727 51525 434691 177183 112997 47928 64186 30698 65069 33128 454036 257508 171087 156242 72321 56453 45809 83921 19028 22386 10207 226159 143477 25790 16433 14100 48961 227877 26512 8312 35402 8019 5383 127044 7733 11009 18397 86421 12358 12179 6882 124366 174267 17230 17503 15804 16065 8806 5297 121278 32318 694 31624 984 85847 14420 4665 9247 9221 2938 13432
is_linear=0
shrinkage=0.05


Tree=11
num_leaves=63
num_cat=0
split_feature=18 16 19 16 18 18 10 10 7 13 10 7 7 7 10 8 13 19 16 17 18 19 19 10 18 13 19 4 0 19 7 15 5 10 7 19 19 13 13 4 7 7 10 19 7 2 7 7 19 7 7 5 2 0 0 10 7 16 17 19 15 19
split_gain=43691.8 36593.3 26473 23468.4 21703.4 54180.3 14573.6 10118.3 9417.28 9300 6892.41 6456.93 5825.02 4157.32 4107.4 3912.2 3665.74 3550.32 4992.89 3447.35 3011.33 2810.44 3195.69 2720.89 2430.71 2725.18 2243.83 2423.67 2117.24 2108.2 2017.19 2453.35 1929.44 1803.31 1691.98 1522.18 3307.08 2411.58 1520.62 1511.12 1456.15 1428.73 1411.03 1311.67 1217.47 1189.23 1141.68 1107.45 1077.7 1038.34 1007.62 986.389 983.869 947.571 937.006 914.258 902.023 1086.2 888.161 2342.26 1788.51 1354.79
threshold=1.5000000000000002 19.500000000000004 653.50000000000011 21.500000000000004 18.500000000000004 58.500000000000007 9.5000000000000018 8.5000000000000018 0.70650000000000002 1.5000000000000002 14.500000000000002 0.99950000000000017 0.75006037950515758 0.59912605237960825 14.500000000000002 1.0000000180025095e-35 3.5000000000000004 635.50000000000011 20.500000000000004 55.500000000000007 51.500000000000007 616.50000000000011 481.50000000000006 9.5000000000000018 10.500000000000002 2.5000000000000004 583.00000000000011 24.825000000000003 4.5000000000000009 205.50000000000003 0.99950000000000017 1.0000000180025095e-35 81.985000000000014 12.500000000000002 0.90950000000000009 480.00000000000006 583.00000000000011 2.5000000000000004 1.5000000000000002 22.415000000000003 0.52750000000000019 0.86205766177177445 12.500000000000002 481.50000000000006 0.99950000000000017 5.5000000000000009 0.87721429562568676 0.98000000953674327 635.50000000000011 0.72650000000000003 0.89800000095367449 52.155000000000008 5.5000000000000009 4.5000000000000009 4.5000000000000009 11.500000000000002 0.98750000000000016 9.0000000000000018 34.000000000000007 752.50000000000011 5.5000000000000009 318.00000000000006
decision_type=2 2 2 2 2 2 2 2 2 2 2 2 2 2 2 2 2 2 2 2 2 2 2 2 2 2 2 2 2 2 2 2 2 2 2 2 2 2 2 2 2 2 2 2 2 2 2 2 2 2 2 2 2 2 2 2 2 2 2 2 2 2
left_child=2 10 7 4 8 6 9 16 38 11 13 32 -7 24 15 35 28 39 -19 23 -15 22 -17 46 -2 40 27 -24 -1 45 56 -32 48 -9 -28 -5 37 -37 -3 -13 -26 55 -8 -39 -11 -14 -10 -34 -6 -18 -38 -45 -30 -20 -41 -4 -22 -58 59 61 -61 -33
right_child=1 3 41 14 5 12 42 33 19 44 -12 17 29 20 -16 21 49 18 53 -21 30 -23 26 -25 25 -27 34 -29 52 -31 31 58 47 -35 -36 36 50 43 -40 54 -42 -43 -44 51 -46 -47 -48 -49 -50 -51 -52 -53 -54 -55 -56 -57 57 -59 -60 60 -62 -63
leaf_value=0.08569897015949518 -0.013146839758304536 0.066164742153492731 0.017166351866889092 -0.014915278294119094 0.13855678674926294 0.03131996654841733 0.018723162551502401 0.030042072752295087 0.025301928751088994 0.075591169336620065 -0.035167982203735272 0.095173306420346257 0.0032252186780082925 -0.018016728220629774 -0.035586062616250545 0.00018014444287834996 0.090595281002135777 -0.033885115818262881 0.066685317517393677 -0.019832839275940914 -0.0047493866154242163 -0.0046451179399949498 0.022380226548594888 -0.032599326149601086 0.085824898146718842 0.0061711336051065669 0.027310333602444767 0.059820688048912718 0.13912154646330746 -0.01046486204633003 -0.025756781321707764 0.007591833649581721 0.13862223511496613 -0.03583079996396496 -0.0065651309802457272 0.022653440924492112 -0.0019744041742734684 -0.020212542337714162 0.019098472100018644 0.12065389686671582 0.030819421035482769 -0.015782501929109943 -0.038145366326815547 -0.018441197769693187 0.043976961157499848 0.033836917525994249 0.0021329238215823847 0.20693146369325552 0.090863069231329224 0.053886765827315601 -0.013232923265382283 0.009359671119752614 0.090512448314431754 0.10365667371235819 0.18758479428727423 -0.043304585377178351 0.0095064527093939814 0.094703823605032045 -0.012338704172641872 -0.023576743117180363 0.17548643952029361 -0.013557145619217378
leaf_weight=11781 7770 5129 7608 32404 3665 16162 2047 2186 9243 4199 31249 8178 11442 137674 8714 23224 2402 1145 5982 30670 118606 29192 12112 4063 1871 10305 7094 6721 3487 33153 29551 13667 1058 1980 7673 17244 32753 6749 2579 1969 3371 10147 2335 3814 11084 4390 12518 1351 1750 9729 50539 19520 1484 2440 712 681 1849 469 79841 174 321 16981
leaf_count=11781 7770 5129 7608 32404 3665 16162 2047 2186 9243 4199 31249 8178 11442 137674 8714 23224 2402 1145 5982 30670 118606 29192 12112 4063 1871 10305 7094 6721 3487 33153 29551 13667 1058 1980 7673 17244 32753 6749 2579 1969 3371 10147 2335 3814 11084 4390 12518 1351 1750 9729 50539 19520 1484 2440 712 681 1849 469 79841 174 321 16981
internal_value=2.01285e-05 -0.00257416 0.0448019 0.00778728 0.0217912 0.034975 0.0753343 0.0715803 -0.00142588 0.084083 -0.012509 0.101081 0.00529109 -0.0108328 -0.00184362 -0.000662951 0.0820874 0.0862866 0.0640781 -0.00849928 -0.0120317 0.00796448 0.0144424 0.00496107 0.00968878 0.0211014 0.0243003 0.0357417 0.0972455 -0.00329682 -0.00888022 -0.0129541 0.139704 -0.00126573 0.00970849 -0.00521505 -0.00280862 0.00774584 0.050417 0.105853 0.0504522 -0.0032021 -0.0115799 -0.000799402 0.052663 0.0117134 0.011974 0.176931 0.123143 0.0611552 -0.00880572 0.00481555 0.12461 0.0773966 0.138429 0.0121982 -0.00414568 0.0267444 -0.00954518 -0.00238344 0.105513 -0.00412609
internal_weight=940201 888716 51485 435017 177264 113062 47915 33049 64202 43533 453699 28250 65147 422450 257753 249039 28883 20426 9567 56494 399133 86016 56824 25824 23317 15547 33600 18833 16752 48985 261459 140535 7824 4166 14767 163023 130619 47327 7708 10859 5242 18436 4382 30083 15283 15832 21761 2409 5415 12131 83292 23334 4971 8422 2681 8289 120924 2318 110984 31143 495 30648
internal_count=940201 888716 51485 435017 177264 113062 47915 33049 64202 43533 453699 28250 65147 422450 257753 249039 28883 20426 9567 56494 399133 86016 56824 25824 23317 15547 33600 18833 16752 48985 261459 140535 7824 4166 14767 163023 130619 47327 7708 10859 5242 18436 4382 30083 15283 15832 21761 2409 5415 12131 83292 23334 4971 8422 2681 8289 120924 2318 110984 31143 495 30648
is_linear=0
shrinkage=0.05


Tree=12
num_leaves=63
num_cat=0
split_feature=18 16 19 16 18 18 10 10 13 7 10 7 7 7 10 19 8 13 19 16 18 19 19 7 18 13 13 19 10 0 5 19 2 7 2 19 19 13 19 19 7 10 7 17 9 5 19 19 0 2 7 7 17 10 2 7 7 0 8 19 5 5
split_gain=39412.9 33282.1 23683.6 21090 19460.6 48914 13236 9239.07 8600.08 8403.78 6251.49 6173.13 5201.5 3699.55 3697.67 3602.74 3552.25 3530.65 3149.3 4687.34 2802.08 2631.69 2928.95 2236.56 2160.16 2252.63 2083.21 2040.44 1984 1861.22 1846.4 1834.84 1824.37 1616.16 1587.6 1409.73 2985.94 2118 1366.71 6255.48 1341.97 1325.18 1321.06 1301.68 1495.07 1293.03 1184.97 1171.09 1150.08 1082.33 1079.62 997.242 952.908 1427.34 952.677 1075.13 932.431 922.179 914.778 902.252 893.279 874.835
threshold=1.5000000000000002 19.500000000000004 653.50000000000011 21.500000000000004 18.500000000000004 58.500000000000007 9.5000000000000018 7.5000000000000009 1.5000000000000002 0.84700000143051157 12.500000000000002 0.99950000000000017 0.75006037950515758 0.59912605237960825 14.500000000000002 158.00000000000003 1.0000000180025095e-35 3.5000000000000004 635.50000000000011 20.500000000000004 71.500000000000014 616.50000000000011 579.00000000000011 0.99850000000000005 10.500000000000002 2.5000000000000004 2.5000000000000004 583.00000000000011 12.500000000000002 4.5000000000000009 81.725000000000009 205.50000000000003 5.5000000000000009 0.90950000000000009 5.5000000000000009 480.00000000000006 583.00000000000011 2.5000000000000004 771.00000000000011 752.50000000000011 0.52750000000000019 13.500000000000002 0.87549999356269848 6.5000000000000009 1.0000000180025095e-35 68.375000000000014 779.50000000000011 481.50000000000006 4.5000000000000009 5.5000000000000009 0.98000000953674327 0.72650000000000003 55.500000000000007 8.5000000000000018 4.5000000000000009 0.73000000953674327 0.89800000095367449 4.5000000000000009 1.0000000180025095e-35 635.50000000000011 52.155000000000008 72.575000000000003
decision_type=2 2 2 2 2 2 2 2 2 2 2 2 2 2 2 2 2 2 2 2 2 2 2 2 2 2 2 2 2 2 2 2 2 2 2 2 2 2 2 2 2 2 2 2 2 2 2 2 2 2 2 2 2 2 2 2 2 2 2 2 2 2
left_child=2 10 7 4 9 6 8 17 11 15 13 30 -7 24 16 34 35 29 45 -20 23 22 -18 43 -2 40 38 32 -9 -1 59 49 -24 -29 -3 -5 37 -37 39 -22 -26 -8 -4 44 54 57 48 -39 -10 -14 -32 -19 53 -11 -15 -56 -38 -13 -21 -6 -49 -34
right_child=1 3 42 14 5 12 41 28 46 52 -12 18 31 20 -16 -17 21 51 19 58 26 -23 27 -25 25 -27 -28 33 -30 -31 50 -33 61 -35 -36 36 56 47 -40 -41 -42 -43 -44 -45 -46 -47 -48 60 -50 -51 -52 -53 -54 -55 55 -57 -58 -59 -60 -61 -62 -63
leaf_value=0.083158199780677927 -0.012181937511795398 0.025109689489943021 0.010511383822838288 -0.014288711642620664 0.13077740845711386 0.029635149030162834 0.014185108326254811 0.030436900802551448 0.042910836362660562 0.0042460038835468537 -0.030691465964416867 0.120802836841581 0.0028490298588674089 -0.012644948057190684 -0.033686064025607199 -0.016329472107876993 0.00053438527452317976 0.087622244600015331 -0.032688427422240776 0.061919099571708248 0.0058584342956661453 -0.0045603481989493089 0.024674391585457409 -0.018092621893122295 0.083033506363005161 0.0066630249817728835 -0.011175183851401602 0.026718458387085465 -0.034393797021632748 0.12032328336664166 0.13155640959789994 -0.0097225323281678096 0.023753365013433614 -0.0062424581659434666 0.058529993762280998 0.021323239769618904 -0.0017257014990602294 -0.01903154677939713 -0.011057692737433894 0.20367633459454468 0.029032720884957022 -0.040855025882297107 -0.016314525029846722 -0.012080182617487842 -0.018276749731402281 0.091655414707180777 -0.047405178364753338 -0.017581144525324902 0.073546051079451294 0.032078330297935262 0.1959321173138279 0.051211528087644946 -0.018878882503552352 -0.030717005264330806 -0.0086754121555059297 0.016688249686156013 -0.012563239775080646 0.2107549511896008 0.096710459290954454 0.086293390186274188 0.0090180130873757716 0.071235154034071005
leaf_weight=11393 7588 10051 9134 32235 3568 16139 2379 2975 10716 12760 40397 1759 11410 6089 8730 3991 23819 2337 1177 5500 37034 29226 12911 145539 1749 9936 50766 7250 1956 4783 1157 33378 1284 7636 5497 17353 32669 6711 12577 404 3362 2024 9224 107756 9480 8708 308 3770 4290 4384 1490 9628 28086 3785 5735 15390 50568 340 2878 1675 19393 3968
leaf_count=11393 7588 10051 9134 32235 3568 16139 2379 2975 10716 12760 40397 1759 11410 6089 8730 3991 23819 2337 1177 5500 37034 29226 12911 145539 1749 9936 50766 7250 1956 4783 1157 33378 1284 7636 5497 17353 32669 6711 12577 404 3362 2024 9224 107756 9480 8708 308 3770 4290 4384 1490 9628 28086 3785 5735 15390 50568 340 2878 1675 19393 3968
internal_value=1.72459e-05 -0.00244533 0.0425737 0.0074375 0.0207007 0.033163 0.0715004 0.0678532 0.07985 -0.00129922 -0.0119181 0.0962057 0.00500531 -0.0100836 -0.00170169 0.0260477 -0.000579373 0.0789157 0.0816569 0.0607445 -0.011222 0.00763376 0.0139006 -0.013718 0.00956929 0.0205381 -0.0040399 0.0235339 0.00472024 0.0941474 0.133752 -0.00307858 0.0347812 0.00981066 0.0369254 -0.00492544 -0.00261197 0.00743022 0.00320252 0.00799312 0.047512 -0.0111161 -0.00296733 -0.00931043 -0.00117676 0.100147 0.0496764 -0.000639864 0.051669 0.0109623 0.167794 0.0583233 -0.0132714 -0.00375248 0.00478002 0.00980254 -0.0083097 0.135373 0.0738706 0.116566 0.00468875 0.0596269
internal_weight=940205 888775 51430 434973 177450 113280 47969 33072 43566 64170 453802 28252 65311 413405 257523 19539 248793 28141 20362 9555 390770 86094 56868 289989 22635 15047 100781 33049 4931 16176 7890 49172 18163 14886 15548 162699 130464 47227 50015 37438 5111 4403 18358 144450 36694 10807 15314 29874 15006 15794 2647 11965 44631 16545 27214 21125 83237 2099 8378 5243 23163 5252
internal_count=940205 888775 51430 434973 177450 113280 47969 33072 43566 64170 453802 28252 65311 413405 257523 19539 248793 28141 20362 9555 390770 86094 56868 289989 22635 15047 100781 33049 4931 16176 7890 49172 18163 14886 15548 162699 130464 47227 50015 37438 5111 4403 18358 144450 36694 10807 15314 29874 15006 15794 2647 11965 44631 16545 27214 21125 83237 2099 8378 5243 23163 5252
is_linear=0
shrinkage=0.05


Tree=13
num_leaves=63
num_cat=0
split_feature=10 15 17 19 19 19 19 17 19 13 16 19 7 13 4 8 7 13 12 10 7 0 7 19 19 8 19 19 4 16 19 7 0 10 4 17 2 7 19 19 4 7 19 8 0 17 7 13 10 13 7 7 5 13 2 19 5 13 10 13 16 13
split_gain=24374.3 25707.9 23174.5 15825 39729.3 13607.9 32660.3 13536.6 18953.8 8462.51 7191.14 7052.78 5862.05 5535.64 4861.37 3812.94 3320.03 2992.79 2902.65 2383.63 2215.85 1808.15 1792.96 1775.47 1951.5 1654.43 1506.31 1568.7 1438.91 1426.02 1422.4 1357.09 1352.66 1250.76 1212.66 1188.22 1208.27 1139.89 1247.41 1135.09 1258.34 1122.08 1097.77 982.308 976.715 959.925 953.992 929.82 898.873 897.965 1008.58 890.21 883.036 856.829 856.189 827.545 1340.45 816.027 802.404 802.169 793.87 777.511
threshold=11.500000000000002 5.5000000000000009 52.500000000000007 302.00000000000006 287.50000000000006 139.50000000000003 115.50000000000001 62.500000000000007 683.50000000000011 2.5000000000000004 27.500000000000004 103.00000000000001 0.63801767849922186 2.5000000000000004 22.415000000000003 1.0000000180025095e-35 0.75949999523162848 3.5000000000000004 1.0000000180025095e-35 15.500000000000002 0.99850000000000005 3.5000000000000004 0.84500001430511484 133.50000000000003 801.50000000000011 1.0000000180025095e-35 480.00000000000006 497.50000000000006 23.445000000000004 19.500000000000004 19.000000000000004 0.99950000000000017 4.5000000000000009 5.5000000000000009 22.115000000000006 6.5000000000000009 4.5000000000000009 0.99950000000000017 579.00000000000011 583.00000000000011 24.825000000000003 0.94300000929832473 579.00000000000011 1.0000000180025095e-35 4.5000000000000009 80.000000000000014 0.75650000000000006 2.5000000000000004 5.5000000000000009 2.5000000000000004 0.52750000000000019 0.88700001215934765 78.105000000000004 1.5000000000000002 5.5000000000000009 583.00000000000011 60.135000000000012 2.5000000000000004 4.5000000000000009 4.5000000000000009 28.500000000000004 1.5000000000000002
decision_type=2 2 2 2 2 2 2 2 2 2 2 2 2 2 2 2 2 2 2 2 2 2 2 2 2 2 2 2 2 2 2 2 2 2 2 2 2 2 2 2 2 2 2 2 2 2 2 2 2 2 2 2 2 2 2 2 2 2 2 2 2 2
left_child=1 10 3 4 5 6 11 22 13 14 12 -3 23 26 -6 31 43 21 20 60 35 58 53 -1 -25 33 -9 -28 -23 -7 47 42 48 -10 -11 36 -14 38 -17 40 -40 -38 -12 -13 -19 -37 57 -24 -16 50 -26 61 -27 -4 -31 56 -44 -5 -8 -36 -2 -41
right_child=19 2 7 46 9 29 17 8 25 34 15 16 18 -15 32 37 -18 44 -20 -21 -22 28 30 24 49 52 27 -29 -30 54 -32 -33 -34 -35 59 45 41 -39 39 51 -42 -43 55 -45 -46 -47 -48 -49 -50 -51 -52 -53 -54 -55 -56 -57 -58 -59 -60 -61 -62 -63
leaf_value=0.081503839033760739 -0.019333418320731644 -0.013608586930712391 0.012403012571968719 0.041416989294227491 0.084713580595603771 -0.013011048433237799 0.0793565097459559 -0.013502812866925937 0.065127622251573439 0.037039163640222215 -0.010942867271471016 0.036436276151758394 -0.014813877001779305 -0.014757987407143517 0.13453878781546547 -0.00027031731912931364 0.011127021238136289 0.044066748626898314 -0.036299523281740645 -0.034028237655593777 -0.018003549293864256 0.11789807072475006 0.13111056557365902 -0.001546538952546849 0.098402328088417354 0.081468664657142503 0.025213905188711905 -0.020578243453688982 0.073324613790502965 6.7732265918311725e-05 -0.011003072881966978 -0.0084990284236237078 0.17338458672220752 0.004963449426225292 0.015851999605080231 -0.0139285170256902 -0.0011595253888172692 0.0044067811821959417 0.023820488282753183 0.046128778492317821 0.059829186918460703 0.022350852861965385 -0.01551985231615512 0.070876970478265119 0.074601089776541674 -0.00086904358236534671 -0.0030905876736624892 0.015956421941430373 0.075943932417929849 0.011248224371098256 0.032410176557444763 0.004363637405422784 0.12906319559422141 -0.004962918941345206 0.030957890993029438 -0.00052072810413230015 0.019572329424388503 0.0038101375926875426 0.047743921698139312 0.076616969726808662 0.0041664962159707955 0.0082820986096225398
leaf_weight=838 29262 23640 14164 2310 9137 24541 7195 3319 8098 5894 12066 6706 9678 20562 4364 7150 19026 8958 13747 45679 101655 5224 186 18978 681 3407 27078 2009 2771 8322 126955 63727 2100 967 612 65022 16313 27598 7586 3159 3567 7367 3270 2995 3701 17957 43949 3047 770 4775 3865 8947 1365 14248 3071 21644 16216 3841 2784 4826 4097 2379
leaf_count=838 29262 23640 14164 2310 9137 24541 7195 3319 8098 5894 12066 6706 9678 20562 4364 7150 19026 8958 13747 45679 101655 5224 186 18978 681 3407 27078 2009 2771 8322 126955 63727 2100 967 612 65022 16313 27598 7586 3159 3567 7367 3270 2995 3701 17957 43949 3047 770 4775 3865 8947 1365 14248 3071 21644 16216 3841 2784 4826 4097 2379
internal_value=-3.5436e-05 0.00240577 0.0112116 0.0237512 0.0320401 0.0194794 0.0306076 0.000266828 0.0191463 0.0859655 -0.00607766 0.00661894 -0.0113583 0.00553411 0.108957 0.00169181 0.0232646 0.0716162 -0.014016 -0.026608 -0.0126107 0.0847319 -0.00768553 0.00977924 0.0076553 0.0712538 0.0184097 0.0220511 0.102449 -0.00622443 -0.0101691 -0.00357748 0.139579 0.0587097 0.0527501 -0.00789853 7.11881e-05 0.0118945 0.0181971 0.0233473 0.0353369 0.0061547 0.00231836 0.0470692 0.0529938 -0.0111024 -0.000509386 0.0225814 0.125751 0.0263907 0.0422959 0.0141157 0.0950828 0.00369438 0.00839422 0.00620871 0.0136834 0.0179333 0.070537 0.0697784 -0.0164473 0.0298707
internal_weight=939365 860327 422142 196737 146637 118934 83000 225405 66805 27703 438185 52367 260876 52968 16371 177309 28727 30633 231739 79038 217992 17974 158600 29137 28299 13837 32406 29087 7995 35934 130188 116923 7234 9065 11332 116337 33358 60386 32788 25638 11153 23680 53196 9701 12659 82979 50100 3233 5134 9321 4546 14485 4772 28412 11393 41130 19486 6151 9979 5438 33359 5538
internal_count=939365 860327 422142 196737 146637 118934 83000 225405 66805 27703 438185 52367 260876 52968 16371 177309 28727 30633 231739 79038 217992 17974 158600 29137 28299 13837 32406 29087 7995 35934 130188 116923 7234 9065 11332 116337 33358 60386 32788 25638 11153 23680 53196 9701 12659 82979 50100 3233 5134 9321 4546 14485 4772 28412 11393 41130 19486 6151 9979 5438 33359 5538
is_linear=0
shrinkage=0.05


Tree=14
num_leaves=63
num_cat=0
split_feature=18 16 19 16 18 18 10 10 7 7 10 7 18 7 18 19 19 2 3 0 17 7 4 0 10 10 7 2 10 19 7 15 4 10 16 8 7 7 4 19 19 3 7 17 3 8 0 0 2 10 2 19 10 7 16 18 3 7 19 16 4 16
split_gain=32400.9 26610.9 19284.1 17113 15973.2 39709.5 11070.9 7520.15 6988.76 5756.4 5117.23 4359.79 3114.9 3488.88 3018.8 3092.66 3812.89 2799.17 2773.79 2605.08 2556.15 2433.97 2299.02 2137.95 2061.14 1933.77 1781.53 1638.21 1543.85 1542 1500.16 1998.51 1339.71 1327.96 1168.17 1336.81 1143.06 1101 1035.81 1194.31 1713.99 953.573 913.087 903.953 898.093 850.728 849.226 832.978 826.319 789.256 771.949 1097.58 760.313 753.081 916.791 721.934 707.874 659.144 652.203 1916.47 716.928 635.063
threshold=1.5000000000000002 19.500000000000004 653.50000000000011 21.500000000000004 18.500000000000004 58.500000000000007 8.5000000000000018 8.5000000000000018 0.70650000000000002 0.99950000000000017 15.500000000000002 0.75006037950515758 51.500000000000007 0.59912605237960825 59.500000000000007 480.00000000000006 583.00000000000011 5.5000000000000009 7.7757000000000014 4.5000000000000009 55.500000000000007 0.89800000095367449 24.625000000000004 4.5000000000000009 10.500000000000002 9.5000000000000018 0.98000000953674327 5.5000000000000009 13.500000000000002 205.50000000000003 0.99950000000000017 1.0000000180025095e-35 21.345000000000002 13.500000000000002 28.500000000000004 1.0000000180025095e-35 0.87549999356269848 0.99950000000000017 24.675000000000004 440.00000000000006 39.500000000000007 9.3872000000000018 0.86328519606590282 66.000000000000014 4.3741500000000011 1.0000000180025095e-35 4.5000000000000009 4.5000000000000009 5.5000000000000009 6.5000000000000009 4.5000000000000009 635.50000000000011 12.500000000000002 0.98750000000000016 9.0000000000000018 73.500000000000014 2.1252000000000009 0.65550000000000008 635.50000000000011 20.500000000000004 21.765000000000004 20.500000000000004
decision_type=2 2 2 2 2 2 2 2 2 2 2 2 2 2 2 2 2 2 2 2 2 2 2 2 2 2 2 2 2 2 2 2 2 2 2 2 2 2 2 2 2 2 2 2 2 2 2 2 2 2 2 2 2 2 2 2 2 2 2 2 2 2
left_child=2 10 7 4 8 6 9 19 43 18 12 49 57 38 25 -16 17 37 26 32 24 -18 23 58 41 -5 -6 -21 -8 48 53 -32 -1 -9 -19 -36 52 45 39 40 -14 42 -10 44 -3 -17 -20 -33 -13 -7 -25 -52 -4 -15 -55 -31 -37 -2 60 -60 -11 -53
right_child=1 3 36 14 5 11 28 33 20 22 -12 29 13 30 15 16 21 34 46 27 -22 -23 -24 50 -26 -27 -28 -29 -30 55 31 47 -34 -35 35 56 -38 -39 -40 -41 -42 -43 -44 -45 -46 -47 -48 -49 -50 -51 51 61 -54 54 -56 -57 -58 -59 59 -61 -62 -63
leaf_value=0.074780680736303909 -0.0051723360962585424 0.031105724834699412 0.013455778083008666 -0.006029384275626562 0.052968662722382487 0.031759003888683128 0.017671671695569598 0.022397566572680619 0.01996501542710687 0.056971929123807621 -0.03081367846796056 0.0027679414657594712 0.081651993756082772 -0.0039992355976148771 -0.019589146961685958 0.0070802849628996472 0.013609064811285716 0.0087293146791945029 0.12092047495894778 0.10844252363013021 -0.017249786769131224 -0.0073435237346701201 0.023323553751772606 0.074507551231838595 -0.030667531925910336 -0.02666068922906379 0.10269362756747583 0.060971815641568165 -0.037414085098735124 -0.0025018087753670148 -0.022552925824340223 -0.010714683243490279 0.04910766504539342 -0.034677345221963835 0.024568688556217744 0.022852617632850108 -0.015125138990539386 -0.00039573004117689068 0.00041675360713569064 0.040185974296050322 -0.015853574831284769 0.061015543592129177 -0.0010355703434615109 -0.032384912178913754 0.066261638969730571 0.026137188706195746 0.17126037206225248 -0.0011643791556954733 0.028433156919100162 0.0015454996068584249 0.13145542307879196 -0.031353082481341867 -0.047434888851162427 0.009379487390124161 0.089164861646049587 -0.017339519981894199 0.066087841810438808 -0.016319660227693551 -0.03490719957697324 0.054085966381675898 0.083252618094465061 0.084406296231861605
leaf_weight=9263 14740 3966 8640 73249 2679 13543 3458 2458 8903 8662 29615 11354 551 118900 14841 15836 17522 5453 2363 5833 30593 66330 3486 4057 3655 13442 5498 2640 2012 18236 29731 79143 11257 1741 9464 1236 9151 27146 5605 6223 2476 875 12364 375 3352 9293 1298 32089 4333 2572 1941 130 545 1851 447 14893 4045 132170 665 6701 3705 1337
leaf_count=9263 14740 3966 8640 73249 2679 13543 3458 2458 8903 8662 29615 11354 551 118900 14841 15836 17522 5453 2363 5833 30593 66330 3486 4057 3655 13442 5498 2640 2012 18236 29731 79143 11257 1741 9464 1236 9151 27146 5605 6223 2476 875 12364 375 3352 9293 1298 32089 4333 2572 1941 130 545 1851 447 14893 4045 132170 665 6701 3705 1337
internal_value=-1.03762e-05 -0.00224609 0.038536 0.00659136 0.0185629 0.0298779 0.0643659 0.0612705 -0.00137555 0.0729791 -0.0107196 0.00438704 -0.00931584 -0.00619465 -0.00162654 0.00222359 0.00429443 0.0126939 0.102597 0.0703276 -0.00747436 -0.0029652 0.0615523 0.0664522 0.00411844 -0.0092284 0.0864024 0.0936517 -0.00259022 -0.00305704 -0.00753036 -0.0110375 0.0606968 -0.00126698 0.0285023 0.0358148 -0.00261803 0.00658582 0.017378 0.0276556 0.00189521 0.0098606 0.0077559 0.043329 0.0472088 0.0141278 0.138768 -0.00795954 0.00985708 0.0269368 0.0892441 0.106787 0.00984278 -0.0034513 0.0248991 -0.00917204 0.0559688 -0.0152012 0.05783 0.0460517 0.0648453 0.0741481
internal_weight=939932 888404 51528 434863 177006 112923 47992 33192 64083 42522 453541 64931 423926 277016 257857 171166 156325 72473 11838 28993 56390 83852 30684 27198 25797 86691 8177 8473 5470 48816 262161 140963 20520 4199 20198 14745 18336 52275 14855 9250 3027 22142 21267 7693 7318 25129 3661 111232 15687 16115 7465 3408 9185 121198 2298 33129 5281 146910 19733 7366 12367 1467
internal_count=939932 888404 51528 434863 177006 112923 47992 33192 64083 42522 453541 64931 423926 277016 257857 171166 156325 72473 11838 28993 56390 83852 30684 27198 25797 86691 8177 8473 5470 48816 262161 140963 20520 4199 20198 14745 18336 52275 14855 9250 3027 22142 21267 7693 7318 25129 3661 111232 15687 16115 7465 3408 9185 121198 2298 33129 5281 146910 19733 7366 12367 1467
is_linear=0
shrinkage=0.05


Tree=15
num_leaves=63
num_cat=0
split_feature=18 16 19 19 19 17 17 13 10 10 7 10 12 7 18 3 18 7 16 13 19 19 3 10 10 13 10 10 13 8 10 0 19 13 7 19 7 15 16 19 19 15 13 0 3 0 7 16 6 13 10 3 8 13 7 13 13 10 10 17 7 19
split_gain=29002.6 24005.7 17677.9 15638.9 38478 8444.33 15671.1 8022 7156.4 5550.14 5207.56 4671.69 4162.37 4098.94 3294.64 3290.28 3059.43 3010.97 2867.33 2701.75 2471.52 3923.82 2569.44 2427.45 2133.47 1961.14 1646.45 1626.49 1612.37 1556.19 1420.26 1412.27 1382.97 1285.36 1263.75 1247.64 1448.51 1174.53 1551.16 3295.29 1304.66 1141.12 1135.65 1092.34 1703.52 1068.11 1007.04 1004.44 940.814 881.562 880.688 859.335 852.894 788.231 762.507 723.053 793.694 711.317 697.13 675.281 997.261 684.739
threshold=1.5000000000000002 19.500000000000004 653.50000000000011 300.50000000000006 287.50000000000006 62.500000000000007 66.000000000000014 2.5000000000000004 7.5000000000000009 10.500000000000002 0.70650000000000002 12.500000000000002 1.0000000180025095e-35 0.75650000000000006 75.500000000000014 7.0820500000000006 57.500000000000007 0.59912605237960825 20.500000000000004 3.5000000000000004 480.00000000000006 583.00000000000011 5.0240500000000017 6.5000000000000009 7.5000000000000009 10.500000000000002 8.5000000000000018 11.500000000000002 2.5000000000000004 1.0000000180025095e-35 13.500000000000002 4.5000000000000009 481.50000000000006 1.5000000000000002 0.99950000000000017 616.50000000000011 0.65849998974800117 5.5000000000000009 9.0000000000000018 752.50000000000011 344.00000000000006 5.5000000000000009 1.0000000180025095e-35 3.5000000000000004 1.5021500000000001 4.5000000000000009 0.86205766177177445 23.500000000000004 1.6950000000000001 11.500000000000002 7.5000000000000009 6.4664500000000009 1.0000000180025095e-35 4.5000000000000009 0.94999999403953561 2.5000000000000004 1.5000000000000002 12.500000000000002 5.5000000000000009 34.000000000000007 0.99149999189376847 752.50000000000011
decision_type=2 2 2 2 2 2 2 2 2 2 2 2 2 2 2 2 2 2 2 2 2 2 2 2 2 2 2 2 2 2 2 2 2 2 2 2 2 2 2 2 2 2 2 2 2 2 2 2 2 2 2 2 2 2 2 2 2 2 2 2 2 2
left_child=2 11 8 4 10 26 14 9 19 15 50 12 16 58 23 43 -2 25 27 31 -15 22 28 29 51 52 35 45 47 -7 -10 -1 -30 -24 54 -5 -37 -36 -39 40 -40 -35 -23 -6 48 -12 57 -22 -45 -21 -3 -9 -18 -34 55 56 -19 -4 -8 60 -56 -62
right_child=1 3 46 5 7 6 13 24 30 -11 18 -13 -14 20 -16 -17 17 34 -20 49 21 42 33 -25 -26 -27 -28 -29 32 -31 -32 -33 53 41 37 36 -38 38 39 -41 -42 -43 -44 44 -46 -47 -48 -49 -50 -51 -52 -53 -54 -55 59 -57 -58 -59 -60 -61 61 -63
leaf_value=0.071794807336966998 -0.013049619554171664 0.04907150655471041 0.013987640424190192 -0.0032519012107278381 0.080637752317755954 0.057216802273414441 0.029835324170239791 0.043809926214402439 0.022773930338499882 -0.0077804442463559297 0.0049236925160674079 -0.026370142521837364 -0.03470932783499199 -0.019030144159507191 -0.024030809793338388 0.16249889391372063 0.021003211459992566 0.00085347395345664447 -0.014220636803748923 0.034348511579164992 -0.0037049406810660867 0.00077480677407412051 0.04428339241349033 0.0086468089651613959 -0.0090518327836966901 -0.0043972980307724853 -0.025589216665968747 -0.028516291897739104 -0.019701325046749367 0.094834937617742351 -0.033053842121266108 0.10411782833643067 -0.010181100480850936 0.02593675845753194 -0.017469551590882912 0.0034327613694111561 -0.021044769055577586 -0.0091984614899720193 0.014211204614098173 0.1650121908782809 -0.019187419907221514 -0.007298091272163138 -0.0098145170926433531 0.12554372446808282 0.095757272708705363 0.024121295929335526 -0.013454346844289908 0.020043138988403243 0.21588906410999942 0.061814987174148732 -0.0068685895820657736 0.087452142520191872 0.053572781021850424 0.009371735450593421 0.013924531708672623 -0.0071682606878457943 0.068738390903936006 -0.046120073221368935 0.0080335746571026379 -0.005233794860289789 0.060791505378095773 0.23417073458999016
leaf_weight=11435 156450 6638 7660 52407 8035 8328 15057 9127 3240 1262 24917 40423 14679 14667 1218 1922 5266 42305 25152 5128 5711 53846 6559 1878 1851 5730 15949 2890 8155 4104 1757 4797 7140 9903 30915 7815 26671 70617 10606 329 4037 3494 47791 710 4997 10216 10133 20206 485 6789 787 1287 3251 18534 9376 53772 435 526 4847 5499 204 79
leaf_count=11435 156450 6638 7660 52407 8035 8328 15057 9127 3240 1262 24917 40423 14679 14667 1218 1922 5266 42305 25152 5128 5711 53846 6559 1878 1851 5730 15949 2890 8155 4104 1757 4797 7140 9903 30915 7815 26671 70617 10606 329 4037 3494 47791 710 4997 10216 10133 20206 485 6789 787 1287 3251 18534 9376 53772 435 526 4847 5499 204 79
internal_value=7.74959e-06 -0.00210596 0.0365004 0.00629411 0.0236125 0.00109901 0.00639644 0.0713849 0.0582858 0.0932037 0.00353185 -0.0101468 -0.00856098 0.00290726 0.054912 0.101095 -0.00759868 -0.00408084 -0.00112359 0.0680745 0.000711905 0.00230867 0.0106143 0.0616312 0.0404117 0.0182194 -0.0108225 0.00754003 0.00542582 0.0696351 0.00314427 0.0813471 -0.00176362 0.0261479 -0.00547325 -0.00811205 -0.0154978 -0.0091163 -0.00609908 0.00851947 0.00500338 0.017269 -0.00420443 0.0928 0.108582 0.010506 -0.00291756 0.0148101 0.162211 0.0499959 0.0431422 0.0492034 0.0334352 0.00393405 -0.0016725 -0.00330989 0.00154439 0.0101254 0.0245262 0.00875292 0.0167157 0.109191
internal_weight=939994 888529 51465 434556 100276 334280 231438 29676 33146 17411 70600 453973 413550 215910 15528 16149 398871 242421 63175 28149 196006 181339 79702 14310 12265 14247 102842 38023 59746 12432 4997 16232 33829 19956 228174 86893 34486 116504 85589 14972 14643 13397 101637 14227 6192 35133 18319 25917 1195 11917 7425 10414 8517 25674 111670 96512 42740 8186 19904 15158 9659 283
internal_count=939994 888529 51465 434556 100276 334280 231438 29676 33146 17411 70600 453973 413550 215910 15528 16149 398871 242421 63175 28149 196006 181339 79702 14310 12265 14247 102842 38023 59746 12432 4997 16232 33829 19956 228174 86893 34486 116504 85589 14972 14643 13397 101637 14227 6192 35133 18319 25917 1195 11917 7425 10414 8517 25674 111670 96512 42740 8186 19904 15158 9659 283
is_linear=0
shrinkage=0.05


Tree=16
num_leaves=63
num_cat=0
split_feature=18 16 19 19 19 17 17 7 7 11 4 12 11 18 8 7 16 4 18 8 7 2 8 19 19 4 5 2 3 19 19 11 2 7 9 15 16 19 19 11 16 8 7 7 6 4 11 19 7 8 5 2 7 8 4 19 19 11 5 17 2 18
split_gain=26200.7 21877.6 15894.5 14399.5 35320.7 7657.11 14182.6 4773.14 3637.6 3618.89 3969.73 3292.3 3050.87 3003.79 2369.65 2354.88 2167.1 1667.85 1601.26 1507.45 1457.17 1194.1 1190.33 1183.02 3283.29 1719.48 1181.33 1474.74 1177.57 1170.39 1621.1 1162.08 1098.44 932.522 926.768 925.945 1469.25 2251.68 1088.08 885.344 874.959 814.654 797.756 796.94 792.02 742.743 738.125 1006.88 1120.64 716.832 705.165 701.506 683.349 641.968 636.835 672.453 890.871 1061.66 613.82 597.268 707.386 587.775
